<?xml version="1.0"?>
<opencv_storage>
<opencv_ml_svm>
  <format>3</format>
  <svmType>C_SVC</svmType>
  <kernel>
    <type>RBF</type>
    <gamma>2.2500000000000003e-03</gamma></kernel>
  <C>1.2500000000000000e+01</C>
  <term_criteria><epsilon>1.1920928955078125e-07</epsilon>
    <iterations>1000</iterations></term_criteria>
  <var_count>40</var_count>
  <class_count>34</class_count>
  <class_labels type_id="opencv-matrix">
    <rows>34</rows>
    <cols>1</cols>
    <dt>i</dt>
    <data>
      0 1 2 3 4 5 6 7 8 9 10 11 12 13 14 15 16 17 18 19 20 21 22 23 24
      25 26 27 28 29 30 31 32 33</data></class_labels>
  <sv_total>3029</sv_total>
  <support_vectors>
    <_>
      3. 8. 8. 6. 4. 4. 4. 4. 4. 4. 4. 4. 4. 4. 5. 5. 5. 6. 8. 6. 0. 0.
      0. 0. 2. 15. 18. 6. 5. 5. 5. 5. 7. 18. 14. 0. 0. 0. 0. 0.</_>
    <_>
      6. 9. 9. 5. 5. 5. 5. 4. 4. 4. 4. 4. 4. 4. 4. 4. 6. 10. 8. 5. 0. 0.
      0. 0. 6. 15. 14. 9. 6. 6. 6. 4. 5. 9. 12. 11. 6. 0. 0. 0.</_>
    <_>
      8. 11. 9. 7. 6. 6. 6. 6. 5. 5. 6. 6. 6. 6. 5. 5. 7. 9. 10. 7. 0.
      0. 8. 15. 17. 11. 5. 6. 5. 5. 5. 5. 6. 12. 17. 13. 6. 0. 0. 0.</_>
    <_>
      4. 7. 9. 8. 7. 7. 7. 7. 7. 7. 6. 7. 7. 7. 6. 6. 7. 10. 8. 6. 0. 0.
      0. 0. 0. 13. 16. 18. 17. 6. 6. 6. 7. 19. 17. 15. 0. 0. 0. 0.</_>
    <_>
      6. 10. 9. 6. 6. 6. 6. 6. 6. 6. 4. 6. 6. 6. 6. 6. 5. 8. 10. 6. 0.
      0. 0. 8. 15. 17. 11. 5. 5. 4. 5. 5. 5. 12. 16. 15. 7. 0. 0. 0.</_>
    <_>
      8. 10. 8. 6. 5. 6. 6. 6. 6. 6. 6. 6. 6. 5. 6. 6. 7. 8. 9. 6. 0. 0.
      0. 11. 16. 17. 8. 4. 5. 4. 4. 5. 7. 15. 17. 14. 5. 0. 0. 0.</_>
    <_>
      4. 7. 9. 6. 7. 7. 7. 7. 7. 7. 7. 7. 7. 7. 7. 7. 7. 9. 7. 4. 0. 0.
      0. 0. 12. 16. 18. 19. 6. 6. 6. 7. 18. 16. 13. 0. 0. 0. 0. 0.</_>
    <_>
      3. 6. 8. 7. 8. 7. 7. 7. 7. 7. 7. 7. 7. 7. 7. 7. 7. 9. 7. 5. 0. 0.
      0. 0. 13. 16. 18. 8. 6. 6. 6. 19. 17. 15. 13. 0. 0. 0. 0. 0.</_>
    <_>
      4. 6. 8. 8. 7. 7. 7. 7. 7. 7. 7. 7. 7. 7. 7. 7. 6. 9. 7. 5. 0. 0.
      0. 0. 14. 16. 18. 7. 6. 6. 7. 19. 17. 15. 12. 0. 0. 0. 0. 0.</_>
    <_>
      2. 8. 9. 7. 5. 4. 4. 4. 3. 3. 3. 3. 3. 3. 4. 4. 5. 7. 8. 5. 0. 0.
      0. 0. 5. 16. 10. 5. 5. 6. 4. 5. 7. 12. 16. 3. 0. 0. 0. 0.</_>
    <_>
      2. 6. 8. 7. 6. 6. 6. 6. 6. 6. 6. 6. 6. 6. 7. 6. 7. 10. 8. 4. 0. 0.
      0. 0. 1. 15. 17. 18. 6. 6. 6. 6. 18. 17. 15. 0. 0. 0. 0. 0.</_>
    <_>
      6. 9. 8. 6. 4. 5. 5. 6. 6. 6. 6. 6. 6. 5. 4. 4. 5. 7. 9. 6. 0. 0.
      0. 0. 12. 17. 16. 6. 5. 4. 4. 5. 5. 15. 17. 13. 0. 0. 0. 0.</_>
    <_>
      7. 9. 7. 5. 4. 3. 3. 4. 4. 4. 4. 4. 4. 4. 4. 4. 6. 10. 8. 3. 0. 0.
      0. 0. 3. 16. 15. 6. 5. 4. 5. 6. 6. 6. 17. 12. 0. 0. 0. 0.</_>
    <_>
      7. 9. 8. 5. 4. 3. 4. 3. 3. 3. 4. 4. 4. 4. 4. 4. 5. 11. 8. 5. 0. 0.
      0. 0. 5. 17. 12. 6. 4. 5. 5. 6. 6. 7. 17. 12. 0. 0. 0. 0.</_>
    <_>
      6. 9. 8. 5. 4. 4. 4. 4. 5. 5. 5. 5. 4. 3. 3. 4. 6. 9. 8. 3. 0. 0.
      0. 0. 0. 11. 16. 14. 7. 5. 4. 6. 6. 6. 14. 15. 0. 0. 0. 0.</_>
    <_>
      4. 8. 10. 5. 4. 4. 4. 4. 4. 4. 4. 4. 4. 4. 4. 4. 5. 7. 9. 6. 0. 0.
      0. 0. 0. 15. 17. 9. 5. 6. 5. 5. 4. 6. 15. 15. 0. 0. 0. 0.</_>
    <_>
      4. 8. 10. 5. 5. 4. 4. 4. 4. 4. 4. 4. 4. 4. 4. 4. 5. 6. 10. 8. 0.
      0. 0. 0. 0. 16. 18. 6. 6. 5. 5. 5. 5. 6. 18. 15. 0. 0. 0. 0.</_>
    <_>
      6. 9. 11. 7. 4. 3. 3. 3. 3. 3. 3. 4. 4. 4. 4. 4. 5. 8. 10. 7. 0.
      0. 0. 0. 0. 17. 18. 6. 7. 5. 5. 5. 6. 8. 12. 16. 0. 0. 0. 0.</_>
    <_>
      6. 8. 10. 6. 5. 4. 4. 4. 4. 4. 4. 4. 4. 4. 4. 4. 5. 7. 9. 7. 0. 0.
      0. 0. 13. 17. 8. 7. 5. 5. 5. 6. 6. 6. 16. 13. 0. 0. 0. 0.</_>
    <_>
      5. 8. 5. 5. 4. 4. 5. 5. 6. 7. 8. 8. 8. 8. 8. 8. 10. 11. 9. 6. 0.
      0. 0. 11. 16. 18. 11. 6. 5. 5. 5. 6. 14. 17. 15. 9. 0. 0. 0. 0.</_>
    <_>
      4. 7. 6. 5. 6. 6. 6. 6. 6. 6. 6. 6. 6. 6. 7. 8. 8. 11. 9. 4. 0. 0.
      0. 0. 14. 16. 18. 6. 5. 4. 5. 5. 7. 18. 17. 14. 0. 0. 0. 0.</_>
    <_>
      4. 8. 3. 3. 4. 4. 4. 4. 5. 5. 4. 6. 6. 6. 10. 8. 5. 6. 7. 7. 0. 0.
      0. 0. 0. 13. 18. 10. 8. 8. 8. 8. 10. 15. 11. 0. 0. 0. 0. 0.</_>
    <_>
      4. 7. 6. 6. 5. 5. 5. 6. 7. 7. 7. 7. 7. 7. 7. 8. 10. 10. 8. 2. 0.
      0. 0. 0. 14. 16. 18. 6. 5. 5. 5. 6. 14. 17. 15. 10. 0. 0. 0. 0.</_>
    <_>
      3. 6. 6. 4. 5. 5. 5. 4. 5. 6. 6. 6. 6. 6. 6. 6. 10. 8. 6. 2. 0. 0.
      0. 0. 1. 12. 16. 12. 7. 5. 6. 6. 8. 17. 13. 8. 0. 0. 0. 0.</_>
    <_>
      6. 8. 11. 11. 7. 7. 7. 7. 6. 7. 7. 7. 7. 7. 6. 6. 10. 11. 9. 4. 0.
      0. 0. 0. 6. 18. 19. 20. 8. 8. 7. 8. 16. 17. 16. 8. 0. 0. 0. 0.</_>
    <_>
      11. 8. 6. 6. 7. 7. 7. 7. 7. 7. 6. 6. 6. 6. 6. 6. 7. 12. 11. 9. 0.
      0. 0. 14. 18. 20. 14. 5. 4. 3. 4. 4. 4. 6. 19. 18. 15. 0. 0. 0.</_>
    <_>
      7. 10. 10. 5. 4. 4. 4. 4. 4. 2. 4. 4. 4. 4. 4. 4. 5. 7. 9. 7. 0.
      0. 0. 0. 9. 17. 11. 5. 5. 5. 6. 5. 7. 11. 17. 8. 0. 0. 0. 0.</_>
    <_>
      2. 6. 7. 4. 4. 4. 4. 4. 3. 3. 4. 3. 4. 4. 3. 3. 4. 4. 6. 3. 0. 0.
      0. 0. 0. 0. 9. 16. 9. 5. 5. 4. 9. 14. 8. 0. 0. 0. 0. 0.</_>
    <_>
      5. 7. 6. 4. 4. 4. 4. 4. 4. 4. 4. 4. 4. 4. 4. 4. 4. 8. 6. 2. 0. 0.
      0. 0. 0. 0. 15. 18. 6. 4. 5. 6. 11. 17. 8. 0. 0. 0. 0. 0.</_>
    <_>
      6. 7. 4. 4. 4. 4. 4. 3. 3. 4. 4. 4. 4. 4. 4. 2. 4. 8. 6. 2. 0. 0.
      0. 0. 0. 0. 14. 18. 5. 4. 5. 5. 9. 16. 9. 0. 0. 0. 0. 0.</_>
    <_>
      5. 7. 5. 5. 4. 4. 4. 3. 3. 3. 3. 3. 3. 3. 3. 3. 4. 5. 7. 3. 0. 0.
      0. 0. 4. 14. 11. 5. 4. 4. 5. 5. 10. 16. 2. 0. 0. 0. 0. 0.</_>
    <_>
      4. 7. 6. 4. 2. 3. 4. 4. 4. 4. 4. 4. 4. 4. 2. 2. 3. 4. 8. 6. 0. 0.
      0. 0. 0. 12. 15. 6. 4. 4. 4. 4. 5. 15. 14. 0. 0. 0. 0. 0.</_>
    <_>
      3. 7. 5. 4. 3. 4. 3. 3. 3. 4. 4. 4. 3. 3. 3. 3. 4. 5. 7. 5. 0. 0.
      0. 0. 0. 2. 16. 12. 5. 5. 4. 4. 5. 13. 14. 0. 0. 0. 0. 0.</_>
    <_>
      4. 6. 7. 6. 5. 5. 5. 5. 5. 5. 5. 4. 4. 3. 3. 3. 4. 6. 6. 2. 0. 0.
      0. 0. 0. 8. 15. 17. 5. 4. 4. 5. 5. 14. 16. 0. 0. 0. 0. 0.</_>
    <_>
      5. 8. 10. 8. 7. 7. 6. 6. 6. 6. 6. 6. 6. 6. 6. 6. 6. 6. 8. 9. 0. 0.
      0. 0. 15. 17. 19. 8. 5. 5. 4. 4. 5. 19. 18. 15. 0. 0. 0. 0.</_>
    <_>
      4. 9. 11. 9. 9. 7. 7. 7. 7. 6. 7. 7. 7. 7. 7. 7. 7. 7. 10. 11. 0.
      0. 0. 12. 16. 18. 19. 6. 5. 4. 4. 4. 5. 7. 19. 18. 16. 0. 0. 0.</_>
    <_>
      5. 8. 6. 4. 4. 4. 5. 5. 5. 8. 7. 8. 8. 8. 8. 8. 10. 10. 8. 2. 0.
      0. 0. 0. 11. 16. 18. 13. 5. 5. 5. 5. 11. 18. 16. 8. 0. 0. 0. 0.</_>
    <_>
      2. 5. 5. 4. 5. 6. 6. 6. 6. 6. 6. 7. 6. 6. 6. 7. 8. 11. 9. 6. 0. 0.
      0. 0. 13. 16. 18. 6. 4. 4. 4. 4. 8. 17. 16. 13. 0. 0. 0. 0.</_>
    <_>
      1. 6. 4. 3. 3. 4. 4. 4. 4. 4. 4. 4. 4. 5. 5. 5. 7. 10. 9. 6. 0. 0.
      0. 0. 0. 16. 13. 7. 6. 4. 4. 5. 10. 17. 14. 0. 0. 0. 0. 0.</_>
    <_>
      5. 4. 5. 4. 5. 5. 5. 5. 5. 6. 6. 6. 6. 5. 6. 6. 8. 8. 7. 3. 0. 0.
      0. 0. 11. 16. 12. 6. 4. 4. 6. 11. 17. 15. 8. 0. 0. 0. 0. 0.</_>
    <_>
      8. 10. 11. 7. 6. 5. 5. 5. 5. 5. 6. 6. 6. 6. 5. 6. 7. 11. 9. 5. 0.
      0. 0. 0. 4. 16. 18. 9. 6. 6. 5. 6. 6. 7. 19. 17. 15. 0. 0. 0.</_>
    <_>
      8. 11. 10. 10. 8. 6. 7. 7. 7. 7. 6. 6. 7. 7. 7. 9. 10. 12. 9. 5.
      0. 0. 0. 14. 16. 18. 9. 8. 6. 5. 5. 7. 8. 16. 17. 17. 13. 0. 0. 0.</_>
    <_>
      8. 11. 10. 10. 7. 6. 7. 7. 7. 7. 7. 7. 7. 7. 7. 9. 10. 13. 9. 5.
      0. 0. 0. 15. 17. 18. 9. 8. 6. 5. 5. 7. 8. 17. 17. 16. 13. 0. 0. 0.</_>
    <_>
      4. 6. 6. 5. 6. 6. 6. 6. 6. 6. 7. 6. 7. 7. 6. 6. 5. 7. 6. 4. 0. 0.
      0. 0. 0. 12. 16. 18. 6. 4. 5. 13. 18. 16. 10. 0. 0. 0. 0. 0.</_>
    <_>
      6. 4. 5. 4. 4. 4. 4. 4. 4. 4. 4. 4. 4. 4. 4. 4. 4. 8. 6. 2. 0. 0.
      0. 0. 0. 0. 16. 18. 5. 4. 4. 3. 4. 18. 15. 0. 0. 0. 0. 0.</_>
    <_>
      5. 8. 7. 6. 5. 5. 4. 4. 4. 4. 4. 4. 4. 4. 4. 4. 4. 6. 7. 8. 0. 0.
      0. 0. 0. 16. 19. 9. 5. 4. 3. 4. 6. 19. 16. 0. 0. 0. 0. 0.</_>
    <_>
      4. 8. 9. 7. 6. 6. 5. 6. 5. 5. 5. 6. 6. 6. 6. 5. 5. 6. 9. 9. 0. 0.
      0. 0. 7. 17. 19. 6. 5. 5. 3. 5. 5. 19. 18. 15. 0. 0. 0. 0.</_>
    <_>
      5. 8. 10. 8. 7. 6. 7. 7. 7. 7. 7. 7. 7. 7. 7. 7. 7. 10. 8. 4. 0.
      0. 0. 0. 0. 16. 18. 18. 8. 6. 6. 6. 18. 18. 16. 13. 0. 0. 0. 0.</_>
    <_>
      7. 8. 5. 4. 4. 4. 5. 4. 5. 5. 5. 5. 5. 5. 5. 5. 6. 7. 6. 4. 0. 0.
      0. 0. 0. 10. 16. 18. 6. 4. 4. 5. 5. 18. 18. 0. 0. 0. 0. 0.</_>
    <_>
      4. 7. 7. 4. 4. 5. 5. 5. 5. 6. 6. 6. 6. 6. 6. 6. 6. 6. 5. 8. 0. 0.
      0. 0. 13. 16. 19. 5. 4. 3. 4. 4. 19. 18. 8. 0. 0. 0. 0. 0.</_>
    <_>
      4. 8. 8. 5. 5. 6. 6. 6. 6. 6. 5. 5. 6. 6. 6. 5. 5. 5. 5. 9. 0. 0.
      0. 0. 14. 17. 19. 5. 4. 4. 4. 4. 19. 19. 8. 0. 0. 0. 0. 0.</_>
    <_>
      2. 7. 7. 5. 5. 5. 6. 5. 5. 6. 6. 6. 5. 4. 5. 5. 6. 9. 7. 1. 0. 0.
      0. 0. 0. 11. 15. 14. 8. 5. 3. 5. 8. 13. 16. 9. 0. 0. 0. 0.</_>
    <_>
      5. 7. 5. 5. 5. 4. 4. 5. 5. 5. 5. 4. 4. 5. 5. 5. 5. 6. 8. 6. 0. 0.
      0. 0. 0. 0. 17. 19. 6. 4. 4. 5. 16. 18. 14. 0. 0. 0. 0. 0.</_>
    <_>
      3. 6. 7. 5. 4. 5. 6. 5. 5. 5. 6. 5. 5. 6. 6. 6. 5. 5. 6. 8. 0. 0.
      0. 0. 13. 18. 19. 4. 4. 3. 4. 5. 18. 16. 5. 0. 0. 0. 0. 0.</_>
    <_>
      2. 8. 7. 6. 4. 4. 5. 5. 5. 5. 5. 5. 5. 5. 4. 5. 6. 6. 9. 5. 0. 0.
      0. 0. 14. 18. 6. 5. 4. 4. 4. 6. 17. 17. 11. 0. 0. 0. 0. 0.</_>
    <_>
      3. 7. 8. 5. 5. 5. 5. 5. 5. 5. 5. 5. 5. 5. 5. 5. 6. 7. 7. 5. 0. 0.
      0. 0. 0. 0. 16. 18. 7. 6. 5. 6. 19. 18. 13. 0. 0. 0. 0. 0.</_>
    <_>
      5. 10. 8. 6. 6. 6. 6. 7. 7. 6. 7. 7. 7. 6. 6. 6. 6. 8. 10. 6. 0.
      0. 0. 5. 16. 18. 18. 6. 4. 4. 4. 4. 5. 18. 18. 16. 0. 0. 0. 0.</_>
    <_>
      3. 6. 10. 11. 13. 14. 10. 10. 10. 10. 10. 9. 9. 10. 11. 14. 14.
      11. 11. 7. 0. 0. 10. 14. 14. 16. 16. 11. 9. 9. 11. 11. 11. 18. 16.
      15. 13. 9. 0. 0.</_>
    <_>
      7. 10. 8. 6. 6. 6. 6. 6. 6. 6. 6. 6. 6. 8. 8. 8. 9. 10. 10. 10. 0.
      0. 0. 5. 18. 19. 20. 6. 4. 4. 5. 6. 10. 19. 17. 15. 0. 0. 0. 0.</_>
    <_>
      8. 10. 6. 6. 5. 6. 5. 5. 5. 5. 4. 5. 5. 5. 5. 6. 4. 7. 10. 7. 0.
      0. 0. 10. 16. 19. 9. 5. 4. 4. 4. 7. 15. 17. 8. 1. 0. 0. 0. 0.</_>
    <_>
      7. 10. 6. 4. 5. 5. 6. 6. 6. 6. 8. 8. 9. 8. 8. 8. 9. 11. 11. 7. 0.
      0. 0. 7. 14. 19. 20. 10. 5. 5. 6. 12. 14. 18. 16. 2. 0. 0. 0. 0.</_>
    <_>
      3. 8. 10. 10. 7. 6. 6. 6. 7. 7. 6. 6. 6. 6. 6. 6. 6. 10. 6. 2. 0.
      0. 0. 0. 12. 16. 17. 9. 6. 7. 7. 4. 6. 17. 16. 13. 0. 0. 0. 0.</_>
    <_>
      1. 7. 10. 10. 7. 8. 8. 8. 8. 8. 8. 8. 8. 8. 8. 8. 10. 10. 9. 6. 0.
      0. 0. 0. 12. 16. 17. 19. 7. 5. 7. 7. 19. 18. 17. 14. 0. 0. 0. 0.</_>
    <_>
      4. 7. 10. 10. 8. 8. 8. 8. 8. 8. 8. 8. 8. 8. 8. 8. 8. 11. 9. 6. 0.
      0. 0. 0. 12. 16. 17. 19. 8. 6. 7. 7. 19. 18. 17. 15. 0. 0. 0. 0.</_>
    <_>
      6. 8. 8. 7. 5. 6. 5. 5. 6. 6. 6. 6. 6. 6. 6. 6. 6. 8. 8. 5. 0. 0.
      0. 0. 0. 9. 18. 19. 8. 6. 6. 8. 20. 18. 13. 0. 0. 0. 0. 0.</_>
    <_>
      6. 9. 11. 7. 7. 7. 7. 7. 7. 7. 7. 7. 6. 7. 7. 7. 6. 9. 9. 7. 0. 0.
      0. 11. 16. 18. 19. 6. 6. 5. 5. 6. 7. 18. 16. 14. 0. 0. 0. 0.</_>
    <_>
      7. 6. 4. 5. 5. 5. 5. 4. 5. 4. 4. 4. 5. 5. 5. 5. 5. 4. 7. 6. 0. 0.
      0. 0. 0. 0. 18. 20. 4. 3. 2. 4. 16. 19. 14. 0. 0. 0. 0. 0.</_>
    <_>
      4. 6. 8. 8. 6. 5. 5. 5. 5. 5. 5. 5. 5. 5. 5. 5. 7. 8. 6. 4. 0. 0.
      0. 0. 0. 12. 16. 18. 8. 6. 6. 8. 8. 16. 14. 0. 0. 0. 0. 0.</_>
    <_>
      8. 8. 6. 6. 6. 5. 5. 6. 6. 6. 6. 5. 5. 5. 5. 5. 6. 7. 9. 6. 0. 0.
      0. 0. 0. 17. 19. 20. 5. 3. 3. 4. 13. 19. 18. 0. 0. 0. 0. 0.</_>
    <_>
      8. 11. 7. 6. 6. 7. 6. 7. 7. 6. 6. 6. 6. 6. 6. 7. 7. 10. 8. 4. 0.
      0. 0. 0. 15. 18. 19. 6. 5. 5. 5. 6. 13. 18. 17. 10. 0. 0. 0. 0.</_>
    <_>
      12. 10. 8. 6. 6. 6. 7. 6. 7. 7. 7. 7. 7. 7. 7. 8. 10. 12. 9. 5. 0.
      0. 0. 15. 18. 18. 15. 6. 5. 4. 4. 4. 6. 6. 19. 18. 16. 0. 0. 0.</_>
    <_>
      1. 7. 5. 4. 4. 3. 3. 3. 3. 3. 4. 4. 3. 3. 4. 4. 4. 6. 6. 0. 0. 0.
      0. 0. 0. 14. 18. 5. 3. 3. 2. 3. 10. 16. 0. 0. 0. 0. 0. 0.</_>
    <_>
      2. 7. 9. 7. 6. 6. 6. 6. 6. 6. 6. 6. 6. 6. 6. 6. 6. 6. 8. 6. 0. 0.
      0. 0. 0. 15. 17. 19. 5. 5. 5. 4. 19. 18. 16. 0. 0. 0. 0. 0.</_>
    <_>
      5. 7. 6. 4. 4. 4. 4. 4. 4. 4. 4. 4. 4. 4. 4. 4. 4. 6. 8. 6. 0. 0.
      0. 0. 0. 0. 17. 19. 6. 4. 4. 6. 20. 18. 0. 0. 0. 0. 0. 0.</_>
    <_>
      2. 5. 7. 6. 5. 5. 4. 4. 4. 4. 4. 4. 4. 4. 4. 4. 6. 8. 8. 6. 0. 0.
      0. 0. 0. 0. 16. 18. 7. 6. 6. 7. 19. 17. 2. 0. 0. 0. 0. 0.</_>
    <_>
      6. 5. 5. 5. 5. 5. 4. 4. 4. 4. 4. 4. 5. 5. 4. 4. 4. 4. 8. 6. 0. 0.
      0. 0. 0. 5. 19. 20. 3. 2. 3. 3. 20. 18. 2. 0. 0. 0. 0. 0.</_>
    <_>
      11. 10. 8. 7. 7. 6. 7. 7. 7. 6. 6. 6. 6. 6. 6. 8. 11. 11. 10. 1.
      0. 0. 0. 3. 17. 19. 19. 6. 6. 3. 3. 5. 6. 13. 19. 17. 11. 0. 0. 0.</_>
    <_>
      7. 7. 6. 6. 5. 6. 6. 5. 5. 5. 5. 4. 4. 4. 5. 5. 6. 6. 6. 5. 0. 0.
      0. 0. 0. 16. 18. 12. 5. 3. 3. 15. 19. 17. 0. 0. 0. 0. 0. 0.</_>
    <_>
      8. 6. 6. 5. 5. 5. 5. 4. 4. 4. 4. 4. 4. 5. 6. 6. 6. 8. 6. 5. 0. 0.
      0. 0. 0. 17. 18. 9. 4. 4. 4. 12. 19. 17. 2. 0. 0. 0. 0. 0.</_>
    <_>
      5. 6. 7. 5. 6. 6. 6. 6. 6. 6. 5. 5. 5. 5. 6. 6. 6. 7. 7. 2. 0. 0.
      0. 0. 15. 17. 15. 5. 3. 2. 1. 4. 9. 18. 15. 9. 0. 0. 0. 0.</_>
    <_>
      4. 7. 9. 7. 7. 6. 6. 6. 6. 5. 5. 5. 5. 5. 5. 5. 6. 8. 6. 2. 0. 0.
      0. 0. 0. 5. 15. 17. 7. 5. 6. 6. 6. 18. 16. 14. 0. 0. 0. 0.</_>
    <_>
      5. 8. 9. 6. 4. 5. 4. 4. 4. 4. 4. 4. 5. 6. 5. 4. 6. 9. 8. 4. 0. 0.
      0. 0. 3. 15. 18. 6. 6. 6. 6. 6. 8. 18. 15. 1. 0. 0. 0. 0.</_>
    <_>
      6. 8. 10. 9. 7. 8. 8. 7. 8. 8. 8. 8. 8. 7. 7. 8. 9. 10. 8. 6. 0.
      0. 0. 0. 10. 16. 18. 20. 8. 6. 6. 8. 13. 18. 16. 14. 5. 0. 0. 0.</_>
    <_>
      6. 8. 7. 5. 4. 4. 4. 4. 4. 4. 4. 4. 4. 4. 4. 4. 6. 7. 6. 1. 0. 0.
      0. 0. 0. 15. 18. 6. 4. 5. 5. 7. 18. 16. 0. 0. 0. 0. 0. 0.</_>
    <_>
      4. 8. 10. 10. 8. 7. 8. 8. 8. 8. 8. 8. 7. 7. 8. 7. 9. 11. 9. 6. 0.
      0. 0. 0. 7. 16. 18. 18. 8. 6. 6. 7. 8. 19. 17. 15. 14. 0. 0. 0.</_>
    <_>
      4. 7. 6. 5. 6. 6. 6. 6. 6. 6. 6. 6. 6. 6. 6. 6. 5. 7. 9. 6. 0. 0.
      0. 0. 0. 15. 17. 18. 6. 4. 4. 4. 5. 19. 17. 12. 0. 0. 0. 0.</_>
    <_>
      3. 7. 7. 8. 6. 6. 5. 5. 5. 6. 6. 6. 6. 6. 6. 6. 4. 6. 9. 3. 0. 0.
      0. 0. 13. 17. 18. 6. 3. 2. 3. 6. 15. 18. 14. 1. 0. 0. 0. 0.</_>
    <_>
      6. 9. 11. 9. 8. 8. 7. 8. 8. 8. 8. 8. 7. 7. 7. 7. 8. 11. 8. 6. 0.
      0. 0. 0. 14. 16. 18. 20. 7. 6. 6. 6. 8. 18. 17. 16. 7. 0. 0. 0.</_>
    <_>
      7. 8. 8. 5. 5. 4. 6. 5. 5. 5. 5. 5. 5. 5. 4. 5. 5. 6. 8. 5. 0. 0.
      0. 0. 0. 1. 15. 19. 18. 6. 4. 5. 6. 19. 18. 0. 0. 0. 0. 0.</_>
    <_>
      5. 8. 10. 7. 6. 7. 6. 6. 8. 8. 7. 7. 7. 6. 6. 6. 6. 8. 9. 6. 0. 0.
      0. 0. 13. 17. 18. 10. 5. 5. 5. 6. 16. 18. 16. 10. 0. 0. 0. 0.</_>
    <_>
      2. 7. 8. 6. 5. 5. 5. 5. 5. 5. 5. 5. 6. 6. 6. 5. 4. 4. 4. 7. 0. 0.
      0. 0. 0. 4. 18. 19. 5. 4. 3. 4. 19. 18. 11. 0. 0. 0. 0. 0.</_>
    <_>
      4. 7. 8. 6. 6. 5. 5. 5. 5. 5. 5. 5. 5. 5. 5. 5. 6. 7. 7. 5. 0. 0.
      0. 0. 0. 0. 15. 18. 8. 6. 5. 6. 20. 18. 15. 0. 0. 0. 0. 0.</_>
    <_>
      9. 11. 8. 7. 7. 6. 6. 6. 6. 6. 6. 6. 6. 6. 6. 8. 9. 11. 9. 3. 0.
      0. 0. 0. 14. 17. 19. 9. 5. 4. 5. 5. 6. 7. 19. 17. 15. 0. 0. 0.</_>
    <_>
      7. 10. 9. 7. 6. 6. 5. 5. 5. 8. 8. 8. 8. 8. 8. 6. 7. 10. 8. 3. 0.
      0. 0. 6. 16. 17. 18. 6. 5. 4. 4. 5. 6. 15. 17. 16. 7. 0. 0. 0.</_>
    <_>
      4. 7. 11. 11. 8. 8. 8. 8. 8. 8. 8. 8. 8. 8. 8. 8. 12. 10. 7. 4. 0.
      0. 0. 13. 16. 16. 18. 7. 8. 8. 8. 7. 18. 16. 15. 12. 0. 0. 0. 0.</_>
    <_>
      5. 7. 7. 5. 5. 5. 5. 5. 5. 5. 4. 4. 4. 4. 4. 4. 5. 6. 8. 6. 0. 0.
      0. 0. 0. 0. 17. 19. 8. 5. 4. 6. 20. 18. 6. 0. 0. 0. 0. 0.</_>
    <_>
      4. 8. 9. 10. 6. 6. 6. 6. 6. 6. 6. 6. 6. 6. 6. 6. 6. 10. 8. 2. 0.
      0. 0. 0. 0. 16. 18. 19. 6. 6. 6. 6. 19. 18. 15. 0. 0. 0. 0. 0.</_>
    <_>
      7. 6. 4. 5. 5. 5. 5. 4. 5. 4. 4. 4. 5. 5. 5. 5. 5. 4. 7. 6. 0. 0.
      0. 0. 0. 0. 18. 20. 4. 3. 2. 4. 16. 19. 14. 0. 0. 0. 0. 0.</_>
    <_>
      8. 10. 6. 6. 6. 6. 6. 6. 5. 5. 5. 5. 5. 5. 5. 6. 10. 9. 6. 1. 0.
      0. 0. 0. 13. 17. 18. 6. 5. 6. 5. 5. 12. 18. 16. 0. 0. 0. 0. 0.</_>
    <_>
      5. 9. 10. 11. 8. 7. 8. 6. 6. 6. 6. 6. 6. 7. 6. 7. 12. 10. 8. 3. 0.
      0. 0. 13. 16. 18. 11. 7. 8. 8. 8. 8. 18. 17. 14. 1. 0. 0. 0. 0.</_>
    <_>
      6. 8. 11. 9. 8. 8. 8. 7. 7. 8. 8. 8. 7. 7. 7. 7. 9. 10. 8. 6. 0.
      0. 0. 0. 15. 16. 18. 18. 8. 6. 6. 8. 20. 18. 16. 8. 0. 0. 0. 0.</_>
    <_>
      4. 6. 6. 6. 5. 5. 5. 5. 5. 5. 5. 5. 5. 5. 5. 5. 6. 6. 7. 5. 0. 0.
      0. 0. 0. 15. 17. 7. 5. 4. 4. 7. 18. 16. 13. 0. 0. 0. 0. 0.</_>
    <_>
      4. 7. 8. 8. 5. 5. 6. 6. 6. 6. 6. 6. 6. 6. 6. 6. 7. 8. 7. 5. 0. 0.
      0. 0. 0. 14. 18. 19. 7. 6. 7. 8. 18. 16. 11. 0. 0. 0. 0. 0.</_>
    <_>
      2. 7. 9. 11. 11. 6. 6. 5. 5. 4. 5. 6. 6. 5. 5. 6. 7. 11. 9. 7. 0.
      0. 0. 0. 15. 18. 12. 9. 7. 7. 7. 7. 16. 17. 15. 3. 0. 0. 0. 0.</_>
    <_>
      5. 8. 9. 9. 7. 5. 5. 5. 5. 5. 5. 5. 5. 5. 6. 6. 6. 9. 8. 1. 0. 0.
      0. 0. 12. 16. 18. 6. 6. 5. 6. 8. 10. 18. 14. 0. 0. 0. 0. 0.</_>
    <_>
      1. 8. 9. 8. 6. 6. 6. 6. 6. 6. 6. 6. 6. 6. 6. 6. 6. 7. 8. 4. 0. 0.
      0. 0. 14. 18. 18. 6. 5. 4. 7. 6. 18. 15. 12. 0. 0. 0. 0. 0.</_>
    <_>
      4. 8. 8. 6. 5. 5. 6. 6. 6. 6. 6. 6. 6. 6. 6. 6. 5. 6. 5. 2. 0. 0.
      0. 0. 0. 16. 18. 18. 6. 3. 2. 4. 3. 17. 16. 11. 0. 0. 0. 0.</_>
    <_>
      10. 11. 12. 12. 8. 7. 7. 7. 6. 6. 6. 6. 6. 6. 7. 10. 12. 10. 8. 3.
      0. 0. 0. 0. 3. 17. 18. 19. 10. 8. 8. 8. 9. 9. 19. 17. 15. 0. 0. 0.</_>
    <_>
      3. 6. 8. 10. 6. 7. 7. 7. 7. 7. 7. 7. 7. 6. 6. 6. 6. 10. 8. 5. 0.
      0. 0. 0. 0. 15. 17. 18. 6. 7. 7. 7. 17. 17. 15. 10. 0. 0. 0. 0.</_>
    <_>
      7. 10. 9. 6. 4. 4. 4. 4. 4. 5. 5. 5. 5. 6. 6. 6. 7. 10. 9. 6. 0.
      0. 0. 0. 0. 17. 18. 11. 7. 6. 5. 6. 8. 19. 18. 7. 0. 0. 0. 0.</_>
    <_>
      8. 10. 6. 7. 5. 6. 7. 7. 7. 7. 7. 6. 6. 6. 6. 6. 7. 10. 8. 6. 0.
      0. 0. 0. 8. 17. 19. 18. 6. 5. 5. 5. 8. 19. 17. 11. 0. 0. 0. 0.</_>
    <_>
      2. 7. 8. 7. 6. 5. 5. 5. 5. 5. 5. 5. 5. 5. 4. 4. 6. 9. 8. 7. 0. 0.
      0. 0. 0. 15. 19. 9. 6. 5. 6. 9. 19. 17. 8. 0. 0. 0. 0. 0.</_>
    <_>
      3. 7. 9. 7. 6. 5. 6. 6. 6. 6. 6. 6. 6. 6. 6. 5. 6. 7. 8. 6. 0. 0.
      0. 0. 15. 17. 19. 6. 5. 5. 5. 7. 18. 16. 10. 0. 0. 0. 0. 0.</_>
    <_>
      4. 7. 8. 6. 5. 5. 5. 5. 5. 5. 5. 5. 5. 5. 6. 6. 5. 7. 6. 2. 0. 0.
      0. 0. 0. 0. 15. 17. 8. 6. 6. 5. 19. 18. 13. 0. 0. 0. 0. 0.</_>
    <_>
      6. 8. 9. 6. 6. 5. 5. 5. 5. 6. 6. 5. 5. 5. 6. 6. 8. 9. 9. 5. 0. 0.
      0. 0. 13. 17. 18. 8. 6. 6. 6. 7. 12. 18. 14. 0. 0. 0. 0. 0.</_>
    <_>
      2. 6. 9. 10. 6. 6. 6. 6. 7. 7. 6. 6. 6. 6. 6. 6. 8. 10. 9. 5. 0.
      0. 0. 0. 12. 17. 17. 8. 6. 7. 7. 7. 16. 17. 15. 4. 0. 0. 0. 0.</_>
    <_>
      4. 10. 12. 10. 8. 6. 6. 6. 7. 7. 7. 7. 7. 7. 7. 8. 8. 12. 10. 4.
      0. 0. 0. 12. 15. 17. 15. 7. 5. 6. 6. 6. 6. 8. 18. 17. 15. 0. 0. 0.</_>
    <_>
      6. 8. 11. 6. 6. 6. 7. 7. 7. 6. 7. 6. 6. 6. 6. 6. 7. 11. 8. 6. 0.
      0. 0. 0. 4. 16. 18. 20. 6. 6. 6. 6. 7. 18. 16. 16. 0. 0. 0. 0.</_>
    <_>
      5. 7. 8. 5. 5. 4. 4. 5. 4. 4. 4. 4. 4. 4. 4. 4. 5. 8. 7. 5. 0. 0.
      0. 0. 0. 14. 19. 10. 6. 6. 6. 5. 18. 16. 0. 0. 0. 0. 0. 0.</_>
    <_>
      6. 8. 4. 5. 5. 4. 4. 4. 4. 5. 5. 5. 4. 4. 5. 5. 5. 4. 8. 6. 0. 0.
      0. 0. 0. 0. 18. 20. 4. 4. 4. 4. 20. 18. 8. 0. 0. 0. 0. 0.</_>
    <_>
      5. 7. 8. 5. 5. 4. 4. 4. 4. 5. 5. 5. 5. 5. 5. 5. 5. 8. 5. 1. 0. 0.
      0. 0. 0. 0. 17. 18. 5. 5. 5. 6. 14. 16. 14. 0. 0. 0. 0. 0.</_>
    <_>
      6. 8. 10. 7. 6. 6. 6. 6. 6. 6. 6. 6. 6. 6. 7. 8. 10. 10. 8. 1. 0.
      0. 0. 0. 0. 16. 18. 19. 7. 6. 7. 8. 16. 18. 16. 4. 0. 0. 0. 0.</_>
    <_>
      6. 8. 11. 8. 7. 8. 8. 8. 8. 8. 8. 8. 8. 7. 8. 8. 8. 11. 8. 5. 0.
      0. 0. 0. 16. 16. 18. 19. 6. 6. 6. 8. 19. 18. 16. 11. 0. 0. 0. 0.</_>
    <_>
      5. 8. 6. 4. 5. 5. 5. 5. 5. 5. 5. 5. 5. 5. 5. 4. 4. 6. 8. 6. 0. 0.
      0. 0. 0. 0. 18. 19. 6. 4. 4. 6. 20. 18. 11. 0. 0. 0. 0. 0.</_>
    <_>
      6. 7. 9. 7. 6. 6. 6. 6. 6. 6. 6. 6. 6. 6. 6. 6. 7. 8. 8. 6. 0. 0.
      0. 0. 0. 14. 17. 20. 6. 5. 6. 8. 20. 18. 16. 0. 0. 0. 0. 0.</_>
    <_>
      8. 8. 7. 6. 5. 5. 5. 5. 5. 5. 5. 5. 4. 4. 5. 6. 8. 8. 6. 4. 0. 0.
      0. 0. 0. 9. 18. 19. 8. 6. 6. 7. 9. 18. 14. 0. 0. 0. 0. 0.</_>
    <_>
      3. 5. 8. 6. 4. 4. 4. 4. 4. 4. 4. 4. 4. 4. 4. 4. 4. 7. 7. 3. 0. 0.
      0. 0. 0. 0. 16. 18. 6. 5. 6. 6. 17. 17. 0. 0. 0. 0. 0. 0.</_>
    <_>
      4. 6. 6. 5. 6. 5. 6. 6. 6. 6. 5. 5. 5. 5. 5. 5. 6. 4. 7. 5. 0. 0.
      0. 0. 0. 13. 17. 13. 5. 4. 5. 19. 18. 14. 0. 0. 0. 0. 0. 0.</_>
    <_>
      7. 8. 6. 6. 5. 5. 5. 5. 5. 5. 5. 5. 5. 5. 5. 6. 5. 7. 8. 5. 0. 0.
      0. 0. 0. 1. 18. 19. 7. 4. 5. 6. 20. 19. 14. 0. 0. 0. 0. 0.</_>
    <_>
      4. 6. 8. 6. 5. 5. 6. 6. 5. 6. 6. 6. 6. 6. 6. 5. 7. 7. 6. 1. 0. 0.
      0. 0. 0. 13. 18. 19. 7. 5. 5. 6. 17. 15. 8. 0. 0. 0. 0. 0.</_>
    <_>
      2. 6. 8. 6. 7. 6. 6. 6. 6. 6. 5. 5. 5. 5. 5. 6. 6. 7. 6. 2. 0. 0.
      0. 0. 0. 13. 16. 18. 7. 6. 5. 7. 18. 15. 6. 0. 0. 0. 0. 0.</_>
    <_>
      3. 6. 8. 6. 6. 5. 5. 5. 5. 5. 5. 5. 5. 5. 5. 5. 5. 7. 5. 1. 0. 0.
      0. 0. 0. 0. 14. 16. 7. 5. 6. 5. 18. 17. 14. 0. 0. 0. 0. 0.</_>
    <_>
      5. 7. 8. 5. 6. 6. 6. 5. 5. 5. 5. 5. 5. 5. 6. 5. 6. 8. 6. 2. 0. 0.
      0. 0. 0. 4. 17. 19. 7. 6. 6. 5. 18. 17. 12. 0. 0. 0. 0. 0.</_>
    <_>
      2. 7. 8. 6. 4. 4. 5. 5. 5. 5. 4. 5. 5. 5. 5. 5. 6. 8. 7. 1. 0. 0.
      0. 0. 0. 0. 16. 18. 6. 5. 6. 6. 16. 18. 11. 0. 0. 0. 0. 0.</_>
    <_>
      6. 8. 10. 7. 7. 7. 7. 7. 7. 7. 7. 7. 7. 7. 7. 7. 7. 10. 9. 5. 0.
      0. 0. 14. 16. 18. 7. 6. 6. 6. 6. 6. 18. 17. 14. 12. 0. 0. 0. 0.</_>
    <_>
      7. 10. 10. 8. 6. 6. 6. 6. 6. 7. 6. 6. 6. 6. 6. 8. 10. 9. 7. 2. 0.
      0. 0. 0. 15. 17. 19. 8. 7. 6. 6. 8. 19. 17. 15. 1. 0. 0. 0. 0.</_>
    <_>
      5. 8. 10. 6. 4. 5. 6. 6. 6. 6. 6. 6. 6. 5. 5. 5. 6. 10. 8. 4. 0.
      0. 0. 0. 8. 16. 18. 8. 6. 6. 6. 6. 6. 18. 16. 9. 0. 0. 0. 0.</_>
    <_>
      4. 9. 9. 8. 6. 6. 6. 6. 6. 6. 6. 6. 6. 6. 6. 6. 7. 9. 9. 5. 0. 0.
      0. 0. 14. 18. 18. 7. 6. 6. 6. 7. 18. 18. 14. 0. 0. 0. 0. 0.</_>
    <_>
      4. 8. 10. 11. 9. 8. 8. 8. 9. 8. 8. 8. 8. 8. 8. 9. 12. 11. 9. 6. 0.
      0. 0. 13. 15. 17. 19. 7. 8. 8. 8. 11. 18. 18. 16. 12. 0. 0. 0. 0.</_>
    <_>
      3. 8. 8. 6. 4. 5. 5. 4. 4. 4. 4. 4. 4. 5. 5. 4. 6. 10. 8. 4. 0. 0.
      0. 0. 2. 15. 18. 6. 5. 6. 6. 6. 6. 18. 15. 2. 0. 0. 0. 0.</_>
    <_>
      2. 6. 8. 5. 4. 4. 4. 4. 4. 4. 4. 4. 4. 4. 4. 4. 5. 7. 7. 5. 0. 0.
      0. 0. 0. 0. 15. 17. 5. 4. 5. 6. 7. 18. 16. 0. 0. 0. 0. 0.</_>
    <_>
      4. 8. 10. 10. 8. 8. 7. 7. 8. 8. 8. 8. 8. 8. 8. 8. 9. 10. 8. 3. 0.
      0. 0. 0. 14. 16. 18. 16. 7. 6. 6. 8. 18. 18. 16. 13. 0. 0. 0. 0.</_>
    <_>
      9. 11. 7. 6. 6. 6. 7. 7. 6. 6. 6. 6. 6. 6. 6. 6. 8. 10. 8. 4. 0.
      0. 0. 2. 16. 18. 19. 6. 5. 5. 5. 6. 6. 19. 17. 13. 0. 0. 0. 0.</_>
    <_>
      7. 9. 8. 7. 7. 5. 5. 5. 6. 7. 7. 6. 6. 6. 6. 7. 8. 8. 8. 5. 0. 0.
      0. 0. 0. 13. 18. 19. 9. 6. 5. 10. 18. 19. 16. 0. 0. 0. 0. 0.</_>
    <_>
      2. 6. 8. 8. 5. 5. 5. 6. 5. 5. 5. 5. 5. 5. 5. 6. 5. 6. 8. 6. 0. 0.
      0. 0. 0. 12. 17. 19. 6. 6. 6. 6. 19. 17. 3. 0. 0. 0. 0. 0.</_>
    <_>
      1. 7. 8. 10. 6. 6. 5. 5. 6. 6. 6. 5. 6. 6. 6. 6. 6. 9. 9. 6. 0. 0.
      0. 0. 13. 16. 17. 7. 5. 5. 7. 6. 15. 18. 15. 1. 0. 0. 0. 0.</_>
    <_>
      5. 8. 9. 8. 6. 6. 6. 6. 6. 6. 6. 6. 6. 6. 6. 6. 6. 8. 9. 8. 0. 0.
      0. 0. 0. 15. 18. 19. 7. 5. 5. 6. 8. 19. 18. 13. 0. 0. 0. 0.</_>
    <_>
      6. 7. 7. 6. 4. 4. 5. 5. 5. 5. 5. 5. 5. 5. 5. 5. 6. 8. 8. 6. 0. 0.
      0. 0. 0. 15. 19. 16. 6. 4. 4. 6. 9. 17. 16. 0. 0. 0. 0. 0.</_>
    <_>
      5. 8. 6. 6. 6. 5. 5. 6. 5. 5. 6. 6. 6. 6. 5. 5. 7. 9. 6. 5. 0. 0.
      0. 0. 0. 14. 18. 20. 7. 6. 4. 4. 4. 13. 17. 11. 0. 0. 0. 0.</_>
    <_>
      6. 9. 8. 8. 8. 8. 8. 8. 8. 8. 8. 8. 8. 8. 8. 8. 7. 10. 8. 6. 0. 0.
      0. 0. 14. 16. 18. 19. 6. 5. 5. 6. 20. 19. 17. 13. 0. 0. 0. 0.</_>
    <_>
      6. 8. 6. 5. 5. 5. 5. 5. 5. 5. 5. 5. 5. 5. 5. 6. 7. 9. 6. 1. 0. 0.
      0. 0. 12. 16. 18. 6. 4. 5. 4. 5. 7. 17. 15. 0. 0. 0. 0. 0.</_>
    <_>
      5. 9. 7. 5. 5. 5. 5. 5. 5. 5. 5. 5. 4. 4. 4. 5. 7. 9. 6. 2. 0. 0.
      0. 0. 15. 17. 7. 6. 5. 5. 4. 6. 17. 17. 8. 0. 0. 0. 0. 0.</_>
    <_>
      7. 10. 12. 13. 10. 10. 10. 10. 10. 10. 10. 10. 10. 10. 10. 9. 12.
      11. 9. 5. 0. 0. 0. 11. 15. 17. 19. 19. 8. 8. 8. 8. 20. 18. 18. 16.
      13. 0. 0. 0.</_>
    <_>
      4. 8. 10. 7. 6. 6. 6. 6. 6. 6. 6. 6. 6. 6. 6. 6. 8. 11. 8. 6. 0.
      0. 0. 0. 0. 16. 18. 19. 7. 6. 6. 6. 7. 18. 16. 15. 0. 0. 0. 0.</_>
    <_>
      7. 9. 12. 7. 8. 8. 8. 8. 7. 7. 7. 7. 8. 7. 7. 7. 7. 12. 9. 8. 0.
      0. 0. 0. 10. 19. 20. 20. 6. 6. 6. 6. 7. 18. 16. 16. 10. 0. 0. 0.</_>
    <_>
      2. 7. 10. 12. 9. 7. 8. 8. 8. 8. 8. 8. 8. 8. 8. 8. 10. 11. 8. 6. 0.
      0. 0. 0. 11. 15. 17. 19. 8. 6. 7. 7. 8. 18. 16. 16. 14. 0. 0. 0.</_>
    <_>
      8. 6. 5. 5. 6. 6. 6. 6. 6. 6. 6. 6. 6. 6. 6. 6. 5. 6. 8. 6. 0. 0.
      0. 0. 0. 15. 19. 20. 5. 3. 3. 5. 20. 19. 12. 0. 0. 0. 0. 0.</_>
    <_>
      3. 8. 7. 6. 5. 5. 5. 5. 5. 5. 5. 4. 4. 5. 4. 4. 5. 7. 8. 5. 0. 0.
      0. 0. 13. 16. 14. 4. 3. 4. 6. 6. 7. 18. 14. 0. 0. 0. 0. 0.</_>
    <_>
      1. 7. 8. 8. 6. 4. 4. 4. 4. 4. 4. 4. 4. 4. 4. 6. 8. 8. 7. 2. 0. 0.
      0. 0. 0. 14. 17. 8. 6. 6. 5. 6. 8. 17. 14. 0. 0. 0. 0. 0.</_>
    <_>
      6. 8. 5. 4. 5. 5. 5. 5. 5. 5. 5. 5. 5. 4. 4. 4. 4. 5. 8. 6. 0. 0.
      0. 0. 0. 0. 18. 20. 6. 4. 4. 4. 20. 18. 9. 0. 0. 0. 0. 0.</_>
    <_>
      6. 7. 5. 4. 4. 5. 5. 5. 5. 5. 5. 5. 5. 4. 4. 4. 4. 5. 8. 6. 0. 0.
      0. 0. 0. 0. 17. 20. 6. 4. 4. 4. 20. 18. 8. 0. 0. 0. 0. 0.</_>
    <_>
      4. 7. 8. 6. 6. 5. 6. 6. 6. 6. 7. 6. 5. 6. 6. 6. 6. 7. 7. 3. 0. 0.
      0. 0. 0. 9. 16. 18. 9. 6. 4. 6. 6. 18. 15. 12. 0. 0. 0. 0.</_>
    <_>
      2. 6. 6. 6. 4. 4. 4. 4. 4. 4. 4. 4. 4. 4. 4. 4. 6. 7. 7. 2. 0. 0.
      0. 0. 0. 15. 17. 6. 4. 4. 4. 4. 6. 16. 14. 0. 0. 0. 0. 0.</_>
    <_>
      1. 6. 8. 5. 6. 6. 6. 6. 6. 6. 6. 6. 6. 6. 6. 6. 5. 8. 8. 2. 0. 0.
      0. 0. 0. 12. 17. 18. 5. 6. 5. 4. 18. 17. 13. 0. 0. 0. 0. 0.</_>
    <_>
      2. 8. 10. 9. 8. 8. 9. 10. 10. 9. 8. 8. 8. 8. 7. 7. 7. 10. 8. 4. 0.
      0. 0. 9. 13. 16. 18. 10. 7. 6. 5. 6. 11. 18. 16. 14. 9. 0. 0. 0.</_>
    <_>
      6. 9. 11. 7. 8. 8. 7. 7. 8. 8. 8. 7. 8. 8. 8. 8. 8. 11. 10. 7. 0.
      0. 0. 12. 16. 18. 19. 7. 6. 6. 6. 6. 17. 18. 17. 14. 0. 0. 0. 0.</_>
    <_>
      6. 7. 5. 4. 4. 6. 6. 6. 4. 4. 4. 5. 5. 5. 5. 5. 5. 5. 8. 7. 0. 0.
      0. 0. 0. 3. 17. 20. 4. 4. 4. 5. 20. 19. 10. 0. 0. 0. 0. 0.</_>
    <_>
      4. 8. 10. 6. 5. 4. 4. 5. 5. 4. 4. 5. 4. 5. 5. 5. 5. 9. 10. 6. 0.
      0. 0. 0. 15. 17. 7. 5. 6. 5. 5. 6. 6. 18. 17. 6. 0. 0. 0. 0.</_>
    <_>
      6. 8. 10. 7. 6. 6. 6. 6. 6. 6. 6. 6. 6. 6. 6. 6. 10. 8. 6. 4. 0.
      0. 0. 0. 0. 15. 17. 19. 7. 7. 7. 8. 19. 17. 15. 0. 0. 0. 0. 0.</_>
    <_>
      1. 5. 7. 6. 5. 5. 5. 5. 5. 5. 4. 5. 5. 4. 4. 4. 4. 4. 7. 6. 0. 0.
      0. 0. 0. 0. 16. 18. 5. 4. 4. 5. 19. 17. 8. 0. 0. 0. 0. 0.</_>
    <_>
      6. 8. 5. 5. 5. 5. 5. 5. 5. 5. 5. 5. 5. 5. 5. 5. 6. 8. 7. 5. 0. 0.
      0. 0. 0. 0. 17. 19. 7. 5. 5. 5. 20. 18. 14. 0. 0. 0. 0. 0.</_>
    <_>
      4. 6. 6. 4. 4. 4. 4. 4. 4. 4. 4. 5. 4. 3. 4. 5. 5. 6. 5. 4. 0. 0.
      0. 0. 0. 3. 16. 18. 6. 4. 6. 8. 17. 11. 0. 0. 0. 0. 0. 0.</_>
    <_>
      4. 8. 9. 7. 8. 8. 8. 8. 8. 7. 7. 7. 7. 5. 7. 6. 6. 6. 9. 8. 0. 0.
      0. 0. 11. 17. 19. 17. 6. 5. 5. 5. 15. 19. 15. 9. 0. 0. 0. 0.</_>
    <_>
      3. 8. 10. 6. 4. 4. 4. 5. 5. 4. 4. 5. 6. 5. 5. 6. 6. 8. 9. 0. 0. 0.
      0. 0. 1. 16. 18. 7. 4. 3. 4. 5. 7. 18. 17. 7. 0. 0. 0. 0.</_>
    <_>
      5. 8. 8. 6. 5. 5. 5. 5. 5. 5. 5. 5. 5. 5. 6. 5. 6. 8. 7. 3. 0. 0.
      0. 0. 0. 12. 18. 19. 8. 6. 6. 7. 18. 17. 1. 0. 0. 0. 0. 0.</_>
    <_>
      6. 8. 5. 5. 5. 5. 5. 5. 5. 5. 5. 6. 6. 6. 5. 5. 5. 4. 6. 6. 0. 0.
      0. 0. 0. 3. 18. 20. 4. 3. 3. 4. 20. 18. 15. 0. 0. 0. 0. 0.</_>
    <_>
      6. 8. 5. 4. 4. 4. 4. 4. 5. 5. 5. 5. 5. 5. 5. 5. 5. 5. 8. 6. 0. 0.
      0. 0. 0. 0. 18. 20. 4. 4. 4. 4. 15. 18. 16. 0. 0. 0. 0. 0.</_>
    <_>
      5. 8. 6. 5. 5. 5. 5. 5. 5. 4. 4. 3. 4. 4. 4. 4. 5. 6. 7. 3. 0. 0.
      0. 0. 10. 16. 12. 5. 4. 4. 4. 4. 6. 17. 15. 0. 0. 0. 0. 0.</_>
    <_>
      7. 9. 6. 4. 5. 5. 4. 4. 4. 4. 4. 4. 4. 5. 5. 6. 8. 9. 9. 5. 0. 0.
      0. 0. 2. 15. 19. 9. 6. 6. 5. 6. 7. 18. 17. 1. 0. 0. 0. 0.</_>
    <_>
      4. 6. 7. 6. 6. 6. 5. 5. 6. 6. 6. 5. 5. 6. 6. 6. 6. 10. 7. 4. 0. 0.
      0. 0. 0. 16. 16. 18. 6. 5. 5. 6. 14. 17. 15. 0. 0. 0. 0. 0.</_>
    <_>
      6. 9. 12. 12. 10. 10. 9. 9. 8. 8. 8. 8. 7. 8. 7. 7. 8. 12. 10. 5.
      0. 0. 0. 8. 16. 17. 18. 13. 7. 7. 7. 7. 9. 18. 18. 16. 12. 0. 0.
      0.</_>
    <_>
      7. 9. 11. 12. 8. 8. 8. 8. 8. 8. 8. 8. 8. 8. 8. 8. 9. 11. 9. 6. 0.
      0. 0. 12. 16. 18. 19. 8. 7. 7. 7. 8. 20. 18. 16. 14. 0. 0. 0. 0.</_>
    <_>
      3. 7. 8. 6. 5. 5. 5. 5. 5. 5. 5. 5. 5. 5. 5. 5. 6. 8. 8. 6. 0. 0.
      0. 0. 0. 15. 17. 19. 5. 5. 4. 6. 7. 18. 16. 0. 0. 0. 0. 0.</_>
    <_>
      5. 7. 7. 6. 4. 4. 4. 4. 4. 4. 5. 4. 4. 5. 5. 5. 6. 7. 8. 6. 0. 0.
      0. 0. 0. 15. 18. 8. 5. 4. 5. 6. 11. 17. 15. 0. 0. 0. 0. 0.</_>
    <_>
      6. 8. 8. 6. 5. 5. 5. 5. 5. 5. 5. 5. 5. 5. 5. 5. 6. 9. 7. 3. 0. 0.
      0. 0. 0. 16. 18. 7. 5. 5. 5. 6. 19. 17. 15. 0. 0. 0. 0. 0.</_>
    <_>
      4. 7. 8. 8. 6. 5. 5. 5. 5. 5. 5. 5. 5. 4. 5. 6. 8. 8. 8. 6. 0. 0.
      0. 0. 0. 14. 17. 18. 8. 6. 6. 8. 9. 18. 14. 0. 0. 0. 0. 0.</_>
    <_>
      7. 9. 6. 6. 6. 6. 6. 6. 6. 6. 6. 6. 6. 6. 6. 6. 6. 6. 7. 8. 0. 0.
      0. 0. 0. 14. 19. 20. 6. 3. 3. 4. 20. 20. 18. 0. 0. 0. 0. 0.</_>
    <_>
      6. 8. 10. 8. 6. 6. 6. 6. 6. 6. 6. 6. 6. 6. 6. 7. 11. 9. 7. 3. 0.
      0. 0. 0. 13. 15. 17. 8. 6. 7. 7. 7. 7. 18. 16. 14. 0. 0. 0. 0.</_>
    <_>
      4. 8. 11. 11. 8. 7. 6. 5. 5. 5. 5. 5. 6. 6. 5. 7. 10. 11. 10. 8.
      0. 0. 0. 0. 12. 17. 19. 10. 8. 7. 8. 7. 9. 13. 17. 16. 0. 0. 0. 0.</_>
    <_>
      6. 9. 9. 6. 5. 5. 5. 5. 5. 5. 5. 5. 5. 5. 5. 5. 6. 9. 8. 3. 0. 0.
      0. 0. 0. 14. 18. 19. 5. 6. 6. 6. 7. 18. 17. 0. 0. 0. 0. 0.</_>
    <_>
      6. 9. 11. 9. 8. 7. 6. 6. 6. 6. 6. 7. 7. 6. 6. 6. 8. 9. 11. 9. 0.
      0. 0. 15. 17. 19. 10. 7. 5. 5. 5. 5. 8. 19. 17. 15. 2. 0. 0. 0.</_>
    <_>
      1. 2. 3. 2. 2. 2. 2. 2. 2. 2. 2. 2. 2. 2. 3. 3. 3. 4. 4. 3. 0. 0.
      0. 0. 0. 0. 0. 0. 2. 6. 20. 19. 1. 0. 0. 0. 0. 0. 0. 0.</_>
    <_>
      3. 4. 4. 4. 4. 4. 4. 4. 4. 4. 4. 4. 4. 4. 4. 4. 4. 4. 4. 4. 0. 0.
      0. 0. 0. 0. 0. 0. 19. 20. 20. 20. 0. 0. 0. 0. 0. 0. 0. 0.</_>
    <_>
      3. 3. 3. 3. 3. 3. 3. 3. 3. 3. 3. 3. 3. 3. 3. 3. 3. 3. 3. 3. 0. 0.
      0. 0. 0. 0. 0. 0. 0. 20. 20. 20. 0. 0. 0. 0. 0. 0. 0. 0.</_>
    <_>
      2. 2. 2. 2. 2. 2. 2. 2. 2. 2. 2. 2. 2. 2. 2. 2. 2. 2. 2. 2. 0. 0.
      0. 0. 0. 0. 0. 0. 0. 20. 20. 0. 0. 0. 0. 0. 0. 0. 0. 0.</_>
    <_>
      2. 4. 4. 5. 5. 5. 5. 5. 5. 5. 5. 4. 5. 5. 5. 5. 4. 4. 4. 3. 0. 0.
      0. 0. 0. 0. 0. 0. 12. 19. 20. 20. 18. 0. 0. 0. 0. 0. 0. 0.</_>
    <_>
      3. 4. 4. 4. 4. 4. 4. 4. 4. 4. 5. 4. 4. 4. 5. 5. 5. 5. 4. 2. 0. 0.
      0. 0. 0. 0. 0. 0. 18. 20. 20. 19. 5. 0. 0. 0. 0. 0. 0. 0.</_>
    <_>
      2. 3. 3. 3. 2. 2. 2. 2. 3. 2. 2. 2. 2. 2. 2. 2. 2. 2. 2. 2. 0. 0.
      0. 0. 0. 0. 0. 0. 0. 20. 20. 4. 0. 0. 0. 0. 0. 0. 0. 0.</_>
    <_>
      2. 3. 3. 3. 3. 2. 2. 3. 3. 3. 3. 2. 2. 2. 2. 2. 2. 2. 2. 2. 0. 0.
      0. 0. 0. 0. 0. 0. 0. 20. 20. 8. 0. 0. 0. 0. 0. 0. 0. 0.</_>
    <_>
      3. 3. 2. 2. 2. 2. 3. 3. 2. 2. 2. 2. 2. 2. 2. 2. 2. 3. 2. 2. 0. 0.
      0. 0. 0. 0. 0. 0. 0. 0. 20. 20. 5. 0. 0. 0. 0. 0. 0. 0.</_>
    <_>
      2. 3. 3. 3. 2. 2. 3. 3. 2. 2. 2. 2. 2. 2. 2. 2. 2. 2. 2. 2. 0. 0.
      0. 0. 0. 0. 0. 0. 20. 20. 5. 0. 0. 0. 0. 0. 0. 0. 0. 0.</_>
    <_>
      2. 2. 2. 2. 2. 2. 2. 2. 2. 2. 2. 2. 2. 2. 2. 2. 2. 2. 2. 3. 0. 0.
      0. 0. 0. 0. 0. 0. 0. 1. 20. 20. 0. 0. 0. 0. 0. 0. 0. 0.</_>
    <_>
      1. 4. 4. 4. 3. 3. 3. 3. 3. 3. 3. 3. 3. 3. 3. 3. 3. 2. 2. 2. 0. 0.
      0. 0. 0. 0. 0. 0. 3. 16. 20. 19. 0. 0. 0. 0. 0. 0. 0. 0.</_>
    <_>
      1. 1. 2. 2. 2. 2. 2. 2. 1. 1. 2. 1. 1. 1. 1. 1. 1. 1. 1. 1. 0. 0.
      0. 0. 0. 0. 0. 0. 0. 20. 7. 0. 0. 0. 0. 0. 0. 0. 0. 0.</_>
    <_>
      5. 3. 3. 3. 2. 3. 3. 3. 3. 3. 3. 3. 3. 3. 3. 3. 3. 3. 3. 2. 0. 0.
      0. 0. 0. 0. 0. 0. 19. 20. 19. 1. 1. 0. 0. 0. 0. 0. 0. 0.</_>
    <_>
      1. 4. 4. 4. 4. 4. 4. 4. 5. 4. 4. 4. 5. 4. 4. 4. 4. 4. 4. 4. 0. 0.
      0. 0. 0. 0. 0. 8. 20. 19. 19. 12. 1. 0. 0. 0. 0. 0. 0. 0.</_>
    <_>
      4. 4. 4. 4. 4. 4. 4. 4. 4. 4. 4. 4. 4. 4. 4. 4. 4. 4. 4. 2. 0. 0.
      0. 0. 0. 0. 0. 0. 19. 20. 20. 19. 0. 0. 0. 0. 0. 0. 0. 0.</_>
    <_>
      0. 2. 3. 3. 3. 3. 3. 3. 2. 2. 2. 2. 2. 2. 2. 2. 2. 3. 3. 1. 0. 0.
      0. 0. 0. 0. 0. 0. 7. 18. 18. 2. 0. 0. 0. 0. 0. 0. 0. 0.</_>
    <_>
      2. 2. 3. 2. 3. 3. 3. 2. 2. 2. 2. 2. 2. 2. 2. 2. 3. 2. 2. 1. 0. 0.
      0. 0. 0. 0. 0. 0. 3. 11. 17. 13. 0. 0. 0. 0. 0. 0. 0. 0.</_>
    <_>
      2. 3. 4. 3. 3. 3. 3. 3. 3. 3. 3. 3. 3. 3. 3. 3. 3. 4. 4. 4. 0. 0.
      0. 0. 0. 0. 0. 0. 0. 19. 20. 20. 4. 0. 0. 0. 0. 0. 0. 0.</_>
    <_>
      2. 3. 5. 4. 4. 4. 4. 4. 4. 4. 4. 4. 4. 4. 4. 3. 3. 4. 3. 4. 0. 0.
      0. 0. 0. 0. 0. 14. 19. 20. 20. 2. 0. 0. 0. 0. 0. 0. 0. 0.</_>
    <_>
      1. 2. 2. 2. 2. 2. 2. 2. 3. 2. 2. 2. 2. 2. 2. 2. 2. 2. 2. 2. 0. 0.
      0. 0. 0. 0. 0. 0. 19. 20. 1. 0. 0. 0. 0. 0. 0. 0. 0. 0.</_>
    <_>
      3. 3. 2. 2. 2. 2. 2. 2. 2. 2. 2. 2. 2. 2. 2. 2. 2. 2. 2. 2. 0. 0.
      0. 0. 0. 0. 0. 0. 0. 20. 20. 2. 0. 0. 0. 0. 0. 0. 0. 0.</_>
    <_>
      2. 3. 2. 2. 3. 3. 2. 2. 2. 3. 3. 3. 3. 3. 3. 2. 2. 2. 2. 2. 0. 0.
      0. 0. 0. 0. 0. 0. 11. 19. 15. 4. 0. 0. 0. 0. 0. 0. 0. 0.</_>
    <_>
      6. 3. 3. 3. 3. 3. 3. 3. 3. 3. 3. 3. 3. 3. 3. 3. 3. 3. 3. 3. 0. 0.
      0. 0. 0. 0. 0. 1. 1. 20. 20. 20. 1. 0. 0. 0. 0. 0. 0. 0.</_>
    <_>
      2. 3. 4. 5. 5. 4. 5. 5. 5. 5. 5. 5. 5. 5. 5. 4. 4. 4. 4. 3. 0. 0.
      0. 0. 0. 0. 0. 0. 15. 19. 20. 20. 13. 0. 0. 0. 0. 0. 0. 0.</_>
    <_>
      2. 3. 3. 3. 3. 3. 3. 3. 2. 2. 2. 2. 2. 2. 2. 2. 2. 2. 2. 2. 0. 0.
      0. 0. 0. 0. 0. 0. 0. 19. 20. 8. 0. 0. 0. 0. 0. 0. 0. 0.</_>
    <_>
      8. 3. 3. 2. 2. 3. 3. 2. 2. 2. 3. 3. 3. 3. 3. 3. 3. 3. 3. 2. 0. 0.
      0. 0. 0. 0. 1. 1. 11. 16. 16. 7. 4. 3. 0. 0. 0. 0. 0. 0.</_>
    <_>
      0. 2. 3. 3. 2. 3. 3. 3. 3. 2. 3. 3. 3. 3. 3. 3. 3. 3. 2. 1. 0. 0.
      0. 0. 0. 0. 0. 0. 16. 19. 16. 0. 0. 0. 0. 0. 0. 0. 0. 0.</_>
    <_>
      3. 3. 3. 3. 3. 3. 3. 3. 3. 3. 3. 3. 3. 3. 3. 3. 3. 3. 3. 1. 0. 0.
      0. 0. 0. 0. 0. 0. 19. 20. 19. 0. 0. 0. 0. 0. 0. 0. 0. 0.</_>
    <_>
      2. 3. 4. 4. 3. 4. 3. 3. 3. 3. 3. 3. 3. 3. 3. 3. 3. 4. 4. 6. 0. 0.
      0. 0. 0. 0. 0. 19. 20. 20. 6. 1. 1. 0. 0. 0. 0. 0. 0. 0.</_>
    <_>
      1. 2. 2. 2. 3. 2. 2. 2. 2. 2. 3. 2. 2. 2. 2. 3. 3. 3. 3. 2. 0. 0.
      0. 0. 0. 0. 0. 0. 6. 16. 19. 4. 0. 0. 0. 0. 0. 0. 0. 0.</_>
    <_>
      2. 3. 3. 3. 2. 2. 2. 2. 2. 2. 2. 2. 2. 2. 2. 2. 2. 2. 2. 2. 0. 0.
      0. 0. 0. 0. 0. 0. 0. 20. 20. 3. 0. 0. 0. 0. 0. 0. 0. 0.</_>
    <_>
      2. 1. 1. 1. 1. 1. 1. 1. 1. 1. 1. 1. 1. 1. 1. 1. 1. 1. 1. 1. 0. 0.
      0. 0. 0. 0. 0. 0. 0. 1. 20. 0. 0. 0. 0. 0. 0. 0. 0. 0.</_>
    <_>
      1. 2. 3. 3. 3. 3. 3. 3. 3. 3. 2. 2. 2. 2. 2. 2. 2. 2. 2. 1. 0. 0.
      0. 0. 0. 0. 0. 0. 18. 20. 8. 0. 0. 0. 0. 0. 0. 0. 0. 0.</_>
    <_>
      2. 3. 3. 3. 3. 3. 2. 2. 2. 2. 2. 2. 2. 2. 2. 2. 2. 2. 2. 2. 0. 0.
      0. 0. 0. 0. 0. 0. 20. 20. 5. 0. 0. 0. 0. 0. 0. 0. 0. 0.</_>
    <_>
      8. 11. 7. 8. 5. 3. 4. 4. 4. 4. 4. 4. 4. 4. 3. 4. 4. 13. 13. 12. 0.
      0. 0. 0. 4. 8. 9. 11. 11. 10. 10. 10. 10. 12. 12. 10. 6. 0. 0. 0.</_>
    <_>
      7. 9. 8. 8. 7. 3. 4. 4. 5. 4. 4. 4. 4. 4. 4. 4. 11. 12. 12. 3. 0.
      0. 0. 0. 4. 8. 10. 13. 11. 10. 11. 11. 12. 13. 11. 7. 0. 0. 0. 0.</_>
    <_>
      1. 8. 10. 6. 5. 3. 3. 3. 3. 4. 3. 3. 3. 2. 3. 3. 3. 3. 11. 11. 0.
      0. 0. 0. 2. 7. 10. 10. 8. 9. 8. 8. 10. 11. 8. 0. 0. 0. 0. 0.</_>
    <_>
      4. 8. 6. 5. 3. 2. 2. 3. 3. 3. 3. 2. 3. 3. 3. 3. 2. 9. 9. 8. 0. 0.
      0. 0. 0. 3. 9. 10. 10. 10. 10. 10. 12. 10. 0. 0. 0. 0. 0. 0.</_>
    <_>
      7. 8. 7. 6. 3. 3. 3. 3. 3. 3. 4. 3. 3. 4. 3. 3. 10. 10. 10. 2. 0.
      0. 0. 0. 0. 5. 9. 11. 10. 9. 11. 11. 14. 11. 7. 0. 0. 0. 0. 0.</_>
    <_>
      4. 7. 6. 4. 4. 2. 2. 2. 3. 3. 2. 2. 3. 2. 3. 2. 2. 3. 9. 9. 0. 0.
      0. 0. 0. 0. 3. 8. 10. 8. 8. 8. 8. 11. 10. 0. 0. 0. 0. 0.</_>
    <_>
      5. 7. 6. 6. 5. 2. 3. 2. 3. 3. 3. 4. 3. 3. 3. 3. 5. 8. 9. 5. 0. 0.
      0. 0. 0. 0. 8. 12. 14. 13. 10. 12. 12. 6. 1. 0. 0. 0. 0. 0.</_>
    <_>
      6. 8. 8. 4. 2. 2. 3. 4. 3. 2. 3. 4. 3. 3. 3. 4. 4. 7. 8. 8. 0. 0.
      0. 0. 0. 0. 8. 10. 12. 13. 13. 12. 12. 9. 0. 0. 0. 0. 0. 0.</_>
    <_>
      6. 4. 4. 2. 2. 2. 3. 2. 3. 4. 3. 2. 3. 3. 3. 3. 3. 8. 8. 7. 0. 0.
      0. 0. 0. 0. 7. 10. 9. 10. 8. 9. 13. 9. 0. 0. 0. 0. 0. 0.</_>
    <_>
      3. 6. 5. 4. 3. 2. 2. 3. 2. 2. 3. 3. 3. 3. 3. 2. 3. 3. 10. 9. 0. 0.
      0. 0. 0. 3. 8. 9. 11. 9. 10. 12. 8. 2. 2. 0. 0. 0. 0. 0.</_>
    <_>
      6. 6. 5. 4. 2. 2. 1. 2. 3. 2. 2. 2. 2. 3. 3. 2. 2. 1. 7. 6. 0. 0.
      0. 0. 0. 2. 6. 10. 8. 8. 9. 7. 9. 4. 0. 0. 0. 0. 0. 0.</_>
    <_>
      6. 7. 5. 4. 2. 3. 3. 3. 2. 2. 2. 2. 3. 3. 3. 3. 2. 2. 6. 6. 0. 0.
      0. 0. 0. 0. 2. 8. 11. 8. 9. 10. 8. 8. 5. 0. 0. 0. 0. 0.</_>
    <_>
      4. 6. 8. 6. 5. 4. 3. 3. 3. 3. 4. 4. 3. 3. 3. 3. 3. 4. 9. 10. 0. 0.
      0. 0. 0. 3. 8. 9. 10. 13. 12. 14. 12. 7. 2. 1. 0. 0. 0. 0.</_>
    <_>
      4. 6. 8. 7. 5. 2. 3. 3. 4. 3. 2. 3. 4. 3. 3. 3. 3. 7. 10. 10. 0.
      0. 0. 0. 0. 3. 7. 9. 11. 12. 14. 13. 11. 9. 2. 2. 0. 0. 0. 0.</_>
    <_>
      4. 6. 5. 3. 3. 2. 1. 2. 3. 2. 3. 2. 3. 2. 2. 3. 2. 3. 8. 7. 0. 0.
      0. 0. 0. 2. 8. 11. 9. 8. 9. 8. 9. 2. 0. 0. 0. 0. 0. 0.</_>
    <_>
      4. 6. 7. 5. 4. 2. 2. 3. 3. 2. 3. 3. 3. 3. 2. 2. 5. 8. 7. 2. 0. 0.
      0. 0. 0. 0. 6. 11. 13. 9. 12. 11. 11. 3. 0. 0. 0. 0. 0. 0.</_>
    <_>
      1. 6. 5. 4. 4. 2. 2. 2. 2. 3. 2. 3. 3. 3. 2. 2. 2. 3. 9. 9. 0. 0.
      0. 0. 0. 3. 7. 11. 8. 7. 7. 8. 11. 7. 0. 0. 0. 0. 0. 0.</_>
    <_>
      2. 8. 9. 6. 5. 2. 3. 4. 4. 4. 4. 4. 3. 3. 3. 4. 4. 4. 12. 12. 0.
      0. 0. 0. 6. 8. 10. 9. 9. 9. 8. 8. 8. 9. 9. 7. 0. 0. 0. 0.</_>
    <_>
      8. 9. 13. 13. 9. 7. 4. 6. 6. 6. 5. 5. 5. 5. 5. 5. 12. 14. 14. 14.
      0. 0. 0. 6. 7. 10. 12. 14. 13. 15. 15. 14. 16. 15. 14. 11. 3. 0.
      0. 0.</_>
    <_>
      3. 7. 7. 7. 6. 3. 3. 3. 3. 3. 3. 3. 3. 4. 3. 3. 3. 6. 5. 3. 0. 0.
      0. 0. 0. 0. 7. 11. 12. 8. 7. 11. 13. 8. 4. 0. 0. 0. 0. 0.</_>
    <_>
      6. 8. 8. 6. 5. 3. 3. 3. 4. 4. 4. 3. 3. 3. 3. 4. 3. 6. 10. 9. 0. 0.
      0. 0. 0. 5. 9. 10. 11. 11. 11. 10. 14. 12. 5. 0. 0. 0. 0. 0.</_>
    <_>
      5. 8. 8. 4. 4. 2. 2. 3. 4. 4. 3. 4. 3. 3. 4. 3. 3. 9. 10. 8. 0. 0.
      0. 0. 0. 2. 4. 10. 11. 11. 12. 11. 11. 13. 9. 0. 0. 0. 0. 0.</_>
    <_>
      1. 7. 7. 6. 5. 3. 3. 3. 2. 3. 4. 3. 3. 3. 3. 3. 4. 5. 11. 8. 0. 0.
      0. 0. 3. 7. 9. 10. 10. 7. 7. 9. 12. 8. 5. 0. 0. 0. 0. 0.</_>
    <_>
      5. 7. 8. 6. 4. 2. 2. 3. 3. 3. 3. 3. 3. 2. 2. 2. 2. 3. 9. 9. 0. 0.
      0. 0. 0. 5. 9. 10. 8. 8. 10. 11. 11. 8. 1. 0. 0. 0. 0. 0.</_>
    <_>
      8. 10. 11. 10. 8. 5. 5. 5. 5. 5. 5. 5. 5. 4. 5. 6. 10. 12. 11. 5.
      0. 0. 0. 1. 7. 10. 13. 13. 13. 13. 12. 14. 15. 13. 11. 5. 0. 0. 0.
      0.</_>
    <_>
      4. 8. 9. 8. 7. 6. 4. 4. 4. 4. 4. 4. 3. 4. 4. 4. 4. 8. 10. 9. 0. 0.
      0. 0. 0. 1. 9. 11. 11. 12. 12. 14. 15. 13. 10. 4. 0. 0. 0. 0.</_>
    <_>
      4. 7. 6. 5. 5. 2. 2. 3. 2. 3. 3. 3. 4. 3. 3. 3. 3. 9. 11. 3. 0. 0.
      0. 0. 0. 4. 7. 9. 9. 7. 7. 8. 9. 12. 9. 3. 0. 0. 0. 0.</_>
    <_>
      4. 8. 11. 12. 9. 8. 5. 4. 5. 5. 5. 5. 5. 6. 6. 6. 12. 14. 13. 12.
      0. 0. 0. 2. 8. 10. 12. 12. 13. 14. 14. 14. 15. 14. 12. 11. 4. 0.
      0. 0.</_>
    <_>
      5. 7. 10. 10. 6. 3. 3. 4. 4. 5. 4. 4. 4. 5. 4. 9. 10. 10. 9. 4. 0.
      0. 0. 0. 0. 7. 10. 12. 13. 14. 14. 14. 15. 13. 8. 0. 0. 0. 0. 0.</_>
    <_>
      7. 8. 8. 7. 3. 3. 4. 4. 4. 4. 4. 4. 4. 4. 5. 4. 4. 10. 11. 8. 0.
      0. 0. 0. 4. 9. 12. 12. 12. 12. 13. 14. 13. 8. 1. 0. 0. 0. 0. 0.</_>
    <_>
      6. 9. 11. 8. 7. 4. 4. 4. 4. 5. 4. 4. 4. 4. 4. 4. 4. 7. 12. 8. 0.
      0. 0. 1. 6. 8. 10. 10. 9. 9. 10. 10. 11. 13. 10. 6. 4. 0. 0. 0.</_>
    <_>
      1. 6. 8. 8. 6. 6. 3. 3. 3. 4. 3. 3. 3. 3. 3. 3. 4. 4. 10. 10. 0.
      0. 0. 0. 2. 7. 9. 12. 11. 8. 9. 10. 12. 10. 4. 0. 0. 0. 0. 0.</_>
    <_>
      9. 7. 6. 7. 7. 5. 6. 3. 3. 3. 3. 3. 3. 3. 3. 3. 3. 4. 7. 8. 0. 0.
      0. 0. 0. 2. 10. 12. 13. 13. 9. 12. 12. 9. 4. 0. 0. 0. 0. 0.</_>
    <_>
      5. 8. 9. 7. 6. 4. 3. 3. 3. 4. 3. 3. 3. 3. 4. 4. 3. 3. 9. 10. 0. 0.
      0. 0. 2. 7. 11. 11. 9. 9. 9. 9. 13. 11. 6. 0. 0. 0. 0. 0.</_>
    <_>
      4. 5. 7. 5. 4. 2. 2. 2. 3. 2. 3. 2. 3. 3. 3. 3. 3. 7. 7. 7. 0. 0.
      0. 0. 0. 0. 0. 8. 11. 11. 11. 12. 14. 10. 0. 0. 0. 0. 0. 0.</_>
    <_>
      6. 10. 13. 11. 8. 4. 4. 5. 5. 5. 5. 5. 4. 5. 4. 4. 5. 14. 14. 14.
      0. 0. 0. 4. 7. 9. 11. 12. 13. 11. 11. 11. 12. 13. 12. 10. 9. 0. 0.
      0.</_>
    <_>
      3. 7. 9. 8. 6. 4. 3. 4. 4. 5. 4. 5. 5. 5. 4. 5. 8. 10. 10. 5. 0.
      0. 0. 0. 0. 7. 11. 12. 12. 13. 11. 13. 15. 12. 8. 0. 0. 0. 0. 0.</_>
    <_>
      4. 7. 9. 6. 5. 4. 3. 3. 3. 4. 5. 5. 4. 4. 4. 4. 5. 8. 10. 4. 0. 0.
      0. 0. 0. 3. 10. 10. 12. 12. 9. 10. 14. 13. 8. 0. 0. 0. 0. 0.</_>
    <_>
      6. 8. 5. 4. 3. 2. 2. 3. 2. 3. 4. 3. 3. 3. 3. 3. 3. 4. 8. 8. 0. 0.
      0. 0. 0. 0. 7. 10. 11. 11. 10. 9. 13. 9. 0. 0. 0. 0. 0. 0.</_>
    <_>
      2. 5. 4. 4. 2. 2. 2. 3. 2. 3. 3. 2. 3. 3. 3. 4. 3. 7. 9. 9. 0. 0.
      0. 0. 0. 0. 8. 11. 9. 9. 7. 7. 12. 10. 2. 0. 0. 0. 0. 0.</_>
    <_>
      5. 10. 7. 6. 2. 3. 3. 3. 4. 3. 3. 3. 3. 4. 3. 4. 4. 4. 8. 5. 0. 0.
      0. 0. 0. 6. 8. 11. 11. 7. 8. 8. 12. 10. 6. 0. 0. 0. 0. 0.</_>
    <_>
      4. 7. 8. 5. 4. 3. 2. 3. 4. 3. 3. 3. 3. 3. 3. 4. 3. 3. 8. 8. 0. 0.
      0. 0. 0. 0. 9. 10. 11. 10. 11. 10. 13. 10. 0. 0. 0. 0. 0. 0.</_>
    <_>
      5. 8. 9. 7. 4. 3. 3. 4. 3. 4. 4. 4. 3. 4. 3. 3. 5. 10. 10. 10. 0.
      0. 0. 0. 0. 5. 8. 11. 13. 12. 11. 11. 13. 12. 10. 0. 0. 0. 0. 0.</_>
    <_>
      6. 8. 8. 6. 5. 4. 5. 4. 5. 5. 5. 5. 5. 5. 5. 4. 7. 11. 11. 10. 0.
      0. 0. 0. 3. 9. 11. 13. 13. 11. 11. 13. 15. 13. 10. 2. 0. 0. 0. 0.</_>
    <_>
      6. 8. 8. 6. 6. 3. 3. 4. 3. 4. 4. 3. 4. 3. 3. 3. 4. 10. 10. 10. 0.
      0. 0. 0. 0. 7. 8. 10. 11. 10. 10. 12. 14. 13. 10. 0. 0. 0. 0. 0.</_>
    <_>
      3. 8. 9. 8. 6. 2. 3. 4. 4. 4. 4. 5. 4. 4. 3. 4. 9. 11. 10. 3. 0.
      0. 0. 0. 1. 5. 8. 10. 13. 13. 13. 12. 13. 12. 8. 0. 0. 0. 0. 0.</_>
    <_>
      8. 10. 10. 6. 6. 4. 4. 4. 4. 4. 5. 4. 4. 4. 4. 4. 8. 11. 10. 1. 0.
      0. 0. 0. 1. 8. 13. 12. 12. 12. 11. 12. 14. 12. 8. 0. 0. 0. 0. 0.</_>
    <_>
      9. 6. 4. 2. 2. 3. 2. 2. 3. 2. 2. 3. 3. 3. 3. 2. 2. 3. 9. 9. 0. 0.
      0. 0. 0. 0. 6. 8. 10. 7. 8. 7. 9. 11. 8. 0. 0. 0. 0. 0.</_>
    <_>
      1. 6. 8. 9. 6. 4. 3. 4. 5. 4. 4. 4. 4. 4. 3. 4. 7. 10. 10. 2. 0.
      0. 0. 0. 0. 4. 9. 10. 10. 13. 12. 12. 14. 10. 8. 0. 0. 0. 0. 0.</_>
    <_>
      7. 5. 4. 5. 3. 3. 3. 3. 4. 3. 3. 4. 3. 3. 4. 3. 3. 8. 9. 7. 0. 0.
      0. 0. 0. 3. 10. 11. 11. 9. 7. 8. 13. 12. 3. 0. 0. 0. 0. 0.</_>
    <_>
      5. 10. 12. 14. 8. 6. 4. 3. 4. 5. 5. 5. 4. 5. 5. 5. 5. 5. 7. 15. 0.
      0. 0. 5. 7. 9. 9. 10. 11. 12. 11. 11. 10. 11. 11. 9. 5. 1. 0. 0.</_>
    <_>
      4. 7. 9. 7. 6. 6. 4. 3. 3. 3. 3. 3. 3. 3. 3. 3. 2. 3. 3. 9. 0. 0.
      0. 0. 0. 3. 8. 10. 9. 8. 9. 10. 13. 10. 7. 0. 0. 0. 0. 0.</_>
    <_>
      0. 6. 9. 6. 6. 4. 3. 3. 4. 3. 3. 3. 3. 3. 3. 3. 3. 4. 10. 10. 0.
      0. 0. 0. 4. 8. 9. 10. 9. 8. 9. 9. 11. 9. 3. 0. 0. 0. 0. 0.</_>
    <_>
      4. 8. 9. 9. 7. 5. 3. 4. 5. 4. 4. 3. 3. 4. 4. 3. 3. 6. 9. 7. 0. 0.
      0. 0. 0. 5. 11. 13. 12. 11. 11. 10. 13. 11. 7. 0. 0. 0. 0. 0.</_>
    <_>
      5. 8. 7. 6. 7. 4. 4. 3. 4. 4. 3. 3. 3. 4. 3. 4. 9. 10. 3. 0. 0. 0.
      0. 0. 1. 7. 11. 12. 10. 9. 8. 11. 11. 10. 4. 0. 0. 0. 0. 0.</_>
    <_>
      3. 5. 6. 6. 3. 2. 2. 2. 3. 3. 3. 3. 3. 2. 2. 3. 2. 4. 8. 4. 0. 0.
      0. 0. 0. 0. 5. 8. 10. 9. 9. 9. 12. 7. 0. 0. 0. 0. 0. 0.</_>
    <_>
      6. 10. 11. 7. 6. 2. 3. 4. 5. 5. 5. 5. 5. 5. 5. 4. 5. 11. 11. 11.
      0. 0. 0. 0. 0. 7. 10. 11. 13. 11. 12. 12. 12. 13. 13. 12. 0. 0. 0.
      0.</_>
    <_>
      4. 6. 8. 5. 4. 4. 3. 3. 3. 3. 3. 3. 3. 4. 3. 2. 3. 6. 7. 3. 0. 0.
      0. 0. 0. 0. 8. 11. 10. 10. 10. 13. 11. 7. 0. 0. 0. 0. 0. 0.</_>
    <_>
      1. 5. 5. 6. 3. 2. 2. 2. 3. 3. 2. 3. 2. 3. 3. 2. 2. 6. 8. 8. 0. 0.
      0. 0. 0. 0. 4. 8. 10. 9. 9. 9. 12. 10. 0. 0. 0. 0. 0. 0.</_>
    <_>
      7. 9. 7. 6. 5. 4. 3. 4. 4. 3. 3. 3. 4. 3. 3. 3. 4. 9. 12. 8. 0. 0.
      0. 0. 7. 9. 10. 11. 9. 8. 9. 8. 11. 10. 9. 3. 0. 0. 0. 0.</_>
    <_>
      6. 9. 11. 11. 9. 8. 5. 5. 5. 5. 6. 6. 6. 6. 6. 5. 11. 12. 12. 11.
      0. 0. 0. 2. 10. 12. 13. 14. 14. 14. 15. 17. 16. 14. 11. 3. 0. 0.
      0. 0.</_>
    <_>
      5. 7. 9. 8. 6. 5. 3. 3. 4. 4. 4. 4. 4. 4. 4. 3. 3. 3. 6. 10. 0. 0.
      0. 0. 0. 3. 8. 11. 13. 9. 10. 11. 14. 12. 8. 0. 0. 0. 0. 0.</_>
    <_>
      9. 9. 6. 4. 2. 2. 3. 4. 3. 5. 5. 4. 4. 5. 5. 4. 4. 3. 4. 13. 0. 0.
      0. 1. 2. 7. 10. 10. 8. 8. 8. 8. 8. 9. 11. 8. 0. 0. 0. 0.</_>
    <_>
      9. 9. 6. 4. 2. 2. 3. 4. 3. 5. 5. 4. 4. 5. 5. 4. 4. 3. 4. 12. 0. 0.
      0. 0. 2. 7. 10. 10. 8. 8. 8. 8. 8. 9. 11. 8. 0. 0. 0. 0.</_>
    <_>
      6. 8. 4. 4. 3. 2. 3. 3. 3. 3. 3. 3. 3. 3. 2. 2. 3. 3. 8. 8. 0. 0.
      0. 0. 0. 0. 7. 10. 10. 9. 9. 10. 12. 10. 0. 0. 0. 0. 0. 0.</_>
    <_>
      5. 8. 6. 4. 3. 3. 3. 2. 3. 3. 3. 3. 3. 3. 3. 3. 3. 10. 11. 9. 0.
      0. 0. 0. 1. 4. 7. 9. 10. 9. 10. 9. 11. 11. 8. 2. 0. 0. 0. 0.</_>
    <_>
      0. 6. 7. 5. 4. 2. 2. 3. 3. 3. 3. 3. 2. 3. 3. 3. 3. 3. 10. 9. 0. 0.
      0. 0. 0. 3. 8. 9. 8. 7. 7. 8. 9. 10. 8. 0. 0. 0. 0. 0.</_>
    <_>
      2. 6. 8. 7. 5. 3. 3. 3. 3. 4. 3. 3. 4. 3. 4. 3. 3. 5. 10. 5. 0. 0.
      0. 0. 0. 4. 7. 9. 9. 7. 11. 10. 12. 11. 7. 0. 0. 0. 0. 0.</_>
    <_>
      5. 10. 8. 6. 6. 3. 4. 5. 4. 4. 5. 5. 5. 4. 4. 5. 9. 11. 10. 6. 0.
      0. 0. 0. 1. 8. 11. 14. 13. 12. 11. 14. 15. 11. 9. 0. 0. 0. 0. 0.</_>
    <_>
      8. 9. 8. 8. 4. 4. 3. 4. 4. 4. 5. 5. 5. 4. 4. 6. 10. 10. 10. 2. 0.
      0. 0. 0. 6. 9. 11. 13. 11. 11. 13. 15. 13. 12. 3. 0. 0. 0. 0. 0.</_>
    <_>
      6. 8. 10. 11. 7. 6. 4. 4. 5. 5. 4. 5. 5. 3. 4. 5. 9. 11. 10. 2. 0.
      0. 0. 0. 1. 8. 10. 12. 12. 15. 12. 13. 16. 12. 9. 4. 0. 0. 0. 0.</_>
    <_>
      3. 4. 6. 7. 6. 6. 5. 4. 3. 3. 4. 4. 4. 3. 4. 4. 4. 8. 8. 7. 0. 0.
      0. 0. 0. 0. 8. 12. 14. 13. 12. 12. 13. 10. 3. 0. 0. 0. 0. 0.</_>
    <_>
      4. 6. 8. 9. 5. 3. 2. 3. 3. 3. 3. 4. 3. 3. 3. 4. 5. 7. 7. 1. 0. 0.
      0. 0. 0. 1. 7. 10. 13. 12. 12. 11. 11. 6. 3. 0. 0. 0. 0. 0.</_>
    <_>
      6. 6. 5. 5. 3. 2. 3. 3. 2. 3. 2. 3. 3. 3. 3. 2. 3. 9. 9. 2. 0. 0.
      0. 0. 0. 0. 6. 10. 10. 7. 8. 10. 12. 10. 4. 0. 0. 0. 0. 0.</_>
    <_>
      1. 6. 8. 6. 4. 3. 2. 2. 2. 3. 2. 2. 2. 3. 3. 2. 3. 2. 4. 9. 0. 0.
      0. 0. 0. 1. 8. 10. 9. 6. 7. 6. 7. 9. 6. 0. 0. 0. 0. 0.</_>
    <_>
      8. 5. 4. 3. 2. 2. 3. 2. 2. 3. 3. 2. 3. 2. 3. 2. 3. 3. 9. 7. 0. 0.
      0. 0. 0. 0. 8. 9. 9. 8. 7. 8. 12. 9. 1. 0. 0. 0. 0. 0.</_>
    <_>
      2. 6. 7. 7. 7. 6. 3. 3. 4. 4. 4. 3. 3. 3. 3. 4. 7. 8. 8. 8. 0. 0.
      0. 0. 0. 0. 8. 10. 13. 14. 12. 16. 14. 13. 0. 0. 0. 0. 0. 0.</_>
    <_>
      5. 7. 8. 5. 5. 3. 3. 4. 3. 3. 3. 3. 2. 3. 3. 2. 3. 9. 9. 1. 0. 0.
      0. 0. 0. 7. 9. 10. 9. 10. 9. 11. 10. 8. 1. 0. 0. 0. 0. 0.</_>
    <_>
      5. 8. 6. 6. 4. 2. 3. 2. 3. 3. 2. 3. 2. 3. 3. 3. 4. 5. 9. 7. 0. 0.
      0. 0. 2. 6. 9. 10. 10. 7. 7. 8. 10. 10. 4. 0. 0. 0. 0. 0.</_>
    <_>
      5. 7. 8. 6. 6. 3. 3. 4. 3. 3. 3. 4. 4. 4. 3. 3. 3. 3. 3. 10. 0. 0.
      0. 0. 0. 1. 6. 9. 13. 10. 9. 11. 13. 10. 6. 0. 0. 0. 0. 0.</_>
    <_>
      3. 9. 9. 7. 6. 5. 3. 3. 2. 3. 4. 3. 4. 5. 4. 3. 10. 11. 11. 3. 0.
      0. 0. 0. 0. 4. 13. 14. 12. 9. 8. 8. 10. 13. 10. 7. 0. 0. 0. 0.</_>
    <_>
      2. 6. 5. 5. 5. 3. 2. 3. 2. 3. 3. 2. 3. 3. 2. 3. 3. 8. 8. 3. 0. 0.
      0. 0. 0. 2. 7. 10. 10. 7. 7. 10. 12. 6. 3. 0. 0. 0. 0. 0.</_>
    <_>
      1. 7. 10. 8. 7. 6. 4. 4. 4. 4. 4. 4. 4. 3. 3. 4. 4. 11. 9. 2. 0.
      0. 0. 0. 2. 8. 11. 12. 11. 9. 9. 10. 12. 10. 7. 2. 0. 0. 0. 0.</_>
    <_>
      1. 4. 5. 8. 8. 4. 3. 2. 3. 4. 5. 4. 2. 2. 2. 3. 5. 5. 8. 4. 0. 0.
      0. 0. 0. 1. 8. 8. 8. 9. 12. 12. 13. 11. 0. 0. 0. 0. 0. 0.</_>
    <_>
      8. 6. 5. 4. 10. 6. 3. 3. 3. 3. 5. 5. 3. 2. 2. 2. 5. 6. 8. 6. 0. 0.
      0. 0. 5. 8. 10. 8. 10. 9. 9. 11. 12. 10. 3. 0. 0. 0. 0. 0.</_>
    <_>
      4. 11. 10. 3. 3. 3. 3. 4. 7. 7. 4. 4. 4. 4. 5. 7. 7. 10. 9. 5. 0.
      0. 0. 2. 5. 7. 7. 10. 10. 12. 12. 11. 15. 12. 7. 4. 0. 0. 0. 0.</_>
    <_>
      3. 10. 12. 4. 4. 4. 3. 4. 6. 8. 4. 3. 4. 3. 4. 5. 6. 10. 11. 8. 0.
      0. 0. 3. 4. 6. 5. 6. 6. 8. 9. 11. 12. 15. 14. 12. 5. 0. 0. 0.</_>
    <_>
      9. 9. 3. 3. 3. 4. 4. 7. 8. 4. 4. 3. 3. 3. 6. 6. 7. 9. 7. 4. 0. 0.
      0. 0. 0. 5. 6. 9. 10. 10. 11. 13. 11. 15. 10. 6. 0. 0. 0. 0.</_>
    <_>
      10. 12. 9. 3. 3. 4. 5. 6. 8. 4. 3. 4. 4. 4. 6. 6. 6. 10. 9. 6. 0.
      0. 0. 0. 1. 7. 8. 10. 9. 9. 11. 12. 13. 15. 14. 9. 4. 0. 0. 0.</_>
    <_>
      12. 12. 6. 4. 4. 4. 4. 6. 8. 5. 5. 4. 3. 3. 5. 7. 8. 8. 10. 8. 0.
      0. 0. 0. 4. 8. 7. 8. 8. 8. 9. 12. 13. 14. 16. 12. 7. 0. 0. 0.</_>
    <_>
      5. 10. 4. 3. 3. 3. 3. 4. 5. 7. 3. 3. 3. 3. 3. 5. 4. 6. 9. 7. 0. 0.
      0. 0. 0. 4. 6. 4. 6. 7. 8. 10. 12. 15. 13. 8. 0. 0. 0. 0.</_>
    <_>
      7. 9. 9. 3. 3. 3. 3. 2. 6. 7. 5. 5. 4. 4. 2. 3. 3. 5. 7. 8. 0. 0.
      0. 0. 0. 7. 6. 7. 8. 10. 15. 15. 16. 12. 2. 0. 0. 0. 0. 0.</_>
    <_>
      10. 11. 11. 5. 4. 5. 5. 6. 7. 7. 4. 3. 3. 3. 3. 6. 7. 8. 11. 9. 0.
      0. 0. 0. 2. 7. 8. 9. 10. 10. 10. 12. 13. 13. 16. 12. 6. 0. 0. 0.</_>
    <_>
      2. 2. 2. 2. 3. 4. 5. 3. 3. 2. 2. 2. 2. 2. 3. 4. 5. 6. 7. 5. 0. 0.
      0. 0. 0. 3. 4. 3. 6. 7. 8. 8. 7. 11. 9. 0. 0. 0. 0. 0.</_>
    <_>
      7. 8. 9. 2. 3. 3. 3. 4. 5. 4. 3. 2. 3. 3. 3. 4. 4. 7. 7. 6. 0. 0.
      0. 0. 0. 6. 7. 8. 9. 10. 11. 11. 16. 9. 3. 0. 0. 0. 0. 0.</_>
    <_>
      1. 2. 2. 2. 2. 5. 4. 2. 2. 2. 2. 2. 2. 2. 2. 4. 3. 4. 7. 5. 0. 0.
      0. 0. 0. 2. 4. 4. 5. 7. 7. 8. 12. 8. 0. 0. 0. 0. 0. 0.</_>
    <_>
      7. 10. 10. 6. 5. 5. 5. 6. 7. 8. 8. 4. 5. 5. 7. 9. 9. 11. 9. 7. 0.
      0. 0. 0. 1. 6. 8. 11. 12. 12. 14. 15. 20. 18. 14. 8. 4. 0. 0. 0.</_>
    <_>
      4. 10. 11. 4. 4. 5. 6. 6. 10. 9. 7. 5. 5. 6. 7. 6. 6. 8. 6. 4. 0.
      0. 0. 1. 5. 7. 12. 12. 11. 14. 15. 19. 14. 11. 4. 4. 0. 0. 0. 0.</_>
    <_>
      8. 10. 10. 9. 5. 4. 6. 7. 8. 8. 5. 4. 4. 5. 8. 10. 11. 9. 7. 2. 0.
      0. 0. 0. 5. 8. 12. 13. 13. 14. 15. 18. 19. 15. 8. 0. 0. 0. 0. 0.</_>
    <_>
      7. 10. 7. 4. 3. 3. 3. 5. 7. 7. 3. 2. 2. 2. 5. 6. 6. 6. 7. 5. 0. 0.
      0. 0. 3. 6. 8. 10. 8. 9. 12. 11. 12. 14. 7. 0. 0. 0. 0. 0.</_>
    <_>
      2. 8. 8. 5. 4. 3. 4. 4. 4. 6. 4. 3. 3. 3. 4. 6. 6. 7. 6. 1. 0. 0.
      0. 0. 0. 0. 3. 9. 7. 8. 11. 13. 16. 13. 11. 0. 0. 0. 0. 0.</_>
    <_>
      7. 8. 4. 3. 2. 2. 3. 3. 4. 3. 3. 2. 2. 2. 3. 4. 5. 5. 6. 2. 0. 0.
      0. 0. 0. 0. 7. 6. 7. 8. 12. 11. 14. 8. 0. 0. 0. 0. 0. 0.</_>
    <_>
      2. 9. 9. 6. 3. 4. 4. 5. 6. 6. 5. 3. 2. 5. 4. 4. 6. 8. 8. 5. 0. 0.
      0. 0. 0. 8. 10. 9. 10. 12. 13. 15. 16. 10. 1. 0. 0. 0. 0. 0.</_>
    <_>
      1. 8. 9. 6. 4. 4. 5. 6. 7. 7. 4. 3. 3. 3. 6. 6. 8. 9. 8. 4. 0. 0.
      0. 0. 2. 6. 8. 8. 10. 12. 12. 14. 17. 16. 6. 0. 0. 0. 0. 0.</_>
    <_>
      10. 12. 12. 11. 6. 6. 6. 7. 8. 9. 6. 5. 4. 7. 7. 9. 12. 11. 8. 4.
      0. 0. 0. 6. 9. 10. 12. 12. 14. 14. 15. 17. 18. 15. 12. 6. 0. 0. 0.
      0.</_>
    <_>
      11. 12. 10. 5. 4. 5. 5. 7. 8. 8. 3. 3. 3. 3. 5. 7. 9. 10. 8. 6. 0.
      0. 0. 2. 7. 8. 10. 11. 10. 11. 13. 14. 18. 15. 12. 1. 0. 0. 0. 0.</_>
    <_>
      7. 10. 10. 3. 3. 3. 3. 4. 5. 6. 6. 3. 3. 3. 3. 6. 6. 5. 6. 8. 0.
      0. 0. 0. 0. 3. 8. 8. 7. 8. 9. 9. 12. 17. 14. 8. 0. 0. 0. 0.</_>
    <_>
      10. 8. 3. 3. 4. 4. 4. 7. 7. 3. 4. 3. 3. 3. 6. 6. 7. 10. 8. 4. 0.
      0. 0. 0. 0. 6. 7. 8. 10. 9. 10. 12. 12. 15. 12. 6. 0. 0. 0. 0.</_>
    <_>
      13. 13. 13. 5. 4. 4. 5. 6. 8. 8. 8. 5. 4. 4. 7. 8. 8. 12. 11. 8.
      0. 0. 2. 7. 8. 9. 7. 9. 11. 11. 14. 14. 16. 16. 14. 11. 5. 0. 0.
      0.</_>
    <_>
      5. 7. 5. 4. 4. 4. 4. 4. 4. 2. 2. 2. 2. 2. 4. 5. 6. 6. 5. 1. 0. 0.
      0. 0. 0. 0. 3. 7. 5. 9. 11. 13. 19. 11. 0. 0. 0. 0. 0. 0.</_>
    <_>
      9. 9. 7. 4. 3. 3. 4. 5. 6. 6. 3. 3. 3. 3. 5. 7. 8. 9. 8. 6. 0. 0.
      0. 0. 4. 7. 8. 10. 11. 13. 13. 12. 13. 10. 7. 3. 0. 0. 0. 0.</_>
    <_>
      5. 10. 10. 3. 2. 2. 3. 4. 6. 5. 3. 2. 3. 3. 4. 6. 7. 8. 8. 6. 0.
      0. 0. 0. 1. 6. 8. 9. 9. 9. 8. 12. 11. 13. 10. 4. 0. 0. 0. 0.</_>
    <_>
      4. 10. 9. 4. 4. 4. 4. 4. 5. 6. 4. 3. 2. 3. 6. 5. 6. 8. 9. 7. 0. 0.
      0. 0. 5. 8. 9. 9. 9. 10. 13. 13. 16. 13. 2. 0. 0. 0. 0. 0.</_>
    <_>
      11. 11. 7. 7. 6. 7. 5. 7. 7. 7. 7. 4. 3. 6. 6. 7. 10. 10. 9. 6. 0.
      0. 0. 0. 3. 8. 9. 9. 11. 12. 14. 15. 17. 18. 17. 10. 0. 0. 0. 0.</_>
    <_>
      8. 8. 8. 5. 4. 6. 5. 6. 6. 3. 3. 6. 6. 9. 8. 7. 5. 2. 1. 4. 0. 0.
      0. 0. 0. 4. 8. 10. 14. 14. 12. 13. 16. 12. 7. 0. 0. 0. 0. 0.</_>
    <_>
      3. 10. 10. 9. 7. 3. 4. 3. 4. 5. 6. 4. 4. 3. 3. 4. 6. 8. 8. 7. 0.
      0. 0. 0. 0. 5. 9. 8. 11. 10. 11. 15. 17. 13. 12. 0. 0. 0. 0. 0.</_>
    <_>
      6. 4. 3. 3. 2. 3. 4. 4. 6. 5. 3. 3. 3. 3. 3. 5. 6. 6. 8. 6. 0. 0.
      0. 0. 0. 0. 4. 5. 9. 8. 10. 14. 16. 14. 6. 0. 0. 0. 0. 0.</_>
    <_>
      8. 9. 10. 10. 8. 3. 3. 3. 3. 4. 4. 2. 2. 2. 2. 4. 4. 4. 7. 4. 0.
      0. 0. 0. 2. 7. 9. 7. 10. 11. 13. 11. 13. 10. 3. 0. 0. 0. 0. 0.</_>
    <_>
      9. 9. 6. 4. 5. 5. 6. 7. 8. 8. 4. 4. 4. 6. 8. 9. 10. 10. 8. 6. 0.
      0. 0. 0. 2. 8. 9. 12. 12. 12. 14. 16. 20. 16. 10. 5. 0. 0. 0. 0.</_>
    <_>
      7. 9. 9. 6. 4. 5. 4. 6. 9. 9. 6. 4. 4. 5. 5. 5. 6. 9. 8. 1. 0. 0.
      0. 0. 0. 18. 19. 11. 8. 7. 7. 11. 19. 18. 3. 0. 0. 0. 0. 0.</_>
    <_>
      5. 8. 3. 2. 1. 2. 2. 2. 3. 2. 2. 2. 2. 1. 3. 4. 4. 4. 6. 8. 0. 0.
      0. 0. 0. 0. 7. 6. 4. 6. 7. 8. 13. 13. 2. 0. 0. 0. 0. 0.</_>
    <_>
      4. 8. 7. 3. 3. 3. 4. 4. 4. 4. 3. 3. 3. 3. 5. 6. 6. 7. 6. 4. 0. 0.
      0. 0. 0. 1. 7. 7. 10. 10. 12. 15. 15. 8. 5. 0. 0. 0. 0. 0.</_>
    <_>
      10. 9. 3. 3. 3. 3. 4. 5. 6. 3. 3. 2. 2. 2. 2. 4. 4. 5. 9. 7. 0. 0.
      0. 0. 0. 4. 6. 5. 7. 7. 8. 9. 11. 11. 14. 7. 0. 0. 0. 0.</_>
    <_>
      8. 7. 4. 3. 3. 3. 4. 4. 4. 5. 4. 3. 2. 2. 2. 2. 3. 4. 5. 6. 0. 0.
      0. 0. 0. 0. 5. 5. 7. 9. 11. 14. 15. 12. 0. 0. 0. 0. 0. 0.</_>
    <_>
      9. 9. 4. 3. 2. 3. 3. 4. 5. 7. 5. 2. 3. 2. 3. 4. 4. 6. 7. 5. 0. 0.
      0. 0. 0. 0. 6. 10. 9. 10. 9. 14. 16. 13. 3. 0. 0. 0. 0. 0.</_>
    <_>
      2. 8. 5. 3. 2. 3. 3. 3. 5. 6. 4. 2. 2. 2. 2. 4. 4. 5. 7. 4. 0. 0.
      0. 0. 0. 0. 6. 9. 8. 8. 8. 10. 15. 12. 0. 0. 0. 0. 0. 0.</_>
    <_>
      4. 9. 9. 4. 3. 2. 3. 3. 4. 5. 5. 3. 2. 2. 2. 4. 4. 6. 6. 7. 0. 0.
      0. 0. 0. 1. 7. 8. 8. 7. 8. 12. 12. 14. 10. 0. 0. 0. 0. 0.</_>
    <_>
      8. 4. 3. 2. 2. 3. 4. 4. 5. 3. 2. 2. 2. 2. 5. 4. 6. 7. 7. 6. 0. 0.
      0. 0. 0. 0. 5. 8. 7. 8. 8. 14. 16. 14. 1. 0. 0. 0. 0. 0.</_>
    <_>
      10. 11. 7. 3. 3. 3. 4. 5. 7. 3. 3. 2. 2. 2. 2. 4. 6. 7. 9. 7. 0.
      0. 0. 0. 1. 5. 7. 7. 7. 7. 8. 9. 12. 11. 15. 11. 0. 0. 0. 0.</_>
    <_>
      10. 11. 11. 10. 4. 4. 5. 6. 7. 8. 4. 3. 3. 4. 8. 7. 9. 11. 10. 7.
      0. 0. 0. 0. 3. 9. 9. 13. 12. 12. 12. 13. 15. 17. 15. 10. 2. 0. 0.
      0.</_>
    <_>
      7. 7. 5. 3. 3. 3. 4. 4. 5. 2. 2. 2. 2. 2. 5. 6. 8. 8. 6. 2. 0. 0.
      0. 0. 0. 0. 7. 8. 10. 12. 12. 14. 15. 8. 0. 0. 0. 0. 0. 0.</_>
    <_>
      1. 8. 8. 3. 3. 3. 3. 4. 6. 5. 3. 2. 2. 2. 4. 4. 5. 7. 6. 2. 0. 0.
      0. 0. 0. 5. 8. 7. 9. 10. 11. 11. 14. 6. 0. 0. 0. 0. 0. 0.</_>
    <_>
      12. 8. 5. 3. 3. 4. 4. 5. 7. 7. 3. 4. 3. 3. 3. 6. 6. 7. 7. 10. 0.
      0. 0. 0. 5. 7. 5. 6. 7. 7. 10. 11. 14. 16. 14. 8. 0. 0. 0. 0.</_>
    <_>
      7. 9. 7. 3. 3. 4. 3. 4. 5. 6. 3. 2. 3. 3. 5. 6. 6. 7. 8. 7. 0. 0.
      0. 0. 0. 1. 8. 9. 11. 9. 10. 13. 13. 15. 8. 4. 0. 0. 0. 0.</_>
    <_>
      6. 8. 8. 2. 2. 3. 3. 4. 5. 3. 3. 2. 2. 2. 4. 5. 5. 7. 6. 3. 0. 0.
      0. 0. 0. 1. 6. 8. 9. 10. 10. 11. 11. 11. 6. 0. 0. 0. 0. 0.</_>
    <_>
      8. 3. 3. 2. 2. 3. 4. 4. 5. 3. 3. 3. 3. 3. 3. 5. 6. 5. 8. 7. 0. 0.
      0. 0. 0. 0. 5. 6. 7. 7. 8. 12. 16. 15. 7. 0. 0. 0. 0. 0.</_>
    <_>
      3. 9. 10. 10. 8. 6. 5. 5. 6. 7. 6. 4. 3. 5. 5. 7. 10. 8. 6. 1. 0.
      0. 0. 0. 0. 7. 9. 8. 13. 14. 14. 16. 18. 15. 10. 0. 0. 0. 0. 0.</_>
    <_>
      3. 9. 10. 6. 4. 4. 5. 5. 7. 7. 4. 3. 3. 3. 7. 6. 9. 9. 6. 1. 0. 0.
      0. 0. 2. 7. 8. 12. 9. 11. 12. 13. 17. 14. 6. 0. 0. 0. 0. 0.</_>
    <_>
      8. 6. 3. 2. 3. 3. 4. 4. 5. 3. 2. 2. 2. 2. 4. 4. 5. 6. 6. 2. 0. 0.
      0. 0. 0. 0. 5. 7. 8. 7. 8. 13. 16. 12. 0. 0. 0. 0. 0. 0.</_>
    <_>
      9. 9. 7. 3. 2. 3. 3. 4. 6. 5. 2. 2. 2. 2. 5. 6. 7. 9. 7. 2. 0. 0.
      0. 0. 0. 7. 8. 10. 10. 9. 12. 12. 15. 12. 0. 0. 0. 0. 0. 0.</_>
    <_>
      10. 11. 11. 10. 6. 6. 5. 7. 8. 8. 6. 5. 5. 8. 8. 9. 11. 9. 7. 3.
      0. 0. 0. 3. 8. 10. 11. 13. 14. 14. 15. 19. 17. 15. 10. 4. 0. 0. 0.
      0.</_>
    <_>
      7. 10. 10. 7. 5. 5. 6. 6. 9. 9. 9. 4. 3. 5. 7. 8. 12. 11. 10. 7.
      0. 0. 0. 0. 5. 8. 10. 12. 14. 15. 15. 15. 18. 16. 15. 7. 0. 0. 0.
      0.</_>
    <_>
      8. 7. 3. 4. 3. 3. 5. 6. 6. 3. 2. 2. 2. 2. 4. 4. 6. 7. 7. 4. 0. 0.
      0. 0. 0. 0. 7. 9. 10. 10. 12. 13. 16. 11. 0. 0. 0. 0. 0. 0.</_>
    <_>
      8. 9. 5. 3. 3. 2. 3. 5. 6. 6. 3. 2. 2. 2. 4. 5. 6. 7. 7. 5. 0. 0.
      0. 0. 0. 5. 8. 10. 9. 11. 13. 13. 15. 9. 0. 0. 0. 0. 0. 0.</_>
    <_>
      5. 8. 8. 4. 3. 3. 3. 4. 4. 5. 5. 3. 3. 3. 3. 4. 6. 6. 4. 3. 0. 0.
      0. 0. 0. 2. 7. 5. 5. 9. 12. 15. 16. 11. 5. 0. 0. 0. 0. 0.</_>
    <_>
      7. 7. 3. 3. 3. 4. 4. 4. 5. 3. 2. 2. 2. 2. 5. 5. 4. 7. 5. 4. 0. 0.
      0. 0. 0. 0. 2. 6. 7. 9. 10. 13. 20. 14. 0. 0. 0. 0. 0. 0.</_>
    <_>
      6. 8. 9. 9. 6. 4. 4. 5. 5. 6. 6. 4. 4. 3. 3. 6. 7. 8. 10. 8. 0. 0.
      0. 0. 0. 8. 9. 13. 12. 13. 14. 17. 16. 12. 7. 0. 0. 0. 0. 0.</_>
    <_>
      7. 3. 3. 2. 2. 3. 4. 4. 6. 4. 3. 3. 3. 3. 3. 5. 6. 6. 8. 7. 0. 0.
      0. 0. 0. 0. 4. 6. 8. 7. 9. 12. 16. 15. 8. 0. 0. 0. 0. 0.</_>
    <_>
      11. 12. 12. 11. 5. 5. 5. 7. 8. 8. 6. 4. 4. 6. 7. 8. 9. 11. 9. 7.
      0. 0. 0. 5. 9. 10. 11. 12. 12. 13. 14. 15. 19. 16. 13. 6. 0. 0. 0.
      0.</_>
    <_>
      2. 10. 10. 10. 3. 4. 5. 6. 7. 7. 4. 3. 2. 2. 6. 6. 8. 10. 8. 3. 0.
      0. 0. 0. 0. 8. 9. 10. 10. 11. 11. 12. 13. 13. 12. 7. 0. 0. 0. 0.</_>
    <_>
      7. 9. 4. 2. 3. 2. 2. 4. 6. 3. 3. 2. 3. 3. 3. 4. 6. 7. 7. 6. 0. 0.
      0. 0. 0. 4. 7. 9. 7. 8. 10. 12. 17. 9. 3. 0. 0. 0. 0. 0.</_>
    <_>
      8. 9. 8. 3. 3. 3. 3. 4. 5. 5. 3. 2. 2. 2. 2. 4. 6. 8. 7. 5. 0. 0.
      0. 0. 0. 5. 7. 9. 10. 10. 13. 13. 15. 10. 0. 0. 0. 0. 0. 0.</_>
    <_>
      5. 7. 10. 8. 3. 3. 3. 4. 5. 7. 3. 3. 3. 2. 2. 6. 6. 8. 8. 5. 0. 0.
      0. 0. 0. 7. 8. 8. 10. 9. 8. 11. 14. 14. 12. 0. 0. 0. 0. 0.</_>
    <_>
      7. 6. 3. 2. 2. 2. 4. 6. 4. 4. 3. 3. 3. 6. 8. 8. 11. 9. 7. 4. 0. 0.
      0. 0. 1. 4. 7. 7. 8. 8. 9. 12. 13. 15. 10. 8. 0. 0. 0. 0.</_>
    <_>
      3. 3. 4. 4. 5. 5. 5. 5. 5. 5. 5. 5. 4. 6. 10. 11. 10. 4. 3. 2. 0.
      0. 0. 0. 2. 4. 8. 10. 9. 8. 10. 19. 20. 11. 3. 0. 0. 0. 0. 0.</_>
    <_>
      4. 4. 3. 4. 4. 6. 5. 5. 7. 8. 6. 6. 6. 6. 7. 9. 9. 9. 4. 3. 0. 0.
      0. 0. 0. 0. 6. 9. 10. 10. 10. 15. 20. 20. 15. 0. 0. 0. 0. 0.</_>
    <_>
      2. 2. 3. 3. 3. 3. 3. 4. 4. 4. 5. 4. 6. 5. 7. 8. 8. 8. 3. 2. 0. 0.
      0. 0. 0. 0. 4. 8. 9. 10. 11. 19. 20. 6. 0. 0. 0. 0. 0. 0.</_>
    <_>
      1. 2. 2. 4. 4. 5. 5. 6. 6. 4. 5. 5. 7. 8. 8. 6. 3. 2. 1. 1. 0. 0.
      0. 0. 0. 0. 3. 6. 9. 11. 8. 13. 20. 15. 0. 0. 0. 0. 0. 0.</_>
    <_>
      2. 2. 4. 3. 4. 4. 4. 5. 7. 6. 6. 5. 7. 9. 9. 9. 3. 3. 3. 2. 0. 0.
      0. 0. 0. 0. 4. 8. 10. 10. 11. 19. 20. 12. 3. 0. 0. 0. 0. 0.</_>
    <_>
      2. 3. 3. 4. 4. 5. 4. 4. 4. 5. 4. 5. 4. 5. 8. 8. 6. 3. 2. 2. 0. 0.
      0. 0. 0. 4. 6. 8. 7. 5. 5. 9. 20. 20. 1. 0. 0. 0. 0. 0.</_>
    <_>
      3. 3. 4. 4. 4. 5. 5. 5. 5. 4. 4. 4. 4. 4. 5. 9. 9. 7. 2. 2. 0. 0.
      0. 0. 0. 0. 3. 7. 10. 9. 10. 11. 20. 20. 2. 0. 0. 0. 0. 0.</_>
    <_>
      2. 3. 3. 3. 4. 4. 5. 5. 4. 5. 4. 3. 4. 4. 5. 8. 7. 4. 2. 2. 0. 0.
      0. 0. 0. 0. 1. 5. 9. 7. 8. 11. 20. 20. 0. 0. 0. 0. 0. 0.</_>
    <_>
      2. 3. 3. 5. 5. 4. 5. 6. 5. 6. 6. 5. 6. 9. 9. 9. 4. 3. 3. 1. 0. 0.
      0. 0. 0. 4. 7. 9. 11. 10. 19. 20. 15. 4. 0. 0. 0. 0. 0. 0.</_>
    <_>
      2. 4. 4. 5. 5. 5. 6. 6. 5. 5. 4. 5. 6. 7. 8. 8. 4. 3. 2. 2. 0. 0.
      0. 0. 0. 0. 5. 8. 10. 9. 10. 20. 20. 14. 0. 0. 0. 0. 0. 0.</_>
    <_>
      3. 3. 3. 4. 4. 5. 5. 4. 4. 5. 6. 4. 5. 6. 10. 10. 9. 3. 3. 2. 0.
      0. 0. 0. 0. 5. 7. 8. 9. 10. 10. 19. 20. 8. 2. 0. 0. 0. 0. 0.</_>
    <_>
      2. 4. 5. 5. 5. 6. 7. 7. 6. 6. 8. 8. 6. 7. 9. 12. 12. 4. 4. 4. 0.
      0. 0. 0. 4. 6. 7. 9. 8. 8. 8. 15. 20. 20. 19. 3. 0. 0. 0. 0.</_>
    <_>
      3. 5. 5. 6. 6. 7. 7. 8. 8. 7. 6. 6. 5. 5. 8. 14. 12. 4. 4. 3. 0.
      0. 0. 1. 3. 5. 7. 8. 7. 7. 8. 9. 17. 20. 20. 16. 1. 0. 0. 0.</_>
    <_>
      3. 3. 3. 3. 4. 6. 6. 7. 6. 6. 6. 6. 6. 6. 7. 9. 12. 12. 4. 2. 0.
      0. 0. 0. 4. 7. 9. 10. 8. 7. 11. 19. 20. 15. 5. 2. 0. 0. 0. 0.</_>
    <_>
      3. 3. 4. 4. 4. 5. 5. 4. 5. 4. 4. 5. 4. 4. 5. 9. 9. 9. 3. 2. 0. 0.
      0. 0. 0. 0. 4. 7. 10. 10. 10. 11. 20. 20. 3. 0. 0. 0. 0. 0.</_>
    <_>
      2. 3. 3. 4. 4. 5. 6. 6. 5. 5. 5. 6. 7. 6. 9. 9. 4. 3. 2. 2. 0. 0.
      0. 0. 0. 4. 5. 7. 8. 5. 4. 6. 14. 20. 20. 3. 0. 0. 0. 0.</_>
    <_>
      3. 3. 4. 5. 5. 6. 8. 8. 7. 6. 6. 6. 7. 7. 11. 12. 12. 10. 3. 2. 0.
      0. 0. 0. 3. 6. 7. 12. 12. 12. 10. 14. 20. 20. 13. 2. 0. 0. 0. 0.</_>
    <_>
      4. 3. 4. 5. 5. 5. 5. 4. 5. 5. 5. 6. 6. 6. 9. 9. 4. 3. 2. 3. 0. 0.
      0. 0. 0. 0. 6. 10. 9. 9. 8. 15. 20. 19. 2. 0. 0. 0. 0. 0.</_>
    <_>
      4. 5. 4. 3. 4. 4. 5. 6. 4. 5. 6. 7. 5. 6. 9. 10. 8. 3. 3. 1. 0. 0.
      0. 0. 0. 6. 8. 10. 9. 9. 10. 18. 20. 11. 1. 0. 0. 0. 0. 0.</_>
    <_>
      3. 3. 4. 4. 4. 5. 5. 4. 5. 4. 4. 4. 4. 4. 9. 9. 9. 3. 2. 2. 0. 0.
      0. 0. 0. 3. 6. 9. 9. 10. 10. 20. 20. 4. 0. 0. 0. 0. 0. 0.</_>
    <_>
      3. 4. 4. 5. 5. 5. 6. 7. 7. 7. 7. 7. 6. 8. 9. 9. 9. 4. 3. 1. 0. 0.
      0. 0. 0. 5. 8. 10. 9. 10. 18. 20. 19. 17. 0. 0. 0. 0. 0. 0.</_>
    <_>
      3. 4. 4. 5. 5. 6. 6. 5. 3. 2. 3. 5. 5. 5. 12. 12. 9. 3. 3. 1. 0.
      0. 0. 0. 3. 4. 6. 5. 5. 5. 6. 8. 17. 20. 19. 3. 0. 0. 0. 0.</_>
    <_>
      3. 3. 4. 4. 4. 5. 6. 5. 6. 5. 7. 6. 5. 6. 11. 13. 11. 3. 3. 3. 0.
      0. 0. 2. 4. 7. 7. 7. 7. 7. 8. 20. 20. 20. 3. 1. 0. 0. 0. 0.</_>
    <_>
      3. 3. 4. 5. 5. 6. 7. 7. 6. 7. 6. 7. 6. 7. 11. 12. 10. 3. 3. 3. 0.
      0. 0. 0. 4. 6. 8. 9. 9. 6. 7. 9. 20. 20. 20. 3. 0. 0. 0. 0.</_>
    <_>
      2. 3. 3. 4. 4. 5. 6. 6. 7. 6. 6. 5. 5. 8. 10. 9. 4. 5. 2. 2. 0. 0.
      0. 0. 0. 3. 8. 9. 10. 8. 8. 14. 20. 20. 2. 0. 0. 0. 0. 0.</_>
    <_>
      2. 3. 3. 4. 5. 5. 6. 6. 7. 6. 6. 6. 7. 9. 10. 9. 9. 3. 2. 1. 0. 0.
      0. 0. 0. 2. 7. 9. 11. 12. 9. 14. 19. 20. 6. 0. 0. 0. 0. 0.</_>
    <_>
      3. 4. 5. 5. 5. 5. 6. 6. 5. 6. 5. 6. 6. 6. 5. 6. 9. 10. 10. 4. 0.
      0. 0. 0. 0. 4. 8. 10. 11. 11. 12. 19. 20. 20. 2. 0. 0. 0. 0. 0.</_>
    <_>
      2. 3. 3. 4. 5. 4. 5. 5. 4. 4. 5. 5. 4. 5. 6. 11. 11. 3. 3. 3. 0.
      0. 0. 0. 0. 4. 6. 7. 6. 7. 6. 6. 20. 20. 11. 2. 0. 0. 0. 0.</_>
    <_>
      2. 2. 3. 3. 3. 4. 4. 5. 5. 5. 4. 4. 5. 4. 5. 8. 9. 9. 4. 2. 0. 0.
      0. 0. 0. 0. 4. 7. 9. 9. 8. 11. 20. 20. 2. 0. 0. 0. 0. 0.</_>
    <_>
      2. 3. 4. 5. 5. 6. 7. 7. 7. 7. 7. 7. 8. 10. 10. 10. 10. 5. 3. 3. 0.
      0. 0. 0. 0. 5. 6. 8. 11. 10. 11. 19. 20. 20. 16. 0. 0. 0. 0. 0.</_>
    <_>
      2. 4. 4. 5. 5. 6. 6. 7. 7. 7. 6. 7. 7. 11. 12. 11. 11. 5. 3. 2. 0.
      0. 0. 0. 1. 5. 6. 8. 10. 12. 11. 13. 20. 20. 18. 4. 0. 0. 0. 0.</_>
    <_>
      2. 3. 3. 3. 4. 4. 4. 3. 3. 3. 4. 4. 4. 4. 8. 8. 2. 2. 2. 1. 0. 0.
      0. 0. 0. 0. 4. 6. 7. 8. 8. 17. 19. 2. 0. 0. 0. 0. 0. 0.</_>
    <_>
      3. 4. 4. 5. 5. 6. 6. 6. 6. 6. 6. 6. 6. 8. 10. 10. 4. 3. 3. 3. 0.
      0. 0. 0. 0. 3. 5. 7. 9. 8. 8. 10. 20. 20. 20. 0. 0. 0. 0. 0.</_>
    <_>
      2. 4. 4. 4. 5. 5. 6. 7. 8. 6. 6. 7. 7. 10. 11. 11. 6. 4. 4. 2. 0.
      0. 0. 0. 3. 5. 9. 10. 7. 8. 16. 20. 20. 18. 3. 0. 0. 0. 0. 0.</_>
    <_>
      3. 3. 2. 3. 3. 3. 4. 5. 5. 6. 5. 5. 4. 4. 5. 9. 9. 3. 2. 2. 0. 0.
      0. 0. 0. 3. 6. 8. 7. 9. 13. 20. 17. 2. 0. 0. 0. 0. 0. 0.</_>
    <_>
      1. 3. 4. 3. 3. 4. 3. 3. 4. 5. 4. 4. 4. 6. 6. 9. 4. 3. 3. 1. 0. 0.
      0. 0. 0. 3. 5. 7. 5. 6. 6. 11. 20. 13. 1. 0. 0. 0. 0. 0.</_>
    <_>
      1. 2. 3. 3. 3. 4. 5. 4. 4. 4. 4. 5. 4. 5. 8. 8. 5. 2. 2. 1. 0. 0.
      0. 0. 0. 0. 3. 6. 6. 8. 5. 8. 18. 20. 3. 0. 0. 0. 0. 0.</_>
    <_>
      1. 3. 4. 3. 4. 4. 5. 4. 5. 4. 5. 4. 4. 5. 9. 9. 6. 2. 2. 1. 0. 0.
      0. 0. 0. 4. 7. 8. 7. 7. 9. 20. 18. 4. 0. 0. 0. 0. 0. 0.</_>
    <_>
      2. 2. 3. 3. 4. 4. 5. 5. 4. 5. 5. 5. 5. 8. 8. 8. 3. 2. 2. 1. 0. 0.
      0. 0. 0. 0. 6. 7. 10. 9. 9. 19. 20. 4. 0. 0. 0. 0. 0. 0.</_>
    <_>
      3. 4. 3. 4. 4. 5. 6. 6. 5. 5. 5. 5. 5. 4. 6. 9. 8. 7. 3. 3. 0. 0.
      0. 0. 0. 0. 5. 8. 11. 10. 10. 20. 20. 15. 1. 0. 0. 0. 0. 0.</_>
    <_>
      3. 3. 4. 4. 4. 5. 4. 5. 5. 5. 6. 5. 6. 5. 6. 11. 9. 3. 3. 2. 0. 0.
      0. 0. 2. 5. 7. 6. 6. 6. 6. 20. 20. 19. 1. 0. 0. 0. 0. 0.</_>
    <_>
      3. 2. 4. 3. 3. 4. 4. 3. 3. 3. 4. 3. 2. 4. 8. 10. 7. 2. 2. 2. 0. 0.
      0. 0. 0. 2. 4. 6. 8. 7. 8. 15. 20. 5. 1. 0. 0. 0. 0. 0.</_>
    <_>
      3. 3. 4. 4. 5. 5. 5. 5. 6. 5. 5. 5. 6. 7. 9. 9. 7. 3. 3. 2. 0. 0.
      0. 0. 0. 4. 7. 9. 13. 11. 15. 20. 20. 2. 0. 0. 0. 0. 0. 0.</_>
    <_>
      2. 3. 3. 3. 4. 5. 5. 5. 6. 5. 5. 5. 5. 6. 8. 10. 10. 7. 3. 2. 0.
      0. 0. 0. 3. 6. 8. 10. 9. 8. 14. 20. 20. 4. 0. 0. 0. 0. 0. 0.</_>
    <_>
      2. 2. 3. 3. 3. 4. 5. 4. 4. 4. 4. 4. 3. 4. 9. 9. 2. 2. 2. 2. 0. 0.
      0. 0. 0. 2. 3. 7. 8. 6. 7. 20. 20. 2. 0. 0. 0. 0. 0. 0.</_>
    <_>
      3. 3. 4. 4. 5. 5. 6. 6. 6. 6. 5. 5. 6. 6. 8. 10. 6. 3. 4. 4. 0. 0.
      0. 0. 0. 1. 5. 6. 8. 7. 7. 11. 20. 20. 20. 0. 0. 0. 0. 0.</_>
    <_>
      0. 3. 3. 2. 3. 4. 4. 3. 5. 4. 4. 4. 5. 7. 7. 10. 3. 3. 2. 1. 0. 0.
      0. 0. 0. 3. 4. 7. 8. 6. 6. 12. 19. 11. 1. 0. 0. 0. 0. 0.</_>
    <_>
      4. 4. 4. 4. 5. 5. 5. 6. 5. 4. 4. 4. 5. 5. 5. 8. 10. 10. 8. 3. 0.
      0. 0. 0. 0. 4. 7. 9. 12. 8. 11. 13. 20. 20. 4. 0. 0. 0. 0. 0.</_>
    <_>
      2. 2. 3. 3. 3. 3. 4. 3. 3. 3. 3. 4. 4. 4. 6. 6. 4. 2. 2. 2. 0. 0.
      0. 0. 0. 0. 0. 6. 8. 7. 9. 16. 20. 0. 0. 0. 0. 0. 0. 0.</_>
    <_>
      2. 3. 3. 2. 3. 4. 4. 4. 4. 4. 4. 4. 4. 4. 7. 8. 4. 2. 2. 2. 0. 0.
      0. 0. 0. 0. 2. 5. 7. 8. 8. 20. 20. 4. 0. 0. 0. 0. 0. 0.</_>
    <_>
      2. 4. 4. 4. 5. 5. 7. 7. 7. 6. 7. 7. 7. 7. 11. 10. 9. 4. 4. 2. 0.
      0. 0. 0. 4. 6. 9. 10. 7. 8. 16. 20. 20. 18. 1. 0. 0. 0. 0. 0.</_>
    <_>
      3. 3. 3. 4. 5. 5. 5. 5. 5. 6. 5. 5. 6. 6. 9. 9. 3. 3. 3. 3. 0. 0.
      0. 0. 0. 0. 4. 7. 8. 8. 7. 20. 20. 20. 2. 0. 0. 0. 0. 0.</_>
    <_>
      3. 3. 3. 4. 4. 5. 5. 6. 6. 5. 4. 6. 4. 5. 8. 10. 10. 3. 3. 2. 0.
      0. 0. 0. 4. 6. 8. 8. 7. 8. 15. 20. 20. 3. 0. 0. 0. 0. 0. 0.</_>
    <_>
      1. 3. 4. 4. 4. 5. 6. 6. 4. 5. 5. 4. 5. 9. 10. 8. 4. 3. 3. 2. 0. 0.
      0. 0. 0. 2. 4. 7. 9. 7. 6. 9. 17. 20. 14. 0. 0. 0. 0. 0.</_>
    <_>
      6. 10. 8. 3. 3. 3. 3. 8. 8. 9. 4. 4. 4. 4. 7. 8. 7. 10. 8. 3. 0.
      0. 0. 0. 1. 14. 15. 15. 7. 4. 8. 8. 16. 14. 12. 6. 0. 0. 0. 0.</_>
    <_>
      12. 12. 10. 3. 3. 3. 3. 4. 9. 10. 3. 4. 3. 3. 4. 7. 6. 10. 8. 4.
      0. 0. 0. 1. 14. 14. 13. 8. 7. 9. 8. 7. 11. 12. 10. 7. 0. 0. 0. 0.</_>
    <_>
      12. 11. 5. 5. 5. 5. 11. 12. 12. 8. 6. 5. 5. 8. 9. 9. 11. 10. 8. 1.
      0. 0. 0. 8. 13. 16. 17. 15. 9. 8. 7. 9. 15. 15. 12. 9. 5. 0. 0. 0.</_>
    <_>
      2. 10. 7. 2. 2. 2. 2. 8. 9. 9. 3. 3. 2. 2. 4. 5. 4. 5. 4. 0. 0. 0.
      0. 0. 0. 13. 12. 4. 4. 6. 7. 8. 11. 12. 8. 0. 0. 0. 0. 0.</_>
    <_>
      9. 4. 3. 3. 3. 2. 5. 7. 8. 5. 2. 2. 2. 2. 4. 5. 6. 7. 6. 1. 0. 0.
      0. 0. 0. 5. 12. 15. 10. 5. 7. 6. 7. 11. 8. 0. 0. 0. 0. 0.</_>
    <_>
      10. 10. 7. 3. 3. 3. 3. 8. 9. 9. 6. 3. 3. 3. 6. 7. 7. 8. 8. 5. 0.
      0. 0. 0. 0. 1. 14. 16. 17. 8. 7. 9. 11. 15. 14. 9. 0. 0. 0. 0.</_>
    <_>
      8. 4. 3. 3. 3. 3. 5. 6. 8. 6. 2. 3. 3. 3. 5. 4. 5. 6. 7. 6. 0. 0.
      0. 0. 0. 0. 12. 16. 14. 8. 6. 6. 14. 12. 5. 0. 0. 0. 0. 0.</_>
    <_>
      6. 10. 7. 2. 2. 2. 3. 7. 8. 9. 3. 3. 3. 3. 4. 5. 7. 9. 8. 4. 0. 0.
      0. 0. 0. 12. 14. 9. 9. 8. 8. 10. 14. 13. 8. 0. 0. 0. 0. 0.</_>
    <_>
      9. 13. 12. 4. 3. 3. 4. 9. 11. 12. 9. 4. 5. 4. 6. 7. 7. 13. 12. 6.
      0. 0. 0. 2. 15. 16. 13. 11. 9. 9. 9. 8. 10. 11. 14. 13. 9. 4. 0.
      0.</_>
    <_>
      14. 13. 4. 3. 3. 3. 6. 11. 12. 12. 4. 4. 3. 3. 6. 8. 8. 13. 11. 6.
      0. 0. 0. 14. 15. 15. 12. 8. 8. 9. 8. 8. 7. 11. 13. 11. 8. 0. 0. 0.</_>
    <_>
      8. 7. 2. 2. 2. 2. 2. 6. 8. 6. 5. 4. 3. 2. 2. 2. 5. 5. 5. 6. 0. 0.
      0. 0. 0. 0. 14. 16. 8. 5. 4. 5. 11. 14. 7. 0. 0. 0. 0. 0.</_>
    <_>
      8. 8. 9. 5. 3. 3. 3. 7. 8. 6. 5. 3. 3. 3. 5. 5. 7. 8. 7. 4. 0. 0.
      0. 0. 0. 7. 16. 16. 10. 8. 9. 12. 15. 12. 5. 0. 0. 0. 0. 0.</_>
    <_>
      3. 11. 11. 4. 3. 3. 3. 9. 10. 11. 8. 5. 5. 5. 8. 9. 9. 10. 8. 6.
      0. 0. 0. 0. 3. 14. 15. 15. 11. 8. 8. 8. 16. 15. 13. 10. 5. 0. 0.
      0.</_>
    <_>
      2. 9. 10. 8. 3. 3. 9. 10. 10. 11. 7. 3. 3. 3. 6. 7. 9. 9. 6. 1. 0.
      0. 0. 0. 10. 14. 16. 12. 10. 10. 9. 11. 15. 14. 8. 0. 0. 0. 0. 0.</_>
    <_>
      7. 9. 8. 5. 3. 3. 6. 7. 8. 9. 6. 2. 2. 2. 4. 6. 8. 5. 5. 1. 0. 0.
      0. 0. 0. 0. 11. 14. 13. 11. 12. 11. 11. 14. 9. 0. 0. 0. 0. 0.</_>
    <_>
      9. 9. 3. 3. 3. 3. 3. 7. 8. 8. 5. 3. 2. 2. 2. 2. 3. 3. 4. 6. 0. 0.
      0. 0. 0. 0. 10. 15. 13. 6. 6. 6. 9. 13. 10. 0. 0. 0. 0. 0.</_>
    <_>
      8. 7. 2. 2. 2. 3. 4. 7. 8. 8. 7. 2. 3. 3. 2. 4. 4. 4. 6. 5. 0. 0.
      0. 0. 0. 4. 16. 15. 8. 4. 7. 8. 14. 12. 3. 0. 0. 0. 0. 0.</_>
    <_>
      9. 3. 3. 3. 3. 3. 6. 8. 8. 7. 2. 3. 3. 3. 4. 4. 4. 6. 5. 3. 0. 0.
      0. 0. 0. 11. 13. 11. 7. 6. 7. 8. 13. 10. 4. 0. 0. 0. 0. 0.</_>
    <_>
      3. 9. 9. 7. 3. 3. 4. 7. 9. 9. 5. 2. 3. 4. 4. 4. 7. 8. 8. 3. 0. 0.
      0. 0. 7. 15. 17. 12. 6. 8. 9. 11. 15. 10. 1. 0. 0. 0. 0. 0.</_>
    <_>
      7. 8. 7. 3. 3. 3. 6. 7. 8. 8. 7. 4. 3. 3. 5. 6. 8. 8. 7. 6. 0. 0.
      0. 0. 0. 0. 13. 17. 17. 11. 11. 12. 16. 14. 6. 0. 0. 0. 0. 0.</_>
    <_>
      8. 8. 6. 3. 2. 2. 6. 6. 7. 8. 6. 3. 2. 2. 4. 5. 6. 8. 7. 5. 0. 0.
      0. 0. 0. 0. 16. 17. 13. 10. 9. 14. 14. 11. 0. 0. 0. 0. 0. 0.</_>
    <_>
      8. 9. 3. 3. 3. 3. 3. 4. 8. 9. 7. 6. 3. 3. 3. 5. 5. 6. 8. 6. 0. 0.
      0. 0. 0. 12. 17. 15. 6. 6. 8. 8. 14. 12. 7. 0. 0. 0. 0. 0.</_>
    <_>
      9. 9. 4. 3. 3. 2. 2. 7. 9. 7. 3. 3. 3. 5. 6. 6. 7. 8. 7. 1. 0. 0.
      0. 0. 6. 15. 16. 9. 7. 7. 7. 9. 13. 10. 5. 0. 0. 0. 0. 0.</_>
    <_>
      8. 8. 2. 2. 2. 2. 2. 3. 6. 7. 4. 3. 2. 2. 2. 4. 4. 5. 7. 6. 0. 0.
      0. 0. 0. 0. 14. 16. 6. 6. 7. 9. 13. 10. 0. 0. 0. 0. 0. 0.</_>
    <_>
      8. 8. 2. 2. 2. 2. 2. 5. 7. 7. 5. 2. 2. 2. 3. 4. 4. 7. 7. 5. 0. 0.
      0. 0. 0. 0. 15. 16. 9. 7. 8. 8. 13. 10. 0. 0. 0. 0. 0. 0.</_>
    <_>
      4. 8. 3. 3. 2. 2. 3. 6. 8. 8. 4. 3. 3. 3. 3. 5. 5. 6. 7. 4. 0. 0.
      0. 0. 0. 12. 14. 12. 7. 6. 8. 13. 13. 5. 0. 0. 0. 0. 0. 0.</_>
    <_>
      8. 5. 3. 2. 2. 2. 3. 6. 8. 7. 3. 2. 2. 2. 4. 4. 4. 8. 7. 3. 0. 0.
      0. 0. 0. 2. 15. 15. 7. 6. 8. 8. 13. 11. 0. 0. 0. 0. 0. 0.</_>
    <_>
      8. 8. 6. 2. 3. 4. 7. 8. 9. 8. 4. 3. 3. 3. 6. 6. 6. 8. 6. 2. 0. 0.
      0. 0. 0. 7. 15. 16. 10. 9. 11. 10. 15. 12. 5. 0. 0. 0. 0. 0.</_>
    <_>
      8. 4. 2. 2. 2. 2. 5. 6. 7. 8. 5. 2. 3. 3. 3. 4. 4. 4. 6. 8. 0. 0.
      0. 0. 0. 0. 14. 16. 9. 5. 6. 9. 13. 12. 4. 0. 0. 0. 0. 0.</_>
    <_>
      4. 10. 11. 8. 3. 3. 3. 8. 9. 10. 9. 6. 3. 4. 6. 7. 8. 9. 9. 5. 0.
      0. 0. 0. 0. 12. 17. 17. 11. 9. 8. 9. 14. 15. 14. 9. 0. 0. 0. 0.</_>
    <_>
      8. 9. 9. 6. 4. 4. 5. 8. 9. 9. 7. 4. 3. 3. 5. 7. 9. 8. 7. 4. 0. 0.
      0. 0. 0. 9. 16. 16. 16. 10. 10. 15. 16. 13. 7. 0. 0. 0. 0. 0.</_>
    <_>
      9. 11. 11. 5. 4. 4. 4. 10. 10. 10. 7. 3. 3. 6. 6. 7. 8. 10. 8. 6.
      0. 0. 0. 0. 12. 16. 17. 16. 10. 9. 9. 11. 16. 15. 10. 1. 0. 0. 0.
      0.</_>
    <_>
      7. 9. 9. 8. 3. 3. 3. 7. 7. 8. 8. 3. 3. 2. 4. 6. 7. 8. 7. 4. 0. 0.
      0. 0. 0. 0. 12. 16. 15. 11. 11. 12. 16. 14. 9. 0. 0. 0. 0. 0.</_>
    <_>
      2. 8. 8. 8. 7. 2. 3. 5. 7. 8. 8. 4. 2. 2. 4. 4. 6. 8. 8. 3. 0. 0.
      0. 0. 0. 0. 15. 16. 12. 10. 12. 14. 15. 13. 0. 0. 0. 0. 0. 0.</_>
    <_>
      2. 10. 10. 10. 4. 3. 3. 4. 9. 10. 10. 10. 3. 3. 3. 6. 6. 7. 7. 5.
      0. 0. 0. 0. 0. 15. 16. 16. 10. 9. 7. 8. 17. 15. 12. 0. 0. 0. 0. 0.</_>
    <_>
      10. 10. 9. 3. 3. 3. 7. 8. 9. 10. 10. 3. 2. 2. 3. 5. 6. 9. 7. 3. 0.
      0. 0. 0. 0. 13. 15. 15. 10. 11. 11. 11. 11. 14. 11. 0. 0. 0. 0. 0.</_>
    <_>
      1. 8. 9. 8. 4. 2. 3. 7. 8. 7. 6. 3. 3. 4. 5. 4. 5. 8. 7. 3. 0. 0.
      0. 0. 0. 7. 16. 14. 11. 9. 10. 15. 14. 8. 1. 0. 0. 0. 0. 0.</_>
    <_>
      1. 9. 10. 9. 3. 3. 3. 4. 9. 10. 10. 4. 3. 3. 5. 6. 8. 9. 7. 3. 0.
      0. 0. 0. 0. 11. 15. 15. 10. 8. 9. 10. 14. 15. 12. 0. 0. 0. 0. 0.</_>
    <_>
      11. 13. 12. 4. 3. 3. 3. 6. 11. 12. 10. 4. 5. 4. 4. 6. 7. 8. 11. 9.
      0. 0. 0. 3. 13. 15. 15. 9. 7. 7. 8. 9. 9. 12. 15. 13. 7. 4. 0. 0.</_>
    <_>
      13. 7. 4. 4. 4. 4. 10. 11. 12. 7. 4. 3. 3. 3. 6. 8. 9. 11. 9. 1.
      0. 0. 0. 8. 12. 14. 15. 10. 8. 7. 7. 6. 7. 9. 12. 11. 7. 0. 0. 0.</_>
    <_>
      9. 9. 2. 2. 2. 2. 2. 3. 7. 8. 5. 2. 2. 3. 3. 2. 3. 4. 4. 7. 0. 0.
      0. 0. 0. 0. 14. 15. 6. 4. 6. 6. 12. 13. 5. 0. 0. 0. 0. 0.</_>
    <_>
      8. 4. 2. 2. 2. 2. 5. 6. 8. 6. 3. 2. 3. 3. 3. 5. 5. 7. 8. 6. 0. 0.
      0. 0. 0. 2. 14. 15. 7. 5. 8. 9. 14. 12. 4. 0. 0. 0. 0. 0.</_>
    <_>
      8. 10. 9. 3. 3. 3. 4. 8. 9. 9. 7. 3. 3. 2. 4. 6. 8. 10. 8. 6. 0.
      0. 0. 0. 11. 16. 16. 12. 9. 9. 11. 14. 15. 10. 0. 0. 0. 0. 0. 0.</_>
    <_>
      5. 10. 5. 4. 3. 3. 4. 6. 9. 8. 4. 3. 2. 2. 4. 6. 8. 8. 7. 4. 0. 0.
      0. 0. 0. 5. 12. 15. 15. 10. 7. 6. 8. 9. 11. 7. 0. 0. 0. 0.</_>
    <_>
      1. 6. 3. 3. 3. 3. 5. 9. 10. 9. 3. 3. 3. 3. 4. 6. 6. 9. 7. 3. 0. 0.
      0. 0. 9. 14. 13. 8. 6. 8. 6. 7. 12. 11. 5. 0. 0. 0. 0. 0.</_>
    <_>
      10. 11. 11. 4. 4. 4. 4. 7. 10. 10. 5. 4. 4. 3. 4. 8. 8. 11. 8. 6.
      0. 0. 0. 0. 8. 13. 16. 16. 9. 9. 9. 9. 13. 14. 12. 8. 0. 0. 0. 0.</_>
    <_>
      10. 11. 11. 11. 4. 3. 7. 9. 10. 10. 8. 3. 3. 3. 6. 7. 11. 11. 9.
      5. 0. 0. 0. 0. 3. 15. 16. 16. 14. 12. 12. 12. 12. 17. 15. 8. 0. 0.
      0. 0.</_>
    <_>
      5. 10. 7. 3. 3. 3. 3. 4. 9. 10. 3. 2. 3. 3. 5. 4. 6. 8. 8. 6. 0.
      0. 0. 0. 12. 15. 14. 6. 5. 6. 7. 10. 14. 12. 4. 0. 0. 0. 0. 0.</_>
    <_>
      10. 11. 3. 3. 3. 3. 3. 7. 10. 9. 3. 3. 3. 2. 2. 5. 7. 7. 9. 3. 0.
      0. 0. 0. 11. 14. 14. 8. 6. 5. 6. 6. 7. 10. 11. 8. 0. 0. 0. 0.</_>
    <_>
      10. 11. 8. 3. 6. 4. 3. 8. 9. 10. 6. 3. 2. 3. 5. 6. 6. 9. 7. 1. 0.
      0. 0. 0. 12. 15. 15. 9. 7. 7. 9. 10. 14. 14. 8. 0. 0. 0. 0. 0.</_>
    <_>
      8. 9. 8. 8. 3. 3. 5. 8. 8. 8. 9. 3. 3. 3. 5. 5. 9. 8. 8. 6. 0. 0.
      0. 0. 0. 0. 16. 17. 15. 13. 13. 12. 17. 16. 8. 0. 0. 0. 0. 0.</_>
    <_>
      8. 10. 9. 3. 3. 3. 3. 5. 8. 10. 5. 2. 2. 2. 5. 6. 8. 9. 8. 4. 0.
      0. 0. 0. 1. 14. 17. 17. 10. 8. 7. 7. 9. 13. 10. 0. 0. 0. 0. 0.</_>
    <_>
      3. 8. 6. 3. 2. 2. 3. 4. 8. 6. 4. 2. 2. 2. 3. 4. 5. 8. 7. 5. 0. 0.
      0. 0. 0. 8. 12. 12. 8. 6. 6. 7. 9. 11. 7. 1. 0. 0. 0. 0.</_>
    <_>
      8. 9. 4. 3. 3. 3. 3. 4. 9. 6. 6. 3. 3. 3. 3. 5. 6. 9. 7. 5. 0. 0.
      0. 0. 0. 8. 14. 15. 9. 7. 7. 7. 9. 13. 8. 5. 0. 0. 0. 0.</_>
    <_>
      10. 9. 4. 3. 3. 3. 8. 9. 10. 10. 3. 4. 4. 4. 6. 7. 8. 10. 9. 7. 0.
      0. 0. 1. 13. 15. 15. 11. 7. 8. 9. 10. 15. 13. 10. 4. 0. 0. 0. 0.</_>
    <_>
      3. 9. 10. 4. 4. 3. 4. 8. 10. 9. 5. 3. 3. 3. 5. 4. 6. 9. 9. 7. 0.
      0. 0. 0. 7. 15. 16. 13. 8. 8. 9. 10. 15. 13. 4. 0. 0. 0. 0. 0.</_>
    <_>
      9. 4. 2. 2. 2. 2. 2. 4. 8. 6. 3. 3. 2. 2. 2. 4. 5. 6. 8. 4. 0. 0.
      0. 0. 0. 0. 14. 14. 9. 4. 3. 6. 8. 13. 9. 0. 0. 0. 0. 0.</_>
    <_>
      8. 9. 2. 2. 2. 2. 2. 5. 8. 9. 2. 2. 2. 2. 3. 4. 5. 6. 7. 3. 0. 0.
      0. 0. 0. 13. 14. 7. 6. 7. 7. 7. 13. 11. 0. 0. 0. 0. 0. 0.</_>
    <_>
      4. 2. 2. 2. 2. 2. 2. 5. 5. 4. 2. 2. 1. 1. 2. 2. 3. 4. 6. 3. 0. 0.
      0. 0. 0. 0. 14. 13. 4. 3. 3. 8. 11. 0. 0. 0. 0. 0. 0. 0.</_>
    <_>
      2. 9. 9. 3. 2. 2. 2. 6. 7. 5. 2. 2. 2. 3. 4. 4. 6. 7. 5. 0. 0. 0.
      0. 0. 0. 1. 11. 14. 8. 6. 6. 8. 14. 11. 3. 0. 0. 0. 0. 0.</_>
    <_>
      11. 11. 10. 3. 3. 3. 3. 8. 9. 9. 5. 4. 2. 2. 4. 5. 6. 8. 10. 8. 0.
      0. 0. 0. 0. 16. 18. 14. 8. 8. 9. 8. 9. 12. 13. 9. 0. 0. 0. 0.</_>
    <_>
      9. 9. 9. 3. 3. 3. 3. 7. 9. 9. 6. 3. 2. 2. 4. 5. 6. 9. 8. 5. 0. 0.
      0. 0. 0. 15. 16. 16. 9. 9. 9. 12. 14. 14. 0. 0. 0. 0. 0. 0.</_>
    <_>
      1. 8. 9. 5. 2. 2. 2. 7. 8. 9. 3. 2. 2. 2. 4. 5. 6. 8. 8. 2. 0. 0.
      0. 0. 0. 11. 14. 10. 5. 8. 8. 7. 10. 15. 7. 0. 0. 0. 0. 0.</_>
    <_>
      10. 11. 11. 6. 3. 2. 3. 8. 9. 10. 8. 4. 2. 2. 4. 5. 9. 11. 9. 5.
      0. 0. 0. 0. 0. 15. 17. 14. 11. 9. 10. 11. 10. 11. 14. 10. 0. 0. 0.
      0.</_>
    <_>
      9. 11. 8. 3. 3. 3. 4. 4. 9. 9. 3. 4. 4. 3. 3. 6. 7. 8. 8. 6. 0. 0.
      0. 0. 11. 14. 13. 10. 7. 5. 5. 7. 13. 13. 11. 6. 0. 0. 0. 0.</_>
    <_>
      5. 9. 9. 3. 2. 2. 2. 2. 8. 8. 7. 5. 3. 3. 3. 4. 6. 6. 8. 10. 0. 0.
      0. 0. 1. 1. 16. 17. 12. 8. 7. 6. 10. 14. 10. 3. 0. 0. 0. 0.</_>
    <_>
      5. 10. 11. 10. 4. 3. 4. 6. 9. 10. 8. 6. 4. 6. 7. 8. 11. 11. 9. 5.
      0. 0. 0. 0. 12. 16. 17. 15. 11. 11. 10. 16. 15. 14. 10. 0. 0. 0.
      0. 0.</_>
    <_>
      6. 9. 9. 3. 2. 2. 2. 5. 8. 8. 4. 2. 3. 3. 3. 5. 4. 6. 8. 6. 0. 0.
      0. 0. 0. 8. 14. 12. 8. 8. 8. 8. 15. 13. 4. 0. 0. 0. 0. 0.</_>
    <_>
      1. 8. 9. 3. 2. 2. 2. 3. 7. 8. 6. 3. 3. 3. 4. 6. 6. 6. 8. 6. 0. 0.
      0. 0. 0. 2. 15. 16. 10. 6. 6. 8. 14. 12. 7. 0. 0. 0. 0. 0.</_>
    <_>
      9. 9. 6. 3. 3. 3. 3. 8. 9. 7. 4. 2. 2. 3. 6. 6. 7. 8. 7. 2. 0. 0.
      0. 0. 10. 14. 16. 10. 8. 7. 6. 8. 14. 11. 3. 0. 0. 0. 0. 0.</_>
    <_>
      6. 10. 10. 3. 3. 3. 3. 7. 8. 8. 3. 2. 3. 3. 4. 6. 10. 8. 7. 6. 0.
      0. 0. 0. 2. 14. 16. 15. 10. 10. 7. 8. 8. 11. 9. 3. 0. 0. 0. 0.</_>
    <_>
      9. 4. 2. 2. 2. 2. 2. 6. 8. 7. 4. 3. 3. 3. 3. 5. 5. 6. 8. 7. 0. 0.
      0. 0. 0. 0. 14. 16. 9. 6. 5. 6. 13. 14. 8. 0. 0. 0. 0. 0.</_>
    <_>
      4. 4. 8. 8. 8. 2. 2. 2. 7. 8. 5. 3. 3. 4. 5. 6. 7. 5. 3. 4. 0. 0.
      0. 0. 0. 3. 13. 14. 13. 12. 8. 7. 13. 11. 4. 0. 0. 0. 0. 0.</_>
    <_>
      9. 9. 7. 2. 2. 2. 4. 9. 9. 9. 7. 2. 2. 4. 6. 8. 9. 9. 9. 5. 0. 0.
      0. 0. 4. 17. 16. 13. 9. 8. 11. 12. 15. 14. 4. 0. 0. 0. 0. 0.</_>
    <_>
      8. 9. 9. 4. 3. 3. 3. 6. 8. 9. 8. 5. 2. 2. 3. 5. 7. 9. 8. 5. 0. 0.
      0. 0. 0. 13. 17. 17. 11. 9. 10. 12. 14. 13. 0. 0. 0. 0. 0. 0.</_>
    <_>
      5. 11. 10. 4. 3. 4. 4. 10. 10. 11. 8. 5. 5. 6. 8. 8. 11. 10. 8. 1.
      0. 0. 0. 0. 4. 15. 16. 15. 12. 7. 9. 9. 15. 15. 14. 9. 2. 0. 0. 0.</_>
    <_>
      10. 11. 3. 3. 3. 3. 3. 8. 10. 10. 3. 3. 2. 2. 5. 6. 6. 7. 9. 6. 0.
      0. 0. 0. 13. 15. 15. 8. 7. 7. 7. 8. 11. 13. 9. 0. 0. 0. 0. 0.</_>
    <_>
      1. 9. 2. 1. 1. 1. 2. 3. 7. 9. 2. 2. 1. 2. 3. 4. 5. 5. 8. 4. 0. 0.
      0. 0. 2. 14. 9. 5. 5. 6. 5. 6. 8. 10. 2. 0. 0. 0. 0. 0.</_>
    <_>
      1. 3. 8. 8. 2. 2. 2. 2. 4. 7. 6. 2. 2. 2. 3. 4. 4. 6. 7. 3. 0. 0.
      0. 0. 0. 0. 14. 13. 7. 7. 8. 7. 12. 10. 0. 0. 0. 0. 0. 0.</_>
    <_>
      6. 8. 8. 7. 3. 3. 3. 3. 7. 7. 4. 3. 2. 2. 4. 6. 5. 7. 6. 5. 0. 0.
      0. 0. 0. 1. 11. 17. 16. 9. 9. 7. 11. 12. 6. 0. 0. 0. 0. 0.</_>
    <_>
      10. 3. 3. 3. 3. 3. 3. 6. 9. 9. 7. 3. 3. 3. 3. 3. 5. 6. 7. 9. 0. 0.
      0. 0. 0. 15. 15. 14. 6. 5. 5. 6. 13. 13. 9. 0. 0. 0. 0. 0.</_>
    <_>
      8. 9. 2. 2. 2. 2. 2. 6. 9. 7. 3. 2. 2. 2. 4. 4. 5. 5. 6. 2. 0. 0.
      0. 0. 0. 12. 14. 8. 5. 6. 6. 7. 8. 12. 6. 0. 0. 0. 0. 0.</_>
    <_>
      9. 11. 3. 3. 3. 3. 3. 8. 10. 10. 3. 3. 3. 2. 4. 6. 5. 10. 8. 4. 0.
      0. 0. 0. 13. 15. 14. 8. 8. 8. 8. 7. 11. 12. 7. 0. 0. 0. 0. 0.</_>
    <_>
      11. 12. 3. 3. 3. 2. 4. 10. 10. 11. 2. 4. 3. 4. 7. 8. 8. 9. 9. 4.
      0. 0. 0. 6. 14. 15. 9. 8. 8. 8. 9. 9. 13. 10. 6. 12. 0. 0. 0. 0.</_>
    <_>
      2. 10. 10. 3. 3. 2. 2. 6. 8. 9. 6. 3. 3. 3. 3. 5. 7. 10. 7. 3. 0.
      0. 0. 0. 0. 1. 12. 14. 10. 7. 8. 8. 9. 14. 12. 10. 0. 0. 0. 0.</_>
    <_>
      9. 11. 12. 7. 3. 3. 3. 5. 9. 10. 4. 3. 4. 3. 4. 4. 8. 10. 8. 2. 0.
      0. 0. 6. 10. 13. 10. 8. 9. 8. 8. 12. 14. 13. 10. 1. 0. 0. 0. 0.</_>
    <_>
      11. 13. 13. 12. 4. 4. 4. 10. 11. 12. 9. 5. 5. 6. 8. 8. 12. 11. 8.
      4. 0. 0. 0. 1. 13. 16. 16. 15. 11. 11. 11. 12. 14. 16. 14. 13. 7.
      0. 0. 0.</_>
    <_>
      6. 11. 13. 12. 4. 4. 4. 10. 12. 12. 9. 4. 4. 6. 7. 9. 12. 11. 9.
      4. 0. 0. 0. 12. 15. 15. 14. 11. 10. 11. 11. 12. 16. 15. 14. 7. 0.
      0. 0. 0.</_>
    <_>
      4. 8. 8. 7. 2. 2. 2. 2. 7. 7. 8. 6. 2. 2. 2. 4. 4. 4. 6. 5. 0. 0.
      0. 0. 0. 0. 16. 17. 10. 7. 6. 9. 16. 11. 0. 0. 0. 0. 0. 0.</_>
    <_>
      13. 6. 2. 2. 2. 2. 8. 11. 11. 7. 3. 2. 2. 3. 6. 8. 9. 11. 9. 2. 0.
      0. 0. 1. 12. 14. 11. 8. 7. 8. 8. 6. 8. 10. 13. 10. 3. 0. 0. 0.</_>
    <_>
      1. 8. 9. 7. 4. 4. 4. 4. 7. 8. 9. 5. 4. 3. 2. 3. 5. 7. 8. 8. 0. 0.
      0. 0. 0. 10. 14. 16. 14. 6. 7. 10. 13. 12. 8. 0. 0. 0. 0. 0.</_>
    <_>
      8. 9. 10. 4. 3. 4. 4. 9. 9. 8. 3. 3. 4. 6. 7. 8. 8. 6. 4. 0. 0. 0.
      0. 0. 6. 12. 14. 13. 9. 8. 9. 10. 14. 12. 7. 3. 0. 0. 0. 0.</_>
    <_>
      4. 9. 6. 3. 3. 3. 3. 6. 7. 8. 3. 3. 3. 3. 6. 6. 8. 9. 8. 1. 0. 0.
      0. 0. 0. 9. 14. 15. 8. 6. 8. 7. 13. 12. 10. 0. 0. 0. 0. 0.</_>
    <_>
      11. 11. 11. 5. 4. 4. 8. 10. 11. 10. 6. 4. 5. 7. 8. 8. 10. 9. 5. 3.
      0. 0. 0. 0. 10. 15. 17. 16. 12. 10. 10. 11. 15. 14. 13. 7. 0. 0.
      0. 0.</_>
    <_>
      8. 2. 2. 2. 2. 2. 6. 7. 8. 6. 2. 2. 2. 3. 3. 4. 4. 4. 8. 6. 0. 0.
      0. 0. 0. 0. 14. 15. 7. 6. 6. 7. 14. 12. 2. 0. 0. 0. 0. 0.</_>
    <_>
      7. 9. 8. 2. 2. 2. 2. 2. 7. 8. 3. 2. 3. 3. 4. 6. 4. 6. 8. 4. 0. 0.
      0. 0. 0. 1. 15. 15. 8. 6. 7. 8. 14. 13. 5. 0. 0. 0. 0. 0.</_>
    <_>
      7. 9. 3. 2. 2. 2. 2. 3. 8. 7. 4. 3. 3. 3. 3. 5. 5. 7. 9. 5. 0. 0.
      0. 0. 0. 14. 15. 8. 6. 3. 4. 7. 13. 12. 10. 0. 0. 0. 0. 0.</_>
    <_>
      11. 12. 11. 4. 3. 3. 4. 10. 11. 11. 8. 4. 4. 5. 7. 8. 9. 11. 8. 4.
      0. 0. 0. 0. 1. 15. 17. 16. 12. 9. 9. 9. 10. 15. 14. 13. 8. 0. 0.
      0.</_>
    <_>
      1. 9. 10. 3. 3. 3. 3. 5. 9. 10. 5. 4. 3. 2. 4. 5. 6. 7. 8. 5. 0.
      0. 0. 0. 11. 15. 14. 7. 6. 7. 8. 10. 14. 11. 2. 0. 0. 0. 0. 0.</_>
    <_>
      9. 8. 3. 2. 2. 3. 6. 7. 8. 2. 2. 3. 3. 3. 3. 5. 5. 6. 7. 6. 0. 0.
      0. 0. 0. 0. 12. 14. 11. 8. 7. 7. 15. 13. 6. 0. 0. 0. 0. 0.</_>
    <_>
      9. 5. 2. 2. 2. 3. 7. 8. 8. 2. 2. 3. 3. 3. 3. 4. 6. 8. 6. 5. 0. 0.
      0. 0. 0. 0. 12. 13. 10. 7. 7. 8. 16. 13. 5. 0. 0. 0. 0. 0.</_>
    <_>
      5. 12. 12. 11. 5. 5. 6. 10. 11. 12. 11. 5. 4. 7. 8. 9. 10. 11. 9.
      3. 0. 0. 0. 8. 15. 16. 16. 14. 12. 9. 12. 13. 16. 15. 12. 8. 0. 0.
      0. 0.</_>
    <_>
      10. 11. 11. 10. 4. 3. 7. 9. 10. 11. 11. 8. 4. 4. 7. 8. 11. 11. 10.
      8. 0. 0. 0. 0. 14. 18. 18. 16. 12. 13. 13. 14. 17. 15. 13. 5. 0.
      0. 0. 0.</_>
    <_>
      10. 10. 3. 3. 3. 3. 6. 9. 10. 8. 3. 3. 2. 2. 6. 6. 5. 8. 7. 2. 0.
      0. 0. 0. 12. 14. 15. 7. 8. 7. 7. 9. 12. 12. 6. 0. 0. 0. 0. 0.</_>
    <_>
      7. 10. 7. 3. 2. 2. 4. 8. 8. 9. 3. 3. 3. 3. 5. 7. 10. 10. 8. 4. 0.
      0. 0. 0. 2. 13. 14. 12. 10. 9. 9. 9. 15. 13. 10. 0. 0. 0. 0. 0.</_>
    <_>
      6. 9. 9. 3. 3. 3. 3. 3. 8. 9. 3. 2. 2. 3. 4. 6. 7. 8. 6. 2. 0. 0.
      0. 0. 0. 15. 15. 15. 8. 8. 7. 9. 12. 10. 0. 0. 0. 0. 0. 0.</_>
    <_>
      6. 10. 9. 3. 2. 2. 2. 7. 8. 9. 6. 4. 4. 4. 7. 7. 9. 9. 7. 2. 0. 0.
      0. 0. 0. 2. 14. 15. 10. 10. 10. 10. 15. 14. 11. 6. 0. 0. 0. 0.</_>
    <_>
      1. 8. 9. 3. 3. 3. 3. 3. 6. 8. 7. 3. 2. 2. 2. 3. 5. 7. 8. 7. 0. 0.
      0. 0. 0. 10. 15. 15. 8. 5. 7. 9. 13. 11. 0. 0. 0. 0. 0. 0.</_>
    <_>
      7. 9. 5. 3. 3. 3. 3. 3. 6. 9. 6. 3. 3. 2. 2. 5. 6. 8. 9. 6. 0. 0.
      0. 0. 0. 13. 15. 15. 9. 5. 7. 7. 12. 12. 6. 0. 0. 0. 0. 0.</_>
    <_>
      9. 10. 10. 3. 3. 3. 3. 5. 9. 10. 6. 3. 2. 3. 5. 6. 6. 7. 8. 6. 0.
      0. 0. 0. 13. 16. 16. 9. 7. 8. 8. 11. 14. 12. 3. 0. 0. 0. 0. 0.</_>
    <_>
      9. 9. 5. 3. 3. 3. 6. 9. 10. 6. 5. 2. 2. 2. 4. 5. 7. 11. 9. 6. 0.
      0. 0. 0. 0. 14. 16. 15. 7. 5. 8. 8. 8. 11. 14. 10. 0. 0. 0. 0.</_>
    <_>
      7. 9. 9. 9. 2. 2. 2. 7. 8. 9. 6. 3. 3. 3. 4. 5. 6. 8. 8. 5. 0. 0.
      0. 0. 0. 14. 15. 13. 10. 9. 10. 12. 14. 14. 4. 0. 0. 0. 0. 0.</_>
    <_>
      7. 7. 7. 2. 1. 1. 2. 6. 6. 7. 3. 2. 2. 2. 3. 3. 5. 7. 6. 4. 0. 0.
      0. 0. 0. 0. 0. 16. 12. 9. 9. 10. 15. 12. 0. 0. 0. 0. 0. 0.</_>
    <_>
      7. 9. 9. 9. 3. 3. 3. 3. 7. 8. 9. 8. 4. 4. 3. 3. 7. 7. 9. 8. 0. 0.
      0. 0. 0. 3. 16. 16. 15. 9. 8. 10. 13. 15. 12. 6. 0. 0. 0. 0.</_>
    <_>
      4. 9. 9. 4. 3. 3. 3. 6. 7. 8. 8. 3. 2. 2. 3. 3. 6. 6. 5. 3. 0. 0.
      0. 0. 0. 12. 15. 15. 10. 6. 7. 9. 13. 10. 0. 0. 0. 0. 0. 0.</_>
    <_>
      10. 5. 3. 2. 2. 3. 8. 9. 9. 8. 2. 2. 3. 2. 4. 5. 7. 10. 8. 6. 0.
      0. 0. 0. 2. 13. 15. 14. 10. 7. 7. 8. 9. 13. 9. 1. 0. 0. 0. 0.</_>
    <_>
      3. 11. 11. 4. 3. 3. 3. 6. 9. 10. 4. 4. 4. 4. 6. 7. 6. 10. 8. 5. 0.
      0. 0. 1. 13. 15. 14. 8. 7. 8. 8. 8. 13. 13. 9. 4. 0. 0. 0. 0.</_>
    <_>
      1. 9. 9. 6. 3. 3. 3. 5. 9. 8. 5. 4. 3. 3. 5. 6. 7. 8. 8. 6. 0. 0.
      0. 0. 0. 12. 15. 13. 10. 6. 7. 12. 15. 15. 6. 0. 0. 0. 0. 0.</_>
    <_>
      10. 12. 12. 6. 4. 4. 8. 10. 11. 11. 4. 4. 4. 6. 9. 9. 10. 9. 7. 4.
      0. 0. 0. 9. 14. 15. 15. 12. 12. 11. 12. 12. 16. 13. 9. 4. 0. 0. 0.
      0.</_>
    <_>
      2. 10. 10. 10. 3. 3. 7. 8. 9. 10. 6. 4. 3. 3. 3. 4. 6. 7. 6. 2. 0.
      0. 0. 0. 0. 12. 14. 13. 9. 8. 9. 11. 15. 13. 12. 0. 0. 0. 0. 0.</_>
    <_>
      4. 8. 7. 3. 3. 2. 3. 3. 6. 8. 4. 3. 2. 2. 3. 5. 6. 8. 7. 5. 0. 0.
      0. 0. 0. 7. 16. 16. 7. 8. 7. 11. 12. 8. 0. 0. 0. 0. 0. 0.</_>
    <_>
      10. 9. 3. 3. 2. 2. 6. 8. 9. 8. 4. 3. 3. 5. 5. 6. 7. 9. 7. 4. 0. 0.
      0. 0. 0. 15. 17. 12. 8. 8. 8. 10. 14. 12. 9. 0. 0. 0. 0. 0.</_>
    <_>
      5. 8. 7. 6. 3. 3. 4. 7. 8. 8. 8. 3. 3. 2. 3. 4. 5. 7. 8. 4. 0. 0.
      0. 0. 0. 0. 16. 16. 13. 7. 5. 9. 13. 15. 12. 0. 0. 0. 0. 0.</_>
    <_>
      4. 10. 10. 3. 3. 3. 3. 3. 9. 10. 5. 2. 2. 2. 2. 6. 6. 7. 6. 1. 0.
      0. 0. 0. 0. 12. 14. 15. 7. 6. 5. 6. 9. 12. 11. 0. 0. 0. 0. 0.</_>
    <_>
      1. 8. 8. 2. 3. 2. 2. 2. 7. 8. 5. 2. 2. 2. 2. 5. 5. 8. 7. 4. 0. 0.
      0. 0. 0. 3. 14. 14. 7. 8. 7. 8. 13. 11. 0. 0. 0. 0. 0. 0.</_>
    <_>
      2. 9. 9. 3. 3. 3. 3. 5. 8. 9. 5. 2. 2. 2. 3. 4. 6. 7. 7. 1. 0. 0.
      0. 0. 0. 11. 15. 13. 6. 6. 8. 9. 14. 11. 0. 0. 0. 0. 0. 0.</_>
    <_>
      4. 7. 7. 2. 1. 2. 2. 3. 6. 7. 6. 3. 2. 2. 2. 4. 4. 5. 6. 6. 0. 0.
      0. 0. 0. 0. 9. 15. 10. 7. 7. 9. 14. 10. 0. 0. 0. 0. 0. 0.</_>
    <_>
      8. 10. 10. 6. 3. 3. 6. 8. 9. 10. 10. 6. 3. 3. 6. 8. 11. 10. 9. 5.
      0. 0. 0. 0. 0. 14. 17. 17. 14. 11. 12. 13. 13. 14. 13. 6. 0. 0. 0.
      0.</_>
    <_>
      2. 8. 7. 6. 4. 3. 3. 4. 6. 8. 7. 8. 5. 4. 3. 3. 4. 6. 6. 6. 0. 0.
      0. 0. 0. 7. 13. 17. 12. 8. 7. 11. 14. 9. 5. 0. 0. 0. 0. 0.</_>
    <_>
      8. 5. 3. 3. 3. 2. 3. 6. 8. 5. 2. 2. 3. 3. 4. 5. 5. 7. 7. 6. 0. 0.
      0. 0. 0. 0. 12. 16. 14. 6. 5. 7. 14. 13. 3. 0. 0. 0. 0. 0.</_>
    <_>
      5. 7. 3. 2. 2. 2. 2. 6. 7. 5. 2. 2. 2. 2. 3. 5. 6. 6. 4. 1. 0. 0.
      0. 0. 0. 0. 9. 13. 10. 8. 7. 8. 12. 7. 0. 0. 0. 0. 0. 0.</_>
    <_>
      3. 9. 4. 3. 3. 3. 3. 6. 7. 6. 5. 3. 2. 3. 4. 5. 6. 9. 7. 4. 0. 0.
      0. 0. 0. 12. 15. 13. 8. 6. 6. 10. 12. 10. 3. 0. 0. 0. 0. 0.</_>
    <_>
      7. 12. 4. 3. 3. 2. 3. 3. 9. 10. 6. 3. 2. 2. 2. 5. 6. 7. 8. 4. 0.
      0. 0. 0. 6. 13. 14. 8. 6. 6. 6. 6. 6. 10. 11. 9. 0. 0. 0. 0.</_>
    <_>
      11. 11. 3. 2. 3. 3. 4. 11. 12. 13. 8. 4. 3. 3. 3. 6. 8. 10. 11. 8.
      0. 0. 2. 10. 15. 12. 11. 10. 8. 7. 8. 8. 9. 10. 12. 9. 6. 0. 0. 0.</_>
    <_>
      5. 9. 9. 7. 4. 3. 6. 8. 9. 10. 9. 3. 4. 4. 5. 6. 6. 9. 9. 6. 0. 0.
      0. 0. 0. 13. 15. 15. 11. 11. 11. 12. 17. 14. 10. 2. 0. 0. 0. 0.</_>
    <_>
      10. 11. 11. 10. 7. 4. 5. 9. 10. 10. 10. 8. 5. 4. 6. 7. 8. 10. 9.
      7. 0. 0. 0. 0. 6. 16. 18. 17. 14. 12. 12. 12. 17. 16. 14. 7. 0. 0.
      0. 0.</_>
    <_>
      9. 10. 10. 9. 4. 3. 6. 8. 9. 9. 9. 6. 3. 6. 6. 7. 10. 9. 8. 6. 0.
      0. 0. 0. 0. 15. 18. 19. 14. 11. 13. 15. 17. 15. 10. 0. 0. 0. 0. 0.</_>
    <_>
      8. 9. 3. 3. 3. 3. 3. 5. 7. 8. 2. 2. 3. 3. 3. 6. 6. 6. 6. 1. 0. 0.
      0. 0. 0. 7. 12. 14. 8. 7. 7. 6. 13. 11. 5. 0. 0. 0. 0. 0.</_>
    <_>
      4. 9. 8. 2. 2. 2. 2. 2. 6. 5. 3. 1. 2. 2. 2. 3. 5. 6. 6. 4. 0. 0.
      0. 0. 0. 0. 12. 14. 8. 5. 6. 7. 7. 10. 7. 0. 0. 0. 0. 0.</_>
    <_>
      3. 9. 9. 8. 4. 3. 3. 4. 8. 8. 9. 3. 4. 3. 4. 5. 7. 8. 7. 3. 0. 0.
      0. 0. 0. 13. 15. 13. 11. 10. 11. 12. 14. 11. 2. 0. 0. 0. 0. 0.</_>
    <_>
      10. 10. 9. 5. 4. 4. 6. 10. 10. 10. 7. 4. 4. 4. 4. 6. 6. 9. 8. 6.
      0. 0. 0. 0. 5. 10. 15. 16. 11. 9. 9. 11. 16. 15. 12. 7. 0. 0. 0.
      0.</_>
    <_>
      2. 11. 12. 5. 4. 4. 4. 7. 10. 10. 5. 4. 4. 4. 3. 7. 7. 9. 10. 5.
      0. 0. 0. 0. 10. 13. 13. 12. 7. 7. 8. 8. 12. 15. 12. 9. 1. 0. 0. 0.</_>
    <_>
      12. 9. 5. 5. 5. 8. 10. 11. 12. 11. 7. 4. 4. 4. 4. 8. 8. 8. 10. 6.
      0. 0. 0. 10. 13. 17. 16. 14. 9. 9. 8. 8. 14. 14. 12. 7. 0. 0. 0.
      0.</_>
    <_>
      7. 10. 10. 8. 3. 3. 7. 10. 10. 10. 6. 3. 3. 4. 6. 7. 10. 9. 7. 3.
      0. 0. 0. 0. 12. 16. 15. 11. 11. 11. 12. 12. 16. 15. 5. 0. 0. 0. 0.
      0.</_>
    <_>
      8. 8. 2. 2. 2. 2. 6. 6. 8. 8. 4. 2. 2. 2. 4. 4. 5. 8. 7. 6. 0. 0.
      0. 0. 0. 0. 15. 17. 9. 9. 9. 11. 14. 12. 0. 0. 0. 0. 0. 0.</_>
    <_>
      4. 2. 8. 8. 3. 2. 2. 2. 4. 7. 8. 2. 2. 2. 3. 4. 5. 7. 5. 1. 0. 0.
      0. 0. 0. 1. 13. 14. 9. 8. 7. 6. 12. 10. 1. 0. 0. 0. 0. 0.</_>
    <_>
      8. 3. 2. 2. 2. 2. 6. 6. 7. 8. 4. 3. 3. 3. 3. 5. 4. 5. 8. 8. 0. 0.
      0. 0. 0. 0. 15. 16. 9. 7. 7. 8. 13. 12. 5. 0. 0. 0. 0. 0.</_>
    <_>
      4. 2. 2. 2. 2. 2. 6. 6. 8. 6. 3. 2. 2. 2. 3. 5. 6. 7. 6. 4. 0. 0.
      0. 0. 0. 0. 13. 15. 8. 6. 6. 11. 12. 9. 0. 0. 0. 0. 0. 0.</_>
    <_>
      11. 12. 12. 11. 4. 4. 5. 9. 11. 12. 10. 5. 4. 4. 7. 9. 9. 11. 10.
      7. 0. 0. 0. 13. 16. 17. 16. 13. 10. 10. 11. 14. 15. 15. 12. 5. 0.
      0. 0. 0.</_>
    <_>
      1. 11. 10. 3. 3. 3. 3. 4. 9. 10. 5. 3. 2. 2. 3. 6. 7. 8. 9. 4. 0.
      0. 0. 0. 0. 12. 14. 14. 9. 5. 6. 7. 8. 11. 12. 8. 0. 0. 0. 0.</_>
    <_>
      3. 10. 11. 11. 4. 4. 4. 6. 10. 11. 9. 4. 4. 4. 7. 8. 8. 10. 9. 4.
      0. 0. 0. 0. 10. 14. 15. 14. 9. 8. 9. 10. 15. 15. 13. 9. 0. 0. 0.
      0.</_>
    <_>
      10. 11. 9. 4. 4. 4. 4. 10. 10. 11. 9. 4. 4. 3. 5. 6. 7. 9. 10. 6.
      0. 0. 0. 0. 4. 16. 16. 15. 11. 7. 8. 8. 9. 14. 14. 12. 6. 0. 0. 0.</_>
    <_>
      6. 8. 3. 2. 3. 3. 2. 5. 7. 7. 6. 4. 3. 3. 4. 5. 5. 6. 7. 5. 0. 0.
      0. 0. 0. 3. 15. 18. 10. 7. 6. 7. 12. 9. 7. 0. 0. 0. 0. 0.</_>
    <_>
      9. 9. 9. 2. 2. 2. 2. 6. 7. 4. 3. 3. 2. 2. 5. 6. 6. 8. 8. 2. 0. 0.
      0. 0. 0. 3. 15. 14. 7. 8. 8. 7. 12. 13. 10. 0. 0. 0. 0. 0.</_>
    <_>
      4. 9. 9. 3. 3. 3. 3. 3. 7. 7. 3. 2. 2. 3. 4. 5. 6. 8. 7. 1. 0. 0.
      0. 0. 0. 13. 15. 13. 6. 7. 6. 8. 13. 10. 1. 0. 0. 0. 0. 0.</_>
    <_>
      8. 9. 9. 8. 2. 2. 3. 3. 3. 6. 7. 8. 5. 3. 3. 2. 2. 3. 5. 6. 0. 0.
      0. 0. 0. 6. 16. 14. 7. 7. 8. 12. 14. 11. 2. 0. 0. 0. 0. 0.</_>
    <_>
      4. 8. 3. 3. 3. 3. 3. 3. 7. 7. 2. 2. 2. 3. 3. 6. 5. 8. 6. 1. 0. 0.
      0. 0. 0. 9. 12. 13. 6. 6. 6. 6. 12. 9. 3. 0. 0. 0. 0. 0.</_>
    <_>
      9. 11. 3. 3. 2. 2. 3. 7. 9. 9. 2. 2. 2. 2. 4. 5. 6. 9. 8. 4. 0. 0.
      0. 0. 12. 15. 12. 8. 8. 7. 8. 7. 13. 11. 1. 0. 0. 0. 0. 0.</_>
    <_>
      1. 10. 9. 2. 2. 2. 2. 6. 8. 9. 5. 3. 3. 3. 5. 5. 5. 6. 6. 3. 0. 0.
      0. 0. 0. 13. 15. 7. 3. 7. 8. 10. 14. 11. 7. 0. 0. 0. 0. 0.</_>
    <_>
      7. 4. 3. 2. 2. 2. 7. 7. 7. 5. 2. 2. 3. 2. 2. 3. 4. 5. 5. 4. 0. 0.
      0. 0. 0. 4. 13. 13. 8. 6. 7. 12. 11. 4. 0. 0. 0. 0. 0. 0.</_>
    <_>
      1. 8. 9. 9. 7. 3. 3. 8. 9. 9. 10. 7. 3. 4. 4. 5. 9. 8. 8. 5. 0. 0.
      0. 0. 0. 9. 17. 15. 13. 12. 13. 12. 17. 14. 7. 0. 0. 0. 0. 0.</_>
    <_>
      5. 7. 8. 7. 3. 3. 3. 4. 8. 5. 3. 3. 2. 3. 5. 6. 6. 4. 3. 4. 0. 0.
      0. 0. 0. 1. 9. 14. 16. 12. 8. 6. 10. 11. 5. 0. 0. 0. 0. 0.</_>
    <_>
      7. 8. 3. 2. 1. 2. 6. 8. 6. 2. 2. 2. 3. 5. 6. 8. 6. 3. 2. 3. 0. 0.
      0. 0. 0. 1. 7. 17. 13. 3. 7. 7. 8. 12. 10. 0. 0. 0. 0. 0.</_>
    <_>
      1. 9. 9. 9. 5. 3. 3. 3. 6. 8. 5. 2. 2. 3. 5. 6. 6. 8. 7. 2. 0. 0.
      0. 0. 0. 14. 15. 14. 8. 7. 7. 8. 14. 12. 3. 0. 0. 0. 0. 0.</_>
    <_>
      1. 3. 3. 3. 3. 3. 2. 3. 2. 3. 6. 8. 9. 8. 5. 5. 4. 4. 5. 6. 0. 0.
      0. 0. 0. 9. 11. 11. 9. 8. 8. 8. 7. 8. 7. 0. 0. 0. 0. 0.</_>
    <_>
      2. 3. 2. 3. 4. 3. 2. 3. 3. 3. 7. 8. 9. 6. 6. 4. 4. 5. 5. 6. 0. 0.
      0. 0. 0. 10. 12. 11. 9. 8. 8. 8. 7. 8. 7. 0. 0. 0. 0. 0.</_>
    <_>
      2. 3. 3. 2. 2. 3. 2. 2. 3. 6. 7. 4. 4. 4. 4. 4. 4. 7. 5. 2. 0. 0.
      0. 0. 0. 0. 10. 14. 9. 9. 8. 7. 10. 6. 0. 0. 0. 0. 0. 0.</_>
    <_>
      3. 4. 4. 3. 3. 3. 3. 4. 5. 9. 10. 8. 6. 7. 7. 7. 7. 10. 8. 2. 0.
      0. 0. 8. 11. 13. 12. 11. 8. 7. 7. 8. 11. 8. 7. 2. 0. 0. 0. 0.</_>
    <_>
      1. 3. 3. 2. 3. 2. 3. 2. 2. 2. 5. 7. 8. 5. 4. 3. 3. 3. 3. 5. 0. 0.
      0. 0. 0. 0. 10. 12. 9. 7. 8. 6. 8. 9. 0. 0. 0. 0. 0. 0.</_>
    <_>
      5. 6. 8. 6. 3. 3. 3. 2. 2. 5. 8. 7. 6. 5. 5. 5. 8. 7. 3. 4. 0. 0.
      0. 0. 4. 11. 14. 14. 12. 13. 10. 6. 8. 5. 4. 0. 0. 0. 0. 0.</_>
    <_>
      6. 7. 6. 7. 3. 3. 3. 3. 2. 4. 9. 10. 6. 4. 4. 5. 6. 10. 8. 1. 0.
      0. 0. 0. 0. 12. 16. 14. 11. 12. 11. 7. 7. 7. 7. 3. 0. 0. 0. 0.</_>
    <_>
      5. 4. 4. 3. 3. 4. 3. 4. 9. 12. 11. 8. 6. 6. 6. 6. 7. 10. 9. 6. 0.
      0. 0. 0. 8. 11. 14. 12. 12. 11. 8. 8. 8. 8. 11. 9. 6. 0. 0. 0.</_>
    <_>
      5. 5. 6. 3. 3. 3. 2. 3. 2. 8. 9. 5. 5. 5. 5. 5. 8. 5. 2. 4. 0. 0.
      0. 0. 0. 9. 13. 14. 13. 12. 8. 6. 8. 7. 3. 0. 0. 0. 0. 0.</_>
    <_>
      5. 5. 6. 3. 3. 2. 3. 2. 2. 7. 9. 7. 4. 4. 4. 6. 7. 6. 2. 5. 0. 0.
      0. 0. 0. 6. 10. 13. 13. 12. 11. 7. 8. 7. 5. 0. 0. 0. 0. 0.</_>
    <_>
      5. 6. 8. 3. 2. 2. 3. 3. 2. 2. 8. 9. 5. 5. 4. 3. 4. 6. 7. 2. 0. 0.
      0. 0. 0. 11. 14. 12. 10. 10. 7. 6. 9. 7. 3. 0. 0. 0. 0. 0.</_>
    <_>
      3. 4. 5. 5. 3. 3. 3. 3. 4. 9. 10. 12. 7. 6. 6. 6. 6. 12. 10. 8. 0.
      0. 0. 0. 7. 11. 14. 11. 12. 10. 10. 10. 10. 14. 9. 7. 0. 0. 0. 0.</_>
    <_>
      2. 2. 2. 2. 3. 3. 6. 7. 8. 6. 4. 4. 3. 3. 4. 4. 6. 6. 6. 4. 0. 0.
      0. 0. 0. 8. 14. 10. 11. 8. 6. 6. 6. 8. 8. 0. 0. 0. 0. 0.</_>
    <_>
      2. 2. 2. 2. 2. 2. 3. 6. 7. 4. 4. 4. 3. 3. 4. 4. 4. 5. 6. 4. 0. 0.
      0. 0. 0. 7. 12. 10. 11. 7. 5. 5. 9. 7. 0. 0. 0. 0. 0. 0.</_>
    <_>
      1. 3. 4. 3. 3. 3. 3. 3. 4. 6. 7. 6. 4. 4. 4. 5. 5. 7. 6. 4. 0. 0.
      0. 0. 0. 0. 12. 16. 15. 11. 7. 6. 10. 8. 0. 0. 0. 0. 0. 0.</_>
    <_>
      6. 5. 6. 6. 4. 5. 6. 6. 8. 13. 15. 12. 13. 12. 12. 10. 12. 13. 13.
      9. 0. 0. 5. 11. 13. 14. 17. 18. 16. 14. 10. 10. 14. 13. 11. 10. 7.
      3. 0. 0.</_>
    <_>
      3. 4. 5. 6. 6. 5. 5. 5. 6. 10. 11. 10. 9. 8. 8. 8. 11. 10. 8. 7.
      0. 0. 0. 0. 8. 12. 16. 17. 14. 14. 13. 13. 15. 10. 8. 5. 0. 0. 0.
      0.</_>
    <_>
      4. 5. 6. 6. 5. 5. 5. 6. 8. 11. 12. 10. 8. 9. 9. 8. 11. 10. 8. 3.
      0. 0. 0. 8. 12. 15. 16. 13. 14. 13. 12. 15. 13. 9. 7. 2. 0. 0. 0.
      0.</_>
    <_>
      3. 5. 6. 5. 5. 5. 5. 6. 9. 10. 10. 11. 9. 6. 6. 8. 11. 11. 10. 8.
      0. 0. 0. 0. 7. 13. 15. 14. 14. 14. 14. 14. 14. 15. 10. 5. 0. 0. 0.
      0.</_>
    <_>
      4. 5. 6. 7. 5. 5. 4. 6. 8. 9. 11. 12. 9. 10. 8. 10. 10. 11. 9. 5.
      0. 0. 0. 1. 6. 11. 14. 16. 17. 14. 15. 13. 14. 14. 9. 7. 3. 0. 0.
      0.</_>
    <_>
      2. 3. 3. 4. 3. 3. 3. 3. 4. 9. 10. 10. 7. 6. 6. 6. 8. 9. 10. 8. 0.
      0. 0. 0. 6. 11. 14. 12. 11. 8. 7. 9. 11. 13. 9. 6. 0. 0. 0. 0.</_>
    <_>
      1. 2. 3. 4. 3. 2. 4. 7. 9. 5. 5. 5. 5. 5. 7. 9. 8. 4. 3. 5. 0. 0.
      0. 0. 6. 12. 14. 13. 12. 8. 6. 6. 9. 8. 2. 0. 0. 0. 0. 0.</_>
    <_>
      3. 4. 4. 4. 4. 4. 7. 9. 10. 11. 7. 6. 6. 6. 6. 9. 10. 8. 8. 3. 0.
      0. 0. 0. 1. 13. 15. 15. 11. 11. 11. 12. 11. 13. 9. 7. 0. 0. 0. 0.</_>
    <_>
      1. 4. 4. 5. 4. 4. 4. 5. 8. 10. 10. 10. 7. 6. 7. 10. 9. 9. 6. 3. 0.
      0. 0. 0. 0. 7. 10. 13. 15. 15. 16. 15. 15. 11. 9. 0. 0. 0. 0. 0.</_>
    <_>
      6. 5. 5. 5. 4. 4. 4. 9. 9. 10. 9. 7. 5. 5. 7. 6. 11. 10. 9. 5. 0.
      0. 0. 0. 5. 13. 16. 15. 15. 12. 11. 10. 10. 11. 10. 7. 0. 0. 0. 0.</_>
    <_>
      2. 6. 6. 6. 6. 5. 5. 5. 8. 10. 12. 13. 9. 8. 8. 9. 10. 12. 11. 9.
      0. 0. 3. 8. 12. 14. 14. 13. 13. 12. 12. 11. 12. 14. 10. 7. 5. 0.
      0. 0.</_>
    <_>
      3. 5. 4. 5. 4. 3. 3. 4. 8. 9. 10. 7. 5. 6. 6. 6. 6. 10. 9. 6. 0.
      0. 0. 0. 5. 12. 13. 12. 11. 11. 10. 10. 12. 12. 8. 3. 0. 0. 0. 0.</_>
    <_>
      2. 4. 4. 6. 4. 5. 5. 5. 10. 11. 10. 8. 8. 7. 8. 9. 10. 8. 5. 2. 0.
      0. 0. 7. 11. 13. 16. 12. 12. 11. 11. 12. 11. 8. 6. 1. 0. 0. 0. 0.</_>
    <_>
      4. 5. 5. 5. 4. 3. 4. 5. 8. 12. 12. 10. 7. 6. 7. 8. 10. 12. 11. 8.
      0. 0. 0. 8. 11. 13. 16. 13. 13. 9. 10. 9. 10. 9. 10. 9. 6. 0. 0.
      0.</_>
    <_>
      2. 6. 7. 6. 6. 5. 5. 5. 9. 11. 12. 13. 8. 7. 8. 10. 11. 12. 10. 5.
      0. 0. 0. 5. 11. 13. 15. 14. 14. 13. 12. 12. 12. 12. 12. 8. 5. 0.
      0. 0.</_>
    <_>
      2. 3. 3. 3. 3. 3. 3. 2. 2. 7. 9. 4. 4. 4. 4. 4. 4. 6. 7. 5. 0. 0.
      0. 0. 3. 9. 11. 10. 8. 7. 7. 8. 7. 8. 4. 0. 0. 0. 0. 0.</_>
    <_>
      2. 4. 3. 3. 3. 3. 3. 5. 7. 9. 6. 5. 5. 5. 5. 6. 7. 7. 6. 7. 0. 0.
      0. 0. 0. 7. 13. 17. 13. 11. 10. 10. 12. 8. 0. 0. 0. 0. 0. 0.</_>
    <_>
      2. 2. 3. 3. 4. 3. 2. 3. 5. 6. 7. 7. 5. 5. 5. 6. 7. 7. 5. 1. 0. 0.
      0. 0. 0. 6. 11. 15. 11. 8. 13. 10. 8. 6. 0. 0. 0. 0. 0. 0.</_>
    <_>
      3. 3. 3. 3. 3. 3. 3. 3. 7. 7. 7. 6. 6. 6. 6. 6. 4. 6. 6. 2. 0. 0.
      0. 0. 0. 7. 15. 18. 14. 5. 4. 5. 11. 9. 5. 0. 0. 0. 0. 0.</_>
    <_>
      1. 3. 4. 4. 5. 5. 5. 6. 7. 8. 10. 11. 11. 9. 6. 8. 11. 10. 9. 6.
      0. 0. 0. 0. 1. 7. 13. 15. 15. 15. 16. 15. 16. 10. 9. 7. 0. 0. 0.
      0.</_>
    <_>
      2. 3. 3. 3. 2. 2. 2. 4. 7. 7. 6. 5. 5. 4. 5. 7. 7. 4. 1. 4. 0. 0.
      0. 0. 0. 7. 11. 11. 12. 8. 8. 9. 9. 6. 2. 0. 0. 0. 0. 0.</_>
    <_>
      2. 2. 3. 4. 3. 3. 3. 2. 5. 6. 7. 5. 6. 5. 6. 5. 4. 7. 6. 4. 0. 0.
      0. 0. 0. 4. 10. 15. 12. 11. 11. 13. 9. 3. 0. 0. 0. 0. 0. 0.</_>
    <_>
      3. 3. 4. 4. 4. 3. 2. 3. 5. 10. 9. 6. 4. 4. 4. 5. 6. 10. 8. 4. 0.
      0. 0. 0. 0. 10. 12. 10. 10. 9. 7. 9. 8. 10. 10. 6. 0. 0. 0. 0.</_>
    <_>
      2. 5. 5. 6. 6. 5. 5. 4. 7. 10. 12. 12. 10. 9. 9. 8. 10. 11. 11. 9.
      0. 0. 0. 1. 7. 11. 14. 16. 14. 13. 13. 12. 13. 15. 12. 9. 5. 1. 0.
      0.</_>
    <_>
      1. 2. 3. 4. 3. 3. 3. 3. 5. 6. 6. 6. 4. 4. 4. 4. 5. 7. 6. 4. 0. 0.
      0. 0. 0. 0. 5. 13. 13. 11. 10. 11. 13. 7. 0. 0. 0. 0. 0. 0.</_>
    <_>
      2. 4. 4. 5. 5. 5. 5. 7. 8. 9. 10. 11. 8. 8. 8. 11. 9. 7. 5. 1. 0.
      0. 0. 0. 6. 11. 14. 16. 14. 16. 15. 16. 11. 8. 5. 0. 0. 0. 0. 0.</_>
    <_>
      1. 2. 3. 3. 3. 2. 2. 3. 2. 6. 7. 5. 4. 5. 4. 4. 4. 4. 6. 3. 0. 0.
      0. 0. 0. 3. 12. 11. 9. 8. 8. 8. 8. 6. 0. 0. 0. 0. 0. 0.</_>
    <_>
      2. 3. 3. 2. 2. 2. 3. 2. 2. 6. 6. 5. 5. 4. 4. 4. 4. 5. 7. 5. 0. 0.
      0. 0. 0. 0. 7. 13. 11. 8. 8. 7. 9. 8. 5. 0. 0. 0. 0. 0.</_>
    <_>
      2. 5. 6. 6. 6. 5. 6. 4. 4. 5. 11. 13. 14. 11. 9. 10. 10. 10. 10.
      11. 0. 3. 9. 12. 14. 16. 12. 11. 9. 9. 8. 7. 8. 10. 9. 8. 7. 6. 0.
      0.</_>
    <_>
      2. 4. 3. 3. 3. 3. 4. 7. 8. 6. 6. 5. 6. 5. 4. 8. 7. 4. 3. 5. 0. 0.
      0. 0. 0. 2. 12. 15. 14. 12. 10. 8. 10. 9. 4. 0. 0. 0. 0. 0.</_>
    <_>
