<?xml version="1.0"?>
<opencv_storage>
<opencv_ml_svm>
  <format>3</format>
  <svmType>C_SVC</svmType>
  <kernel>
    <type>RBF</type>
    <gamma>1.0000000000000001e-05</gamma></kernel>
  <C>6.2500000000000000e+01</C>
  <term_criteria><epsilon>1.1920928955078125e-07</epsilon>
    <iterations>1000</iterations></term_criteria>
  <var_count>172</var_count>
  <class_count>2</class_count>
  <class_labels type_id="opencv-matrix">
    <rows>2</rows>
    <cols>1</cols>
    <dt>i</dt>
    <data>
      0 1</data></class_labels>
  <sv_total>620</sv_total>
  <support_vectors>
    <_>
      61. 25. 42. 35. 26. 23. 19. 18. 18. 27. 59. 66. 63. 47. 50. 49.
      46. 48. 49. 44. 44. 51. 54. 58. 51. 46. 43. 43. 42. 31. 29. 31.
      31. 37. 42. 38. 24. 26. 28. 29. 29. 29. 29. 29. 29. 2. 0. 0. 3. 1.
      2. 4. 15. 14. 5. 15. 22. 18. 11. 10. 8. 13. 13. 2. 2. 1. 5. 11.
      16. 19. 20. 15. 16. 21. 20. 12. 8. 3. 3. 0. 1. 3. 4. 1. 1. 1. 1.
      1. 1. 1. 1. 26. 28. 27. 1. 1. 1. 1. 1. 1. 1. 4. 9. 12. 14. 13. 13.
      14. 14. 14. 12. 9. 6. 1. 1. 1. 3. 4. 4. 6. 4. 15. 18. 20. 16. 10.
      7. 4. 0. 0. 2. 9. 13. 15. 14. 11. 13. 13. 12. 15. 14. 12. 3. 0. 0.
      6. 14. 18. 16. 16. 12. 12. 12. 12. 14. 10. 6. 1. 0. 0. 0. 0. 1.
      29. 29. 29. 29. 29. 29. 29. 28. 25.</_>
    <_>
      40. 49. 57. 59. 48. 48. 49. 52. 53. 50. 50. 50. 50. 45. 49. 50.
      48. 48. 52. 47. 50. 44. 42. 42. 43. 43. 45. 46. 48. 50. 52. 56.
      60. 55. 48. 36. 5. 15. 15. 4. 0. 11. 27. 25. 13. 12. 10. 6. 11.
      15. 13. 0. 0. 0. 0. 0. 5. 13. 18. 23. 30. 24. 20. 20. 24. 26. 22.
      20. 14. 8. 0. 0. 0. 0. 0. 0. 1. 0. 0. 0. 0. 0. 0. 6. 11. 15. 17.
      19. 17. 16. 16. 16. 16. 17. 20. 21. 17. 12. 0. 0. 0. 0. 17. 36.
      36. 36. 11. 8. 7. 8. 8. 8. 7. 9. 26. 36. 36. 35. 0. 0. 0. 0. 7.
      21. 31. 33. 25. 19. 15. 14. 14. 14. 21. 28. 33. 27. 18. 4. 0. 0.
      0. 1. 26. 30. 33. 15. 10. 8. 8. 8. 8. 9. 10. 27. 32. 30. 26. 0. 0.
      0. 0. 0. 0. 0. 0. 0. 0. 35. 35. 35. 34. 0.</_>
    <_>
      56. 61. 61. 54. 36. 43. 41. 40. 35. 31. 32. 31. 34. 35. 39. 49.
      53. 51. 52. 41. 31. 31. 30. 30. 30. 31. 34. 37. 38. 37. 37. 32.
      38. 60. 63. 61. 2. 11. 16. 9. 3. 8. 26. 22. 8. 10. 10. 6. 14. 15.
      11. 0. 0. 0. 3. 9. 15. 20. 20. 22. 19. 17. 18. 31. 26. 20. 12. 3.
      0. 0. 0. 0. 0. 3. 3. 2. 0. 0. 0. 0. 10. 22. 32. 28. 19. 13. 12.
      11. 13. 17. 25. 33. 25. 14. 0. 0. 0. 0. 25. 36. 36. 20. 10. 9. 10.
      11. 12. 11. 12. 13. 8. 5. 0. 0. 0. 0. 4. 11. 13. 10. 12. 13. 15.
      15. 16. 22. 23. 27. 22. 13. 0. 0. 0. 0. 4. 8. 13. 17. 14. 14. 13.
      14. 15. 14. 15. 17. 18. 10. 3. 0. 0. 0. 4. 8. 13. 18. 15. 13. 12.
      12. 12. 12. 14. 20. 15. 9. 0. 0. 0. 4. 3. 0.</_>
    <_>
      136. 136. 136. 134. 97. 38. 11. 12. 11. 8. 8. 9. 18. 47. 38. 30.
      31. 28. 26. 24. 23. 23. 28. 39. 43. 29. 27. 27. 28. 35. 31. 25.
      21. 18. 18. 4. 29. 31. 32. 13. 5. 4. 4. 3. 3. 7. 15. 7. 5. 7. 18.
      10. 7. 8. 6. 9. 14. 4. 4. 4. 4. 6. 9. 14. 15. 14. 14. 14. 15. 20.
      16. 14. 9. 4. 4. 4. 4. 4. 5. 5. 5. 5. 5. 5. 12. 22. 16. 8. 8. 8.
      8. 8. 9. 9. 15. 13. 8. 5. 5. 5. 6. 27. 25. 9. 8. 8. 8. 9. 9. 9. 9.
      7. 7. 5. 5. 5. 5. 5. 7. 7. 6. 6. 6. 13. 14. 11. 12. 12. 9. 7. 6.
      6. 6. 6. 13. 14. 16. 13. 12. 11. 10. 11. 14. 15. 12. 6. 6. 6. 6.
      6. 9. 10. 10. 9. 10. 10. 12. 10. 10. 14. 18. 7. 6. 6. 6. 6. 6. 17.
      32. 32. 32. 32.</_>
    <_>
      1. 1. 0. 0. 0. 0. 7. 23. 46. 50. 41. 32. 26. 26. 33. 35. 43. 35.
      33. 30. 37. 41. 44. 41. 46. 51. 29. 3. 0. 0. 13. 24. 2. 0. 0. 0.
      1. 0. 0. 0. 1. 0. 0. 0. 7. 9. 4. 2. 6. 13. 10. 5. 5. 3. 6. 9. 8.
      1. 1. 1. 3. 6. 10. 11. 14. 12. 11. 12. 15. 13. 11. 6. 1. 0. 1. 0.
      0. 4. 2. 0. 1. 0. 0. 9. 15. 17. 8. 6. 5. 6. 8. 7. 9. 12. 14. 11.
      0. 0. 0. 1. 16. 18. 20. 7. 6. 6. 6. 5. 6. 6. 10. 8. 6. 1. 1. 1. 1.
      7. 9. 11. 11. 10. 8. 8. 8. 8. 9. 9. 8. 0. 0. 0. 0. 2. 5. 6. 5. 7.
      8. 9. 10. 11. 12. 14. 11. 5. 0. 1. 1. 0. 6. 9. 12. 9. 7. 8. 7. 7.
      8. 10. 8. 5. 0. 0. 0. 5. 0. 0. 0. 0. 0. 2.</_>
    <_>
      5. 10. 13. 28. 40. 43. 51. 36. 35. 34. 31. 31. 32. 28. 26. 31. 39.
      45. 55. 60. 53. 50. 37. 33. 34. 37. 37. 41. 42. 35. 34. 38. 48.
      52. 40. 31. 6. 0. 2. 7. 16. 18. 13. 8. 11. 22. 16. 8. 12. 12. 6.
      14. 15. 6. 0. 0. 0. 6. 10. 15. 16. 20. 19. 17. 16. 23. 27. 22. 15.
      7. 0. 0. 0. 0. 0. 2. 3. 3. 0. 0. 0. 0. 14. 33. 34. 27. 6. 4. 4. 4.
      4. 4. 4. 4. 4. 4. 0. 0. 0. 0. 10. 30. 33. 21. 7. 6. 6. 8. 7. 8. 8.
      9. 15. 13. 7. 0. 0. 0. 6. 11. 17. 15. 16. 14. 11. 12. 14. 13. 14.
      19. 13. 7. 0. 0. 0. 0. 4. 12. 17. 15. 16. 13. 12. 11. 12. 13. 13.
      19. 14. 6. 0. 0. 0. 0. 2. 9. 23. 22. 15. 12. 11. 11. 12. 12. 13.
      20. 18. 11. 3. 0. 0. 11.</_>
    <_>
      12. 13. 8. 5. 5. 6. 35. 49. 56. 48. 55. 57. 56. 60. 54. 55. 52.
      57. 58. 52. 48. 47. 48. 52. 51. 51. 50. 42. 25. 7. 10. 69. 86. 77.
      79. 81. 0. 0. 26. 35. 35. 8. 7. 6. 17. 17. 11. 8. 22. 21. 21. 14.
      13. 9. 14. 14. 13. 5. 4. 5. 5. 7. 11. 16. 17. 17. 15. 17. 22. 21.
      20. 18. 9. 4. 1. 0. 4. 5. 5. 4. 0. 0. 0. 4. 27. 27. 24. 13. 6. 8.
      10. 10. 8. 6. 19. 24. 24. 26. 5. 5. 5. 5. 13. 18. 21. 19. 14. 14.
      14. 16. 19. 18. 13. 10. 2. 0. 0. 0. 0. 0. 1. 4. 5. 27. 26. 23. 6.
      0. 0. 0. 0. 0. 0. 0. 0. 4. 15. 19. 18. 13. 9. 7. 9. 10. 13. 21.
      20. 14. 5. 5. 5. 4. 19. 24. 25. 15. 11. 11. 11. 11. 12. 11. 19.
      26. 23. 12. 6. 11. 33. 34. 29. 0.</_>
    <_>
      95. 96. 96. 98. 101. 80. 64. 54. 51. 70. 72. 72. 71. 70. 74. 69.
      62. 59. 59. 64. 71. 77. 75. 76. 74. 74. 68. 59. 57. 64. 83. 110.
      106. 98. 98. 94. 2. 0. 0. 0. 0. 0. 0. 0. 0. 0. 0. 0. 0. 3. 27. 36.
      36. 28. 18. 23. 33. 16. 16. 26. 26. 30. 25. 25. 30. 36. 36. 12.
      10. 10. 24. 25. 27. 22. 16. 15. 5. 6. 14. 27. 31. 35. 34. 34. 36.
      36. 36. 36. 28. 25. 20. 23. 23. 24. 22. 21. 17. 20. 25. 36. 36.
      35. 32. 24. 20. 17. 20. 21. 22. 24. 23. 22. 25. 29. 36. 36. 36.
      32. 32. 32. 32. 28. 20. 16. 13. 22. 27. 30. 36. 33. 31. 25. 6. 3.
      18. 22. 24. 29. 29. 27. 13. 14. 17. 36. 36. 36. 17. 15. 13. 27.
      29. 30. 30. 29. 27. 13. 15. 20. 36. 36. 0. 0. 0. 0. 0. 0. 0. 0. 0.
      0. 0. 0.</_>
    <_>
      85. 38. 32. 33. 32. 62. 78. 79. 73. 67. 66. 66. 59. 58. 58. 67.
      70. 72. 72. 61. 60. 61. 64. 64. 67. 59. 50. 43. 31. 5. 2. 2. 3. 3.
      103. 23. 15. 14. 11. 4. 14. 25. 25. 25. 25. 26. 25. 26. 26. 26.
      26. 25. 25. 33. 16. 2. 3. 17. 16. 7. 15. 19. 16. 10. 8. 11. 12. 1.
      1. 1. 18. 21. 23. 9. 7. 7. 8. 11. 16. 15. 10. 1. 1. 1. 5. 5. 1. 1.
      1. 8. 18. 23. 16. 12. 10. 11. 17. 24. 21. 13. 2. 2. 1. 12. 17. 18.
      16. 13. 13. 15. 16. 15. 11. 4. 2. 3. 5. 6. 5. 6. 27. 28. 26. 6. 5.
      6. 5. 2. 3. 3. 4. 4. 4. 3. 27. 28. 27. 2. 2. 2. 3. 2. 2. 4. 17.
      23. 22. 14. 11. 11. 14. 21. 22. 15. 2. 2. 33. 29. 23. 26. 26. 26.
      26. 26. 26. 26. 26. 26. 26. 26. 16. 15.</_>
    <_>
      136. 136. 136. 136. 111. 136. 91. 30. 8. 8. 8. 8. 25. 42. 42. 44.
      40. 32. 31. 29. 36. 47. 40. 28. 28. 30. 29. 28. 32. 30. 27. 14. 6.
      5. 4. 4. 22. 21. 7. 7. 7. 6. 6. 8. 14. 16. 7. 7. 19. 18. 11. 11.
      9. 10. 14. 13. 6. 6. 6. 18. 21. 23. 11. 11. 10. 10. 10. 11. 12.
      15. 14. 8. 6. 6. 6. 6. 8. 7. 6. 6. 6. 6. 10. 13. 15. 15. 16. 14.
      14. 15. 15. 17. 16. 12. 6. 6. 6. 6. 25. 26. 19. 10. 9. 10. 12. 17.
      18. 18. 15. 7. 6. 6. 6. 6. 13. 20. 24. 16. 12. 13. 13. 14. 16. 23.
      21. 16. 7. 7. 7. 7. 7. 7. 7. 7. 7. 25. 26. 16. 7. 7. 7. 7. 8. 8.
      8. 8. 8. 8. 8. 8. 8. 25. 26. 18. 8. 8. 8. 8. 8. 8. 8. 12. 8. 8. 6.
      8. 17. 18. 21. 22. 23. 24.</_>
    <_>
      120. 105. 86. 66. 39. 14. 4. 4. 7. 19. 27. 38. 38. 40. 37. 36. 29.
      38. 41. 44. 36. 32. 35. 36. 29. 28. 26. 23. 27. 32. 35. 37. 35.
      27. 21. 14. 18. 17. 16. 8. 6. 6. 5. 6. 6. 6. 6. 11. 17. 11. 6. 6.
      23. 21. 13. 11. 9. 11. 15. 14. 5. 5. 5. 7. 23. 26. 25. 11. 11. 10.
      9. 8. 9. 10. 14. 14. 10. 6. 5. 4. 4. 4. 6. 5. 4. 4. 4. 4. 4. 7. 9.
      9. 9. 9. 21. 23. 24. 11. 10. 7. 4. 4. 4. 4. 3. 13. 27. 27. 17. 8.
      8. 8. 7. 8. 8. 9. 8. 5. 3. 3. 3. 2. 2. 12. 19. 23. 16. 11. 11. 9.
      10. 12. 17. 19. 16. 8. 2. 2. 2. 2. 4. 6. 7. 6. 8. 11. 11. 15. 13.
      13. 16. 14. 9. 1. 1. 0. 0. 7. 15. 16. 11. 7. 7. 7. 7. 9. 8. 10.
      15. 10. 2. 0.</_>
    <_>
      7. 28. 34. 52. 50. 39. 44. 37. 37. 33. 33. 36. 36. 33. 40. 44. 42.
      38. 39. 40. 42. 40. 37. 34. 32. 35. 35. 34. 32. 34. 29. 36. 34.
      30. 20. 4. 5. 0. 0. 0. 0. 0. 0. 0. 5. 15. 6. 0. 9. 23. 22. 14. 11.
      6. 7. 12. 11. 0. 0. 0. 0. 20. 25. 29. 12. 9. 10. 8. 8. 9. 8. 10.
      14. 13. 8. 0. 0. 0. 0. 3. 3. 2. 0. 0. 0. 0. 4. 10. 13. 15. 18. 17.
      18. 16. 16. 18. 15. 13. 10. 4. 0. 0. 0. 0. 13. 29. 31. 19. 19. 19.
      16. 13. 14. 19. 32. 32. 29. 0. 0. 0. 0. 3. 4. 4. 4. 4. 4. 13. 20.
      25. 26. 18. 13. 9. 6. 0. 0. 0. 0. 3. 4. 4. 3. 3. 3. 16. 22. 24.
      21. 17. 12. 7. 3. 0. 0. 0. 0. 4. 14. 18. 16. 12. 9. 10. 9. 9. 11.
      9. 12. 9. 4. 0.</_>
    <_>
      87. 100. 105. 110. 107. 79. 68. 70. 85. 88. 87. 93. 94. 94. 98.
      96. 89. 85. 82. 89. 93. 91. 91. 88. 87. 75. 77. 56. 57. 67. 114.
      120. 109. 108. 108. 43. 18. 20. 19. 18. 18. 17. 17. 16. 16. 16.
      16. 8. 34. 35. 35. 24. 18. 24. 31. 15. 15. 19. 26. 26. 30. 24. 24.
      35. 35. 35. 11. 9. 9. 18. 28. 27. 27. 23. 20. 19. 4. 6. 8. 32. 33.
      34. 35. 32. 32. 35. 35. 35. 34. 28. 25. 23. 22. 23. 23. 24. 23.
      23. 19. 21. 24. 30. 35. 35. 35. 28. 25. 23. 22. 23. 23. 23. 24.
      22. 19. 20. 24. 33. 36. 36. 35. 24. 20. 18. 21. 22. 23. 24. 25.
      24. 20. 24. 26. 35. 35. 32. 28. 23. 21. 19. 17. 18. 22. 24. 22. 9.
      8. 10. 33. 35. 36. 36. 36. 17. 13. 12. 28. 30. 29. 28. 30. 28. 12.
      13. 16. 36. 36. 33. 0. 0. 0. 0.</_>
    <_>
      62. 60. 60. 67. 91. 91. 90. 89. 91. 92. 91. 92. 94. 95. 92. 92.
      88. 84. 85. 86. 90. 91. 94. 95. 92. 94. 92. 84. 82. 82. 81. 79.
      81. 66. 71. 72. 19. 13. 12. 15. 16. 7. 8. 12. 20. 23. 23. 27. 19.
      19. 22. 36. 36. 36. 26. 0. 0. 0. 4. 29. 30. 30. 31. 30. 29. 27. 4.
      0. 1. 6. 29. 36. 36. 36. 34. 32. 32. 34. 36. 36. 36. 36. 32. 25.
      21. 18. 17. 17. 20. 20. 21. 21. 20. 19. 15. 17. 22. 28. 36. 36.
      36. 33. 28. 26. 22. 20. 18. 21. 19. 20. 16. 0. 0. 0. 0. 28. 32.
      36. 36. 36. 36. 33. 32. 32. 32. 33. 33. 23. 16. 10. 8. 13. 16. 21.
      25. 27. 31. 35. 36. 36. 33. 27. 23. 23. 24. 23. 21. 20. 19. 14.
      13. 9. 6. 9. 13. 24. 36. 36. 36. 33. 8. 3. 2. 1. 24. 26. 28. 29.
      28. 28. 24. 12.</_>
    <_>
      66. 62. 67. 90. 99. 94. 93. 95. 91. 90. 94. 92. 92. 89. 85. 82.
      82. 82. 81. 85. 88. 92. 101. 101. 100. 98. 98. 96. 94. 92. 92. 91.
      86. 79. 84. 88. 25. 12. 12. 24. 27. 8. 6. 12. 20. 23. 26. 24. 19.
      20. 34. 36. 36. 36. 0. 0. 0. 0. 28. 29. 30. 30. 30. 29. 27. 0. 0.
      4. 9. 36. 36. 36. 36. 36. 32. 33. 36. 36. 36. 36. 34. 33. 33. 33.
      33. 33. 23. 15. 10. 8. 17. 21. 25. 29. 32. 36. 36. 36. 33. 27. 25.
      24. 24. 23. 23. 22. 19. 14. 14. 12. 9. 14. 21. 36. 36. 36. 36. 30.
      13. 2. 0. 12. 20. 24. 25. 24. 21. 13. 0. 3. 13. 25. 36. 36. 36.
      36. 36. 36. 36. 36. 36. 0. 0. 0. 0. 36. 36. 36. 36. 36. 36. 36.
      36. 36. 29. 23. 19. 14. 19. 20. 20. 19. 17. 15. 13. 9. 12. 16. 25.
      36. 36. 36.</_>
    <_>
      69. 64. 60. 71. 94. 99. 96. 95. 95. 95. 95. 93. 90. 82. 78. 78.
      78. 80. 90. 92. 95. 100. 102. 102. 100. 96. 92. 90. 90. 87. 85.
      76. 64. 69. 82. 92. 29. 14. 14. 24. 32. 23. 9. 11. 23. 22. 24. 27.
      21. 21. 22. 36. 36. 36. 18. 0. 0. 0. 27. 28. 28. 28. 28. 28. 27.
      23. 1. 4. 7. 33. 36. 36. 36. 36. 33. 33. 36. 36. 36. 36. 23. 0. 0.
      0. 22. 23. 24. 24. 23. 22. 18. 5. 3. 9. 16. 36. 36. 36. 36. 24.
      12. 9. 8. 20. 22. 25. 24. 23. 23. 20. 12. 13. 16. 25. 36. 36. 36.
      28. 8. 5. 2. 22. 25. 27. 28. 28. 27. 25. 24. 1. 5. 7. 23. 36. 36.
      36. 36. 36. 36. 36. 36. 36. 0. 0. 0. 25. 36. 36. 36. 36. 36. 36.
      36. 36. 36. 28. 24. 24. 23. 22. 22. 20. 17. 14. 12. 12. 8. 12. 19.
      31. 36. 36.</_>
    <_>
      105. 10. 8. 3. 3. 9. 59. 70. 50. 41. 45. 40. 40. 39. 42. 41. 45.
      43. 38. 36. 34. 36. 36. 38. 68. 73. 60. 2. 2. 2. 2. 86. 1. 12. 20.
      30. 3. 27. 27. 5. 4. 9. 17. 16. 6. 6. 18. 15. 9. 9. 6. 10. 10. 9.
      1. 1. 1. 22. 22. 23. 6. 6. 5. 4. 6. 8. 23. 21. 18. 1. 2. 2. 2. 6.
      6. 3. 2. 2. 2. 8. 10. 11. 13. 13. 13. 14. 14. 14. 12. 10. 8. 3. 2.
      2. 2. 6. 11. 12. 13. 13. 12. 12. 12. 13. 16. 13. 11. 2. 2. 2. 3.
      9. 11. 14. 13. 12. 13. 13. 12. 13. 15. 13. 8. 2. 2. 1. 18. 19. 19.
      6. 7. 7. 8. 7. 9. 10. 22. 21. 17. 3. 2. 2. 9. 17. 22. 16. 12. 11.
      11. 11. 14. 21. 19. 14. 2. 2. 2. 30. 0. 0. 0. 1. 2. 2. 2. 2. 2. 2.
      3. 3. 3. 3.</_>
    <_>
      42. 60. 67. 57. 23. 22. 29. 30. 33. 28. 28. 29. 36. 41. 50. 43.
      41. 30. 24. 23. 23. 22. 20. 24. 31. 34. 34. 37. 48. 51. 43. 28. 0.
      9. 77. 79. 0. 0. 0. 0. 0. 0. 1. 2. 2. 9. 20. 15. 3. 5. 25. 24. 10.
      10. 10. 8. 8. 15. 14. 2. 2. 2. 2. 32. 33. 33. 10. 8. 8. 8. 9. 7.
      8. 7. 7. 8. 5. 2. 2. 3. 3. 2. 3. 2. 0. 0. 0. 0. 16. 32. 32. 27. 4.
      4. 4. 4. 4. 4. 4. 4. 4. 4. 3. 0. 0. 0. 3. 8. 11. 12. 11. 13. 13.
      13. 14. 19. 17. 20. 23. 20. 12. 0. 0. 0. 0. 4. 9. 10. 10. 11. 12.
      13. 14. 16. 18. 18. 26. 23. 17. 2. 2. 2. 2. 5. 9. 11. 11. 12. 12.
      14. 15. 18. 20. 19. 27. 24. 19. 5. 2. 2. 2. 3. 2. 2. 3. 3. 2. 2.
      34. 33. 25. 3.</_>
    <_>
      46. 57. 65. 65. 59. 44. 49. 47. 43. 42. 37. 32. 33. 39. 40. 47.
      50. 50. 48. 46. 40. 38. 37. 39. 38. 38. 37. 36. 37. 36. 40. 44.
      51. 55. 46. 40. 0. 0. 0. 0. 0. 6. 16. 15. 3. 4. 26. 26. 17. 10. 9.
      10. 9. 15. 14. 3. 0. 0. 0. 24. 30. 32. 21. 12. 9. 10. 12. 13. 15.
      17. 28. 26. 21. 11. 0. 0. 0. 0. 0. 0. 0. 0. 0. 0. 18. 27. 31. 33.
      14. 10. 8. 8. 8. 10. 11. 15. 33. 31. 27. 0. 0. 0. 0. 0. 0. 0. 0.
      0. 34. 36. 36. 34. 0. 0. 0. 0. 0. 0. 0. 0. 0. 9. 14. 16. 18. 19.
      16. 15. 16. 16. 16. 17. 20. 17. 12. 4. 0. 0. 0. 6. 20. 30. 29. 21.
      16. 14. 12. 14. 14. 19. 34. 32. 24. 10. 0. 0. 0. 0. 3. 5. 5. 5.
      19. 25. 29. 29. 15. 14. 11. 10. 8. 5.</_>
    <_>
      19. 28. 36. 40. 43. 44. 43. 46. 44. 43. 37. 41. 34. 39. 43. 45.
      36. 33. 36. 37. 38. 41. 41. 41. 40. 38. 41. 38. 38. 34. 39. 34.
      31. 31. 18. 15. 29. 24. 0. 0. 0. 0. 0. 0. 0. 5. 18. 10. 0. 3. 22.
      22. 11. 10. 6. 8. 12. 11. 3. 0. 0. 0. 15. 24. 27. 19. 8. 6. 8. 10.
      10. 11. 14. 24. 22. 15. 9. 0. 0. 0. 0. 0. 0. 0. 0. 0. 3. 4. 4. 4.
      3. 7. 23. 27. 28. 14. 10. 8. 6. 3. 0. 0. 0. 0. 5. 10. 14. 13. 15.
      16. 14. 15. 17. 17. 20. 17. 14. 9. 3. 0. 0. 2. 7. 9. 11. 14. 13.
      13. 15. 18. 17. 16. 19. 23. 18. 10. 0. 0. 0. 3. 4. 3. 3. 3. 11.
      24. 27. 29. 13. 9. 7. 5. 2. 0. 0. 0. 0. 9. 21. 27. 22. 14. 11. 9.
      9. 11. 16. 22. 24. 18. 5. 0.</_>
    <_>
      3. 15. 29. 51. 54. 50. 54. 42. 40. 34. 29. 29. 28. 41. 53. 63. 64.
      52. 41. 31. 31. 31. 31. 30. 31. 32. 31. 35. 39. 50. 51. 37. 18. 0.
      0. 0. 0. 0. 0. 0. 0. 0. 5. 15. 15. 6. 6. 20. 20. 7. 6. 8. 7. 7.
      12. 10. 0. 0. 0. 5. 21. 25. 21. 7. 8. 6. 9. 9. 10. 11. 19. 21. 17.
      2. 0. 0. 0. 0. 0. 0. 0. 0. 0. 4. 29. 29. 22. 8. 7. 5. 7. 6. 7. 6.
      7. 14. 12. 8. 0. 0. 0. 5. 11. 14. 16. 12. 12. 13. 11. 13. 12. 13.
      15. 14. 9. 0. 0. 0. 0. 13. 18. 21. 14. 14. 13. 11. 12. 11. 12. 15.
      14. 12. 3. 0. 0. 0. 3. 18. 20. 19. 11. 9. 10. 10. 12. 11. 12. 20.
      17. 11. 0. 0. 0. 0. 9. 19. 22. 19. 13. 10. 10. 10. 11. 14. 23. 25.
      18. 5. 0. 0. 0. 0.</_>
    <_>
      6. 30. 4. 0. 1. 42. 62. 62. 47. 46. 40. 33. 34. 32. 46. 60. 64.
      55. 32. 29. 29. 30. 30. 32. 36. 41. 50. 41. 26. 4. 20. 41. 36. 20.
      37. 36. 0. 0. 1. 2. 4. 6. 14. 19. 8. 6. 10. 23. 19. 14. 14. 10.
      13. 16. 15. 6. 6. 6. 6. 22. 24. 24. 11. 10. 9. 13. 13. 14. 12. 19.
      20. 15. 2. 4. 4. 5. 8. 8. 8. 5. 5. 2. 1. 5. 13. 15. 14. 12. 11.
      10. 11. 11. 13. 16. 15. 12. 4. 1. 1. 1. 1. 8. 10. 12. 13. 9. 10.
      10. 10. 13. 13. 16. 13. 9. 0. 0. 0. 0. 2. 8. 11. 11. 13. 11. 10.
      10. 11. 11. 12. 13. 11. 4. 0. 0. 0. 0. 10. 17. 21. 15. 10. 9. 7.
      9. 10. 15. 21. 18. 9. 0. 0. 0. 0. 4. 8. 11. 10. 11. 10. 10. 10.
      11. 15. 14. 14. 9. 0. 0. 0. 0. 0. 0.</_>
    <_>
      7. 16. 49. 54. 54. 40. 40. 36. 39. 35. 32. 32. 35. 42. 53. 65. 62.
      55. 43. 36. 33. 33. 33. 37. 38. 40. 42. 47. 53. 46. 37. 21. 2. 2.
      1. 2. 0. 6. 14. 4. 1. 22. 22. 14. 10. 8. 6. 13. 13. 0. 0. 0. 1.
      30. 30. 24. 4. 4. 4. 4. 2. 4. 27. 30. 29. 0. 0. 0. 0. 2. 2. 0. 0.
      0. 0. 29. 31. 29. 7. 5. 7. 10. 16. 21. 20. 13. 6. 0. 0. 0. 0. 7.
      15. 19. 17. 16. 13. 13. 13. 13. 14. 14. 10. 2. 0. 0. 0. 4. 9. 10.
      8. 12. 13. 14. 18. 18. 18. 21. 16. 5. 0. 0. 0. 7. 19. 26. 22. 16.
      12. 11. 12. 16. 25. 25. 19. 4. 0. 0. 0. 5. 21. 24. 21. 13. 10. 11.
      12. 14. 18. 21. 17. 5. 0. 0. 0. 0. 0. 0. 0. 0. 0. 1. 2. 0. 0. 0.
      0. 2. 7. 7. 6. 5.</_>
    <_>
      41. 50. 57. 56. 46. 36. 39. 37. 37. 37. 38. 35. 35. 41. 51. 52.
      59. 58. 53. 46. 34. 35. 33. 32. 32. 34. 38. 45. 44. 47. 49. 53.
      56. 60. 48. 32. 5. 15. 12. 1. 6. 26. 24. 12. 12. 13. 8. 10. 14.
      13. 0. 0. 0. 0. 4. 7. 7. 6. 5. 4. 4. 4. 5. 5. 16. 33. 31. 22. 0.
      0. 0. 0. 3. 3. 0. 0. 0. 0. 0. 6. 13. 18. 21. 24. 21. 18. 19. 27.
      24. 23. 15. 7. 0. 0. 0. 0. 0. 27. 31. 32. 11. 9. 8. 8. 7. 9. 9.
      17. 32. 29. 20. 0. 0. 0. 0. 17. 26. 27. 21. 14. 13. 12. 13. 14.
      16. 25. 23. 18. 7. 0. 0. 0. 0. 14. 25. 32. 26. 15. 12. 12. 12. 14.
      21. 33. 28. 21. 2. 0. 0. 0. 1. 23. 27. 28. 24. 14. 12. 12. 12. 13.
      16. 25. 22. 17. 2. 0. 0. 0. 0. 0. 0. 0.</_>
    <_>
      19. 63. 70. 73. 37. 42. 38. 37. 29. 27. 27. 37. 43. 46. 47. 41.
      32. 28. 30. 33. 31. 38. 38. 38. 41. 48. 58. 49. 34. 0. 0. 0. 0. 0.
      0. 0. 0. 0. 2. 9. 11. 4. 1. 7. 22. 19. 9. 7. 4. 6. 12. 12. 0. 0.
      0. 0. 16. 29. 28. 26. 7. 5. 7. 8. 11. 19. 19. 17. 13. 6. 0. 0. 0.
      0. 0. 2. 2. 0. 0. 0. 0. 0. 19. 23. 25. 10. 7. 8. 7. 7. 7. 8. 9.
      14. 13. 10. 0. 0. 0. 0. 2. 9. 11. 13. 15. 12. 12. 13. 14. 12. 12.
      16. 15. 12. 3. 0. 0. 0. 0. 8. 10. 11. 10. 12. 12. 14. 14. 17. 16.
      19. 19. 16. 7. 0. 0. 0. 0. 3. 3. 3. 3. 3. 3. 14. 19. 22. 15. 14.
      10. 7. 5. 0. 0. 0. 0. 2. 19. 21. 21. 11. 11. 9. 9. 9. 11. 12. 19.
      17. 14. 2. 0. 0.</_>
    <_>
      123. 114. 6. 7. 1. 0. 26. 58. 70. 55. 56. 54. 52. 47. 43. 51. 60.
      57. 36. 34. 35. 35. 35. 37. 38. 43. 28. 0. 0. 0. 0. 1. 132. 132.
      120. 113. 0. 0. 4. 8. 4. 4. 5. 11. 16. 14. 7. 9. 22. 20. 15. 14.
      14. 10. 15. 15. 8. 6. 6. 6. 26. 27. 24. 12. 11. 12. 9. 8. 10. 13.
      25. 27. 26. 15. 6. 6. 6. 6. 6. 6. 6. 6. 5. 4. 20. 23. 25. 14. 11.
      9. 9. 11. 11. 10. 11. 25. 22. 19. 6. 6. 6. 6. 13. 15. 17. 15. 15.
      16. 15. 15. 17. 17. 20. 17. 11. 6. 6. 6. 6. 11. 12. 17. 16. 16.
      14. 14. 16. 18. 17. 20. 17. 14. 6. 6. 6. 6. 21. 25. 26. 13. 12. 9.
      10. 11. 12. 12. 21. 24. 21. 8. 5. 5. 6. 10. 13. 15. 18. 15. 15.
      14. 14. 14. 16. 17. 18. 15. 10. 6. 6. 10. 0. 0.</_>
    <_>
      1. 1. 1. 12. 25. 35. 31. 28. 23. 27. 28. 33. 32. 40. 52. 65. 57.
      49. 41. 36. 32. 31. 32. 35. 39. 35. 36. 41. 41. 36. 33. 26. 19.
      34. 29. 13. 1. 10. 17. 12. 0. 4. 22. 22. 11. 8. 6. 6. 11. 12. 7.
      0. 0. 0. 17. 28. 28. 24. 6. 5. 6. 6. 8. 8. 8. 17. 24. 26. 13. 0.
      0. 0. 0. 3. 3. 1. 0. 0. 0. 0. 2. 4. 4. 4. 4. 3. 3. 3. 3. 4. 6. 26.
      25. 23. 0. 0. 0. 0. 0. 0. 0. 0. 0. 14. 22. 24. 11. 0. 0. 0. 0. 0.
      0. 0. 0. 0. 12. 17. 19. 12. 8. 9. 9. 9. 9. 9. 11. 17. 16. 10. 2.
      2. 2. 2. 15. 18. 19. 12. 10. 10. 9. 10. 9. 8. 7. 18. 17. 11. 2. 2.
      2. 2. 10. 19. 21. 13. 10. 9. 9. 9. 9. 9. 10. 19. 17. 8. 1. 0. 19.
      16. 0. 0.</_>
    <_>
      110. 111. 112. 113. 113. 71. 62. 55. 68. 85. 84. 86. 91. 91. 84.
      72. 65. 64. 73. 88. 93. 94. 92. 92. 87. 83. 80. 79. 72. 77. 87.
      114. 124. 114. 109. 108. 3. 0. 0. 33. 36. 20. 16. 15. 15. 19. 27.
      25. 15. 15. 15. 15. 19. 27. 35. 36. 36. 36. 11. 9. 9. 23. 25. 25.
      23. 18. 16. 9. 4. 4. 14. 32. 36. 36. 35. 34. 35. 36. 36. 36. 36.
      36. 36. 36. 36. 36. 11. 9. 9. 32. 36. 36. 36. 36. 36. 36. 36. 35.
      33. 32. 32. 32. 32. 23. 18. 15. 19. 23. 27. 29. 33. 36. 36. 36.
      29. 17. 16. 16. 24. 27. 27. 25. 26. 23. 18. 20. 23. 35. 36. 36.
      31. 21. 18. 15. 16. 16. 20. 24. 23. 20. 18. 20. 24. 29. 36. 36.
      36. 31. 19. 15. 16. 24. 25. 27. 27. 25. 24. 18. 20. 22. 36. 36.
      34. 0. 0. 2. 2. 2. 2. 3. 4. 4.</_>
    <_>
      0. 0. 3. 11. 20. 37. 47. 49. 50. 46. 41. 43. 43. 43. 41. 37. 39.
      47. 61. 63. 60. 67. 49. 44. 42. 44. 44. 50. 55. 56. 56. 43. 45.
      37. 22. 2. 0. 0. 17. 22. 16. 20. 18. 6. 7. 13. 21. 19. 16. 21. 18.
      7. 2. 0. 0. 0. 10. 28. 28. 29. 10. 10. 11. 11. 11. 11. 11. 11. 11.
      6. 3. 0. 0. 0. 0. 2. 4. 3. 0. 0. 0. 0. 27. 30. 29. 16. 3. 3. 4. 4.
      4. 4. 4. 22. 29. 29. 22. 0. 0. 0. 0. 6. 11. 13. 14. 15. 13. 12.
      14. 14. 14. 17. 16. 12. 7. 0. 0. 0. 0. 7. 14. 17. 18. 15. 13. 12.
      13. 12. 11. 12. 13. 11. 7. 0. 0. 0. 0. 18. 23. 25. 14. 7. 7. 6. 6.
      8. 6. 8. 26. 24. 22. 3. 0. 0. 0. 13. 23. 25. 24. 8. 7. 8. 7. 7. 7.
      8. 21. 24. 22. 14. 0. 0.</_>
    <_>
      3. 16. 24. 21. 22. 30. 31. 30. 36. 39. 40. 38. 38. 41. 42. 42. 42.
      43. 42. 43. 45. 41. 37. 34. 23. 12. 10. 2. 0. 0. 0. 0. 0. 0. 0. 0.
      0. 0. 0. 0. 0. 0. 9. 15. 9. 11. 13. 0. 5. 12. 15. 8. 14. 14. 6. 0.
      0. 0. 0. 0. 22. 22. 16. 4. 4. 5. 6. 11. 13. 13. 12. 7. 1. 0. 0. 0.
      0. 1. 2. 1. 0. 0. 0. 0. 16. 18. 20. 6. 5. 5. 5. 4. 5. 6. 19. 18.
      15. 0. 0. 0. 0. 2. 5. 11. 13. 15. 11. 10. 11. 13. 11. 10. 8. 2. 0.
      0. 0. 0. 1. 8. 12. 10. 9. 9. 8. 9. 9. 9. 8. 9. 6. 0. 0. 0. 0. 0.
      2. 2. 1. 2. 3. 11. 15. 16. 11. 9. 7. 5. 1. 0. 0. 0. 0. 10. 15. 18.
      12. 8. 7. 7. 7. 10. 13. 18. 12. 3. 0. 0. 0. 0. 0. 0.</_>
    <_>
      43. 11. 106. 117. 116. 116. 92. 76. 71. 77. 88. 89. 92. 98. 89.
      80. 74. 63. 69. 76. 83. 90. 86. 88. 82. 72. 62. 64. 72. 84. 118.
      120. 117. 114. 4. 16. 36. 21. 3. 3. 30. 30. 13. 13. 14. 15. 15.
      18. 15. 10. 12. 11. 13. 17. 20. 31. 31. 30. 30. 8. 8. 9. 13. 25.
      26. 24. 15. 7. 4. 6. 13. 19. 31. 33. 32. 32. 31. 30. 29. 30. 32.
      32. 32. 25. 20. 18. 16. 20. 19. 20. 19. 20. 21. 20. 21. 24. 31.
      33. 33. 33. 30. 27. 25. 24. 21. 23. 24. 21. 22. 22. 23. 25. 29.
      31. 34. 32. 32. 34. 23. 20. 16. 18. 22. 22. 23. 22. 22. 18. 16.
      16. 19. 25. 32. 32. 26. 19. 15. 14. 11. 11. 12. 12. 11. 14. 14.
      12. 15. 18. 28. 32. 32. 31. 23. 19. 18. 15. 17. 18. 19. 20. 21.
      21. 19. 20. 25. 26. 32. 25. 1. 7. 36. 36.</_>
    <_>
      2. 7. 12. 17. 25. 32. 41. 37. 30. 25. 26. 30. 37. 38. 40. 33. 31.
      39. 43. 47. 44. 42. 48. 46. 41. 42. 39. 44. 40. 38. 25. 21. 17.
      14. 9. 2. 3. 1. 0. 0. 0. 0. 0. 0. 13. 19. 16. 18. 16. 5. 6. 12.
      20. 18. 17. 18. 18. 6. 2. 0. 0. 1. 18. 26. 26. 16. 11. 6. 7. 9.
      13. 17. 15. 12. 9. 6. 3. 0. 0. 0. 0. 3. 4. 3. 0. 0. 0. 5. 20. 27.
      28. 19. 7. 7. 7. 7. 7. 6. 7. 7. 7. 4. 3. 0. 0. 0. 3. 3. 3. 3. 3.
      2. 6. 19. 22. 26. 16. 11. 6. 0. 0. 0. 0. 0. 2. 7. 11. 13. 13. 14.
      13. 13. 14. 14. 14. 16. 13. 9. 3. 0. 0. 0. 0. 4. 4. 5. 7. 8. 10.
      13. 13. 13. 14. 15. 18. 12. 8. 1. 0. 0. 0. 0. 0. 0. 0. 2. 18. 25.
      25. 16. 0. 0.</_>
    <_>
      0. 7. 18. 10. 0. 0. 0. 0. 38. 45. 50. 38. 39. 38. 40. 35. 33. 36.
      38. 33. 40. 62. 58. 40. 34. 31. 35. 31. 34. 35. 33. 29. 33. 34.
      34. 9. 0. 0. 17. 19. 12. 12. 18. 4. 2. 10. 19. 14. 9. 19. 20. 10.
      2. 0. 0. 0. 0. 3. 28. 28. 27. 6. 5. 5. 6. 9. 15. 21. 22. 15. 9. 4.
      0. 0. 0. 0. 0. 2. 2. 2. 0. 0. 0. 1. 6. 31. 31. 30. 5. 3. 3. 2. 2.
      2. 2. 3. 27. 28. 28. 6. 0. 0. 0. 0. 6. 10. 13. 13. 10. 11. 11. 10.
      11. 14. 14. 17. 15. 10. 1. 0. 0. 0. 0. 3. 4. 4. 6. 6. 6. 14. 17.
      20. 15. 12. 11. 8. 6. 2. 0. 0. 0. 0. 0. 0. 1. 1. 0. 0. 27. 27. 27.
      0. 0. 0. 0. 0. 0. 0. 0. 0. 0. 0. 0. 0. 0. 0. 0. 27. 27. 27. 0. 0.</_>
    <_>
      2. 131. 132. 111. 70. 8. 6. 52. 62. 70. 54. 52. 51. 43. 47. 55.
      57. 69. 65. 53. 50. 49. 49. 49. 50. 50. 61. 58. 38. 10. 132. 130.
      102. 109. 127. 117. 0. 1. 36. 36. 35. 15. 10. 24. 26. 27. 24. 22.
      14. 18. 26. 26. 26. 26. 20. 16. 9. 9. 9. 9. 31. 31. 30. 17. 14.
      15. 17. 20. 25. 27. 23. 18. 12. 8. 11. 11. 10. 12. 13. 12. 10. 10.
      10. 10. 20. 29. 30. 21. 22. 24. 22. 22. 22. 24. 32. 29. 20. 8. 10.
      10. 9. 11. 8. 7. 9. 10. 18. 24. 28. 24. 20. 17. 14. 12. 8. 8. 8.
      10. 25. 27. 26. 19. 17. 18. 18. 18. 18. 21. 24. 23. 19. 10. 10.
      10. 10. 17. 17. 19. 19. 20. 19. 19. 19. 21. 20. 21. 18. 16. 9. 8.
      8. 9. 8. 8. 8. 8. 29. 30. 30. 28. 7. 7. 7. 8. 8. 9. 32. 34. 34.
      33. 0. 0.</_>
    <_>
      87. 84. 119. 129. 101. 89. 83. 76. 88. 91. 92. 94. 103. 98. 93.
      88. 91. 84. 76. 84. 87. 93. 96. 95. 94. 87. 86. 86. 86. 82. 62.
      64. 71. 82. 102. 65. 3. 32. 32. 14. 11. 13. 13. 17. 23. 24. 14.
      11. 10. 10. 10. 21. 25. 33. 33. 33. 32. 2. 1. 1. 4. 27. 27. 27.
      27. 26. 26. 26. 25. 25. 27. 29. 33. 32. 32. 31. 29. 29. 33. 34.
      34. 34. 31. 27. 21. 20. 19. 22. 21. 20. 21. 22. 22. 20. 20. 23.
      33. 35. 36. 36. 33. 15. 13. 13. 20. 23. 23. 23. 23. 23. 20. 15.
      18. 20. 29. 36. 36. 36. 36. 36. 36. 36. 36. 26. 6. 4. 4. 35. 36.
      36. 36. 36. 35. 33. 33. 32. 28. 25. 23. 21. 17. 19. 19. 21. 19. 6.
      4. 5. 7. 31. 33. 35. 35. 35. 29. 23. 21. 20. 18. 18. 21. 19. 19.
      19. 17. 17. 19. 23. 28. 32. 27. 0.</_>
    <_>
      98. 115. 113. 116. 121. 128. 84. 71. 69. 90. 92. 90. 94. 96. 93.
      88. 91. 92. 90. 91. 93. 97. 95. 96. 88. 84. 79. 85. 72. 82. 117.
      130. 124. 116. 116. 97. 0. 0. 1. 32. 35. 34. 18. 16. 16. 19. 21.
      29. 25. 17. 17. 18. 16. 25. 30. 36. 36. 36. 36. 12. 11. 11. 29.
      32. 30. 28. 27. 25. 25. 27. 27. 28. 29. 36. 36. 36. 36. 33. 33.
      35. 36. 36. 36. 36. 31. 26. 21. 18. 17. 22. 23. 20. 20. 23. 26.
      27. 33. 35. 35. 35. 35. 30. 27. 27. 26. 26. 26. 24. 22. 22. 22.
      18. 21. 28. 34. 36. 36. 36. 33. 33. 33. 33. 33. 33. 25. 20. 16.
      22. 26. 29. 32. 35. 36. 36. 32. 11. 9. 4. 3. 18. 21. 24. 30. 29.
      29. 27. 14. 17. 19. 36. 35. 35. 34. 30. 28. 27. 28. 24. 24. 24.
      20. 21. 21. 19. 21. 26. 32. 35. 35. 25. 0. 0.</_>
    <_>
      80. 74. 73. 87. 86. 86. 88. 90. 93. 90. 86. 84. 84. 68. 63. 69.
      73. 84. 87. 89. 91. 93. 87. 83. 80. 79. 74. 65. 65. 73. 87. 117.
      136. 134. 122. 121. 11. 10. 11. 13. 15. 17. 17. 7. 9. 11. 10. 14.
      23. 31. 36. 36. 36. 36. 5. 4. 5. 8. 25. 26. 27. 28. 26. 25. 24. 3.
      1. 2. 4. 36. 36. 36. 36. 33. 32. 33. 35. 36. 36. 36. 29. 19. 16.
      12. 16. 17. 20. 20. 21. 22. 19. 19. 21. 24. 29. 36. 36. 36. 36.
      25. 19. 16. 14. 16. 17. 20. 20. 19. 20. 18. 17. 22. 25. 30. 36.
      36. 36. 33. 15. 12. 12. 13. 21. 24. 25. 24. 24. 23. 15. 15. 17.
      21. 34. 36. 36. 34. 27. 24. 23. 23. 22. 22. 20. 19. 17. 14. 14.
      10. 13. 17. 24. 36. 36. 36. 36. 36. 36. 36. 36. 35. 4. 4. 4. 4.
      34. 36. 36. 36. 36. 36. 36. 34.</_>
    <_>
      2. 15. 39. 58. 59. 44. 38. 36. 30. 33. 33. 32. 40. 51. 51. 38. 33.
      33. 35. 33. 37. 45. 47. 41. 35. 43. 51. 44. 25. 5. 0. 0. 0. 0. 0.
      1. 0. 0. 16. 11. 12. 16. 0. 4. 17. 18. 12. 19. 10. 5. 0. 0. 0. 0.
      23. 28. 27. 10. 7. 8. 8. 7. 7. 9. 25. 27. 26. 0. 0. 0. 0. 3. 3. 0.
      0. 0. 0. 2. 6. 10. 10. 9. 9. 8. 9. 15. 27. 27. 5. 2. 0. 0. 0. 0.
      7. 9. 12. 12. 11. 11. 12. 13. 12. 12. 14. 10. 3. 0. 0. 0. 2. 18.
      22. 14. 10. 9. 9. 10. 9. 11. 17. 15. 9. 0. 0. 0. 0. 6. 8. 7. 7. 9.
      11. 12. 13. 15. 17. 17. 11. 0. 0. 0. 0. 18. 23. 25. 9. 8. 6. 6. 6.
      7. 8. 25. 23. 20. 0. 0. 0. 0. 0. 0. 0. 0. 0. 0. 0. 0. 0. 0. 0. 0.</_>
    <_>
      102. 58. 30. 18. 36. 38. 74. 100. 95. 76. 68. 76. 82. 79. 76. 76.
      73. 73. 71. 72. 66. 66. 75. 74. 77. 76. 75. 69. 63. 63. 59. 44.
      41. 38. 33. 35. 36. 36. 29. 8. 5. 5. 3. 4. 10. 10. 10. 13. 14. 19.
      16. 8. 13. 9. 8. 19. 25. 28. 28. 18. 4. 4. 4. 12. 15. 14. 9. 10.
      5. 2. 2. 2. 22. 26. 27. 25. 24. 25. 27. 27. 26. 17. 9. 4. 3. 13.
      16. 16. 16. 12. 5. 6. 13. 22. 26. 26. 25. 11. 5. 6. 12. 15. 16.
      15. 12. 5. 5. 9. 21. 28. 28. 28. 25. 25. 25. 25. 3. 2. 2. 6. 25.
      28. 29. 27. 25. 25. 24. 20. 23. 21. 20. 23. 16. 9. 6. 1. 15. 19.
      22. 23. 26. 30. 28. 15. 6. 5. 16. 21. 21. 21. 18. 11. 11. 13. 15.
      19. 8. 11. 19. 2. 15. 20. 28. 34. 34. 34. 34. 34. 34. 34. 32. 33.</_>
    <_>
      11. 9. 9. 106. 108. 109. 91. 80. 73. 76. 78. 82. 87. 84. 79. 73.
      62. 65. 81. 89. 93. 89. 87. 81. 75. 84. 100. 116. 115. 113. 46.
      13. 12. 33. 95. 58. 36. 36. 36. 10. 9. 33. 33. 34. 31. 20. 16. 14.
      16. 21. 16. 12. 14. 17. 14. 20. 27. 30. 30. 30. 30. 9. 8. 9. 18.
      17. 17. 18. 15. 10. 3. 2. 2. 1. 20. 23. 28. 28. 28. 28. 28. 28.
      28. 27. 10. 7. 12. 25. 25. 27. 28. 28. 28. 27. 14. 8. 11. 30. 30.
      29. 28. 13. 11. 20. 20. 21. 23. 22. 21. 23. 20. 11. 14. 28. 28.
      29. 28. 25. 19. 18. 21. 18. 19. 19. 19. 21. 20. 19. 23. 26. 29.
      29. 28. 24. 11. 0. 1. 4. 8. 11. 11. 11. 11. 7. 10. 15. 27. 29. 29.
      29. 23. 13. 10. 10. 15. 17. 19. 17. 17. 11. 9. 13. 20. 28. 28. 26.
      1. 3. 6. 34. 36. 36.</_>
    <_>
      15. 22. 35. 41. 46. 44. 38. 36. 37. 38. 42. 49. 57. 60. 55. 45.
      41. 45. 45. 46. 41. 44. 45. 45. 41. 39. 39. 37. 37. 36. 38. 31.
      24. 20. 11. 9. 0. 19. 14. 13. 12. 4. 3. 6. 11. 16. 13. 15. 12. 4.
      2. 0. 0. 0. 9. 28. 30. 29. 12. 8. 8. 8. 7. 8. 8. 22. 30. 30. 18.
      1. 0. 0. 0. 3. 3. 0. 0. 0. 0. 12. 27. 30. 23. 11. 4. 3. 3. 3. 3.
      3. 17. 28. 29. 22. 5. 0. 0. 2. 3. 4. 3. 3. 4. 4. 15. 22. 26. 19.
      11. 7. 4. 0. 0. 0. 0. 6. 21. 25. 25. 8. 8. 8. 7. 7. 7. 8. 20. 25.
      23. 12. 0. 0. 0. 4. 10. 13. 12. 11. 11. 13. 14. 14. 17. 19. 20.
      17. 12. 0. 0. 0. 0. 6. 10. 14. 14. 9. 10. 11. 11. 12. 18. 22. 25.
      20. 14. 4. 4. 4. 2. 6. 4. 1.</_>
    <_>
      33. 46. 51. 56. 47. 41. 43. 38. 37. 31. 31. 32. 33. 37. 43. 44.
      63. 68. 66. 62. 53. 42. 40. 39. 40. 39. 42. 46. 48. 47. 47. 63.
      64. 62. 48. 36. 0. 0. 24. 27. 24. 26. 23. 7. 10. 25. 26. 25. 29.
      25. 16. 7. 0. 0. 0. 0. 4. 36. 36. 35. 11. 9. 8. 8. 8. 8. 10. 12.
      17. 15. 11. 0. 0. 0. 0. 0. 4. 3. 0. 0. 0. 0. 0. 5. 6. 7. 6. 5. 5.
      5. 5. 5. 6. 8. 34. 32. 30. 3. 0. 0. 0. 3. 24. 26. 26. 16. 13. 13.
      13. 13. 14. 16. 23. 20. 16. 0. 0. 0. 0. 4. 17. 26. 32. 25. 18. 15.
      13. 13. 15. 19. 32. 32. 23. 12. 0. 0. 0. 0. 11. 16. 20. 22. 19.
      17. 16. 15. 15. 15. 16. 18. 14. 10. 0. 0. 0. 0. 3. 14. 20. 23. 18.
      18. 12. 13. 14. 14. 14. 16. 15. 11. 6. 0.</_>
    <_>
      0. 37. 61. 72. 66. 41. 35. 36. 33. 32. 32. 49. 57. 67. 71. 64. 53.
      39. 34. 34. 37. 44. 46. 53. 54. 67. 68. 53. 32. 0. 0. 0. 0. 0. 0.
      0. 0. 0. 16. 20. 15. 13. 15. 7. 2. 8. 15. 16. 10. 17. 15. 9. 0. 0.
      0. 0. 0. 19. 22. 24. 8. 6. 6. 4. 8. 9. 9. 9. 26. 25. 19. 0. 0. 0.
      0. 0. 0. 0. 0. 0. 0. 0. 1. 6. 10. 10. 11. 9. 13. 13. 15. 17. 14.
      14. 20. 16. 9. 0. 0. 0. 0. 11. 15. 18. 14. 14. 11. 11. 10. 10. 9.
      11. 12. 11. 7. 0. 0. 0. 0. 10. 18. 23. 19. 13. 11. 9. 10. 10. 11.
      14. 24. 24. 16. 6. 0. 0. 0. 13. 20. 21. 22. 11. 10. 12. 11. 12.
      12. 12. 15. 18. 16. 11. 0. 0. 0. 0. 19. 21. 22. 16. 13. 12. 11.
      11. 12. 14. 14. 18. 18. 15. 3. 0.</_>
    <_>
      59. 54. 51. 81. 94. 94. 89. 90. 89. 88. 86. 87. 81. 79. 74. 72.
      74. 74. 78. 79. 87. 90. 90. 94. 87. 83. 79. 75. 75. 72. 75. 69.
      66. 68. 75. 79. 36. 36. 6. 6. 12. 19. 16. 15. 12. 10. 11. 16. 15.
      16. 26. 0. 0. 24. 36. 36. 33. 29. 22. 18. 14. 9. 9. 14. 14. 8. 4.
      6. 18. 25. 32. 36. 36. 36. 36. 36. 31. 30. 32. 36. 36. 36. 36. 13.
      3. 0. 1. 26. 28. 29. 29. 29. 27. 25. 16. 17. 20. 25. 36. 36. 36.
      36. 33. 32. 33. 33. 33. 22. 16. 11. 7. 15. 18. 21. 25. 28. 32. 36.
      36. 36. 7. 4. 1. 0. 25. 28. 29. 29. 29. 28. 25. 8. 1. 5. 8. 34.
      36. 36. 33. 10. 7. 6. 11. 19. 22. 23. 24. 23. 21. 15. 12. 14. 18.
      27. 36. 36. 36. 26. 12. 3. 1. 7. 16. 20. 22. 22. 20. 15. 0. 1. 9.
      18.</_>
    <_>
      0. 2. 1. 2. 1. 2. 19. 51. 60. 32. 29. 32. 30. 31. 30. 40. 56. 57.
      45. 29. 35. 28. 34. 35. 32. 44. 42. 22. 2. 2. 1. 0. 3. 3. 29. 89.
      4. 3. 3. 2. 2. 20. 19. 2. 2. 3. 14. 15. 10. 9. 15. 16. 16. 12. 11.
      11. 14. 8. 2. 2. 2. 2. 6. 12. 13. 11. 9. 8. 7. 7. 10. 10. 14. 12.
      6. 1. 1. 1. 1. 2. 3. 2. 1. 1. 1. 1. 1. 1. 1. 1. 7. 22. 22. 14. 1.
      1. 1. 1. 1. 2. 1. 1. 5. 10. 13. 11. 12. 10. 10. 9. 9. 11. 10. 9.
      7. 1. 0. 1. 1. 2. 4. 4. 3. 4. 8. 12. 15. 10. 8. 8. 6. 6. 3. 0. 0.
      0. 19. 21. 19. 8. 8. 8. 8. 8. 8. 8. 8. 5. 3. 0. 0. 0. 2. 21. 21.
      12. 2. 3. 3. 3. 3. 3. 3. 20. 21. 17. 0. 0. 4. 19. 1. 2.</_>
    <_>
      134. 134. 134. 42. 4. 2. 1. 1. 0. 4. 46. 51. 30. 27. 32. 22. 23.
      31. 35. 28. 36. 30. 23. 23. 26. 25. 36. 34. 28. 36. 39. 14. 0. 0.
      0. 0. 9. 0. 0. 3. 3. 3. 3. 3. 3. 12. 18. 12. 12. 14. 19. 17. 12.
      13. 20. 14. 5. 3. 3. 3. 3. 5. 7. 6. 5. 5. 5. 5. 5. 6. 5. 15. 22.
      21. 4. 3. 3. 3. 4. 5. 4. 3. 3. 3. 3. 5. 11. 11. 15. 14. 12. 13.
      13. 17. 15. 10. 3. 3. 3. 3. 3. 3. 3. 4. 6. 8. 8. 19. 18. 13. 7. 7.
      7. 5. 3. 3. 3. 3. 3. 5. 9. 9. 9. 10. 10. 11. 13. 14. 15. 19. 16.
      7. 4. 4. 3. 4. 7. 19. 18. 12. 10. 9. 10. 9. 11. 11. 17. 15. 11. 4.
      4. 4. 4. 6. 10. 12. 12. 11. 12. 12. 11. 9. 11. 12. 11. 9. 4. 4. 4.
      5. 4. 4.</_>
    <_>
      96. 10. 19. 19. 18. 17. 25. 22. 20. 19. 19. 52. 61. 43. 41. 40.
      41. 43. 43. 58. 57. 39. 38. 42. 40. 47. 46. 48. 61. 43. 17. 18.
      12. 6. 1. 0. 31. 31. 31. 31. 32. 33. 32. 32. 32. 32. 32. 32. 32.
      32. 32. 32. 4. 1. 1. 1. 22. 25. 2. 2. 2. 3. 6. 5. 8. 2. 2. 3. 6.
      6. 1. 1. 2. 2. 16. 21. 13. 5. 5. 5. 5. 5. 7. 5. 3. 1. 1. 1. 1. 1.
      1. 1. 1. 1. 1. 18. 19. 5. 5. 5. 6. 5. 6. 10. 20. 17. 1. 1. 1. 14.
      16. 8. 5. 5. 7. 7. 7. 7. 13. 11. 1. 1. 1. 1. 6. 7. 3. 5. 6. 8. 8.
      9. 13. 9. 0. 1. 1. 1. 2. 5. 8. 7. 7. 8. 7. 7. 8. 9. 6. 0. 0. 0. 0.
      12. 13. 6. 5. 5. 4. 4. 5. 11. 9. 1. 0. 0. 14. 23. 0. 0. 3. 16.</_>
    <_>
      115. 117. 101. 80. 60. 52. 55. 70. 75. 77. 80. 83. 83. 82. 78. 71.
      66. 65. 63. 73. 72. 79. 80. 83. 87. 82. 78. 75. 75. 79. 77. 73.
      61. 62. 65. 76. 0. 5. 36. 36. 34. 0. 10. 36. 36. 36. 18. 9. 7. 7.
      7. 6. 8. 7. 6. 5. 5. 7. 13. 36. 36. 36. 36. 5. 4. 4. 12. 21. 19.
      20. 18. 17. 12. 2. 0. 6. 19. 36. 36. 36. 35. 33. 33. 35. 36. 36.
      36. 11. 4. 3. 4. 23. 25. 26. 26. 25. 25. 21. 4. 3. 3. 15. 36. 36.
      36. 32. 26. 21. 19. 18. 19. 19. 20. 21. 18. 15. 17. 20. 28. 36.
      36. 36. 33. 32. 32. 32. 32. 32. 22. 13. 9. 7. 18. 22. 25. 28. 34.
      36. 35. 32. 12. 6. 5. 6. 16. 18. 20. 20. 21. 19. 13. 14. 17. 22.
      36. 36. 36. 26. 16. 9. 6. 13. 20. 21. 22. 21. 16. 8. 7. 9. 17. 32.</_>
    <_>
      136. 101. 87. 84. 86. 97. 116. 106. 88. 74. 75. 83. 83. 83. 85.
      88. 80. 79. 90. 88. 87. 86. 75. 75. 77. 75. 80. 101. 112. 117. 97.
      79. 87. 103. 110. 132. 36. 36. 35. 27. 12. 20. 33. 31. 28. 18. 16.
      23. 26. 20. 16. 13. 13. 16. 18. 20. 26. 32. 34. 31. 27. 24. 21.
      19. 18. 18. 18. 17. 10. 8. 13. 17. 24. 32. 33. 32. 33. 33. 31. 31.
      32. 34. 34. 28. 13. 13. 13. 18. 26. 26. 27. 26. 26. 24. 13. 14.
      17. 26. 33. 33. 32. 30. 27. 25. 24. 23. 24. 24. 22. 20. 17. 17.
      20. 25. 31. 32. 32. 31. 26. 23. 24. 22. 23. 22. 22. 18. 18. 16.
      18. 20. 25. 34. 34. 32. 27. 22. 14. 12. 13. 20. 23. 21. 21. 18.
      15. 14. 18. 28. 33. 32. 33. 33. 34. 34. 34. 31. 21. 13. 14. 20.
      31. 33. 34. 35. 33. 32. 27. 19. 14. 26. 36. 36.</_>
    <_>
      0. 34. 50. 54. 52. 41. 36. 34. 36. 37. 37. 36. 41. 47. 53. 46. 46.
      41. 40. 38. 35. 36. 36. 38. 42. 44. 48. 57. 56. 64. 52. 29. 10. 0.
      0. 0. 0. 0. 0. 0. 0. 0. 20. 26. 15. 5. 4. 13. 24. 28. 28. 22. 21.
      12. 2. 0. 0. 0. 28. 31. 31. 11. 4. 4. 4. 3. 4. 4. 4. 4. 3. 3. 0.
      0. 0. 0. 2. 2. 0. 0. 0. 0. 0. 30. 30. 30. 8. 7. 7. 7. 6. 7. 8. 27.
      26. 24. 7. 0. 0. 0. 3. 8. 10. 11. 11. 13. 15. 17. 19. 17. 18. 21.
      17. 7. 0. 0. 0. 0. 6. 9. 10. 10. 10. 13. 13. 15. 17. 17. 23. 20.
      12. 0. 0. 0. 0. 3. 17. 25. 27. 16. 13. 9. 9. 12. 16. 24. 25. 20.
      6. 0. 0. 0. 0. 8. 15. 19. 18. 16. 14. 13. 12. 13. 13. 12. 12. 9.
      2. 0. 0. 0. 0. 0.</_>
    <_>
      9. 17. 31. 33. 33. 34. 31. 32. 29. 36. 36. 34. 37. 39. 37. 42. 38.
      37. 44. 42. 37. 35. 34. 40. 43. 43. 45. 45. 46. 45. 36. 29. 21.
      16. 12. 8. 0. 0. 1. 3. 8. 14. 14. 17. 14. 5. 6. 25. 24. 6. 5. 4.
      0. 0. 0. 0. 0. 4. 11. 17. 21. 21. 15. 14. 17. 16. 14. 13. 9. 5. 0.
      0. 0. 0. 0. 3. 3. 0. 0. 0. 0. 12. 23. 26. 15. 8. 7. 6. 6. 6. 8. 9.
      28. 26. 22. 0. 0. 0. 0. 3. 3. 3. 3. 4. 4. 12. 21. 24. 19. 14. 8.
      6. 2. 0. 0. 0. 0. 29. 30. 28. 9. 6. 6. 8. 10. 17. 18. 19. 15. 8.
      2. 0. 0. 0. 0. 6. 8. 11. 11. 11. 12. 13. 14. 17. 16. 18. 20. 12.
      6. 0. 0. 0. 0. 10. 16. 19. 16. 14. 12. 12. 13. 11. 11. 10. 12. 9.
      4. 0. 0. 0. 0. 0.</_>
    <_>
      3. 2. 1. 5. 11. 30. 38. 53. 52. 51. 42. 42. 46. 43. 39. 39. 43.
      43. 44. 41. 40. 32. 37. 39. 38. 36. 33. 35. 31. 26. 17. 3. 3. 0.
      4. 5. 0. 0. 0. 5. 8. 9. 12. 16. 10. 8. 13. 20. 14. 6. 5. 2. 0. 0.
      0. 0. 5. 9. 13. 15. 15. 11. 12. 16. 18. 16. 11. 5. 0. 0. 0. 0. 0.
      2. 2. 1. 0. 0. 0. 0. 6. 8. 8. 8. 9. 12. 12. 14. 14. 17. 18. 13. 2.
      0. 0. 0. 10. 25. 24. 9. 6. 5. 6. 5. 5. 5. 6. 25. 25. 24. 0. 0. 0.
      0. 18. 20. 23. 8. 6. 5. 8. 8. 10. 10. 20. 18. 13. 0. 0. 0. 0. 5.
      10. 12. 12. 12. 9. 11. 11. 11. 12. 15. 13. 10. 0. 0. 0. 0. 0. 2.
      3. 3. 3. 6. 14. 17. 16. 13. 12. 9. 7. 4. 0. 0. 2. 16. 1. 0. 0. 1.
      2. 6.</_>
    <_>
      10. 15. 79. 48. 12. 12. 12. 19. 48. 59. 68. 62. 57. 50. 45. 49.
      55. 59. 64. 60. 53. 53. 55. 53. 57. 57. 56. 58. 55. 42. 4. 4. 14.
      17. 112. 74. 24. 25. 23. 1. 0. 13. 32. 22. 3. 5. 11. 15. 19. 20.
      18. 13. 12. 24. 22. 12. 10. 7. 4. 4. 4. 4. 10. 16. 20. 22. 17. 15.
      18. 19. 17. 14. 10. 6. 2. 3. 4. 6. 7. 6. 4. 4. 4. 6. 9. 10. 12.
      13. 12. 10. 12. 24. 24. 24. 6. 4. 2. 1. 2. 18. 20. 22. 10. 8. 8.
      8. 8. 9. 17. 22. 19. 10. 2. 2. 2. 8. 11. 13. 13. 12. 12. 12. 12.
      15. 15. 14. 11. 2. 2. 1. 11. 20. 22. 19. 9. 9. 9. 9. 8. 9. 22. 21.
      18. 2. 2. 2. 23. 25. 25. 10. 5. 4. 4. 5. 6. 8. 26. 26. 24. 3. 4.
      31. 27. 0. 8. 24. 24. 24. 0. 0. 16. 23.</_>
    <_>
      22. 3. 2. 4. 4. 7. 13. 27. 49. 62. 58. 50. 34. 40. 39. 44. 47. 53.
      49. 46. 39. 34. 35. 39. 36. 33. 35. 27. 22. 20. 15. 0. 0. 0. 0. 0.
      0. 1. 4. 7. 11. 14. 12. 9. 8. 17. 16. 9. 5. 5. 0. 0. 0. 0. 3. 7.
      10. 11. 14. 12. 10. 10. 16. 17. 14. 9. 3. 0. 0. 0. 0. 0. 2. 2. 2.
      0. 0. 0. 7. 22. 22. 23. 9. 8. 8. 8. 8. 9. 12. 20. 18. 12. 3. 0. 0.
      0. 0. 6. 9. 12. 10. 10. 9. 9. 10. 11. 12. 14. 11. 8. 0. 0. 0. 0.
      0. 2. 3. 3. 3. 9. 13. 16. 14. 11. 10. 8. 6. 4. 0. 0. 0. 0. 5. 8.
      13. 11. 10. 10. 9. 9. 11. 12. 15. 12. 9. 3. 0. 0. 2. 6. 10. 11.
      13. 12. 12. 12. 12. 11. 11. 11. 10. 8. 5. 2. 3. 2. 1. 1. 1. 2. 4.
      7.</_>
    <_>
      4. 0. 0. 0. 21. 50. 66. 48. 34. 31. 27. 31. 34. 44. 48. 46. 39.
      35. 39. 41. 40. 37. 41. 44. 44. 61. 56. 35. 0. 0. 0. 0. 0. 0. 0.
      0. 0. 0. 0. 0. 0. 0. 4. 9. 12. 15. 17. 11. 9. 8. 18. 19. 8. 5. 2.
      0. 0. 0. 0. 3. 9. 13. 14. 16. 13. 12. 15. 18. 16. 13. 8. 2. 0. 0.
      0. 0. 2. 2. 0. 0. 0. 0. 8. 24. 24. 20. 6. 6. 5. 6. 6. 6. 7. 22.
      20. 16. 0. 0. 0. 0. 6. 8. 7. 8. 8. 11. 12. 14. 15. 15. 16. 12. 4.
      0. 0. 0. 15. 23. 23. 10. 6. 6. 6. 7. 10. 10. 16. 20. 14. 3. 0. 0.
      0. 1. 1. 0. 0. 0. 14. 23. 23. 4. 0. 0. 0. 0. 0. 0. 0. 0. 15. 19.
      21. 7. 6. 5. 5. 5. 5. 6. 21. 20. 18. 0. 0. 0. 3. 0. 0. 0. 0. 0.</_>
    <_>
      1. 3. 10. 6. 0. 6. 9. 16. 26. 30. 43. 56. 58. 41. 35. 37. 34. 32.
      31. 40. 48. 48. 40. 34. 33. 37. 37. 34. 34. 36. 36. 35. 35. 28.
      16. 6. 0. 0. 1. 9. 4. 0. 1. 5. 8. 8. 11. 16. 15. 9. 11. 16. 14.
      10. 9. 5. 1. 0. 0. 0. 4. 7. 9. 11. 13. 12. 11. 11. 17. 22. 18. 11.
      5. 0. 0. 0. 0. 0. 0. 3. 3. 1. 0. 0. 0. 7. 19. 20. 15. 7. 8. 10.
      11. 11. 11. 11. 22. 21. 16. 5. 0. 1. 1. 1. 1. 4. 6. 7. 18. 22. 19.
      10. 5. 6. 6. 5. 3. 2. 1. 1. 3. 6. 15. 16. 17. 9. 6. 6. 8. 9. 11.
      16. 14. 11. 3. 1. 0. 0. 3. 5. 16. 16. 11. 5. 6. 7. 8. 8. 11. 16.
      13. 9. 3. 0. 0. 0. 4. 5. 8. 6. 6. 7. 9. 11. 12. 13. 17. 18. 14. 6.
      2. 1.</_>
    <_>
      7. 22. 47. 23. 6. 57. 30. 24. 8. 1. 1. 2. 15. 45. 56. 45. 40. 36.
      41. 47. 51. 63. 57. 40. 42. 41. 42. 45. 41. 39. 28. 2. 0. 12. 18.
      0. 2. 25. 8. 2. 4. 7. 14. 17. 20. 22. 20. 15. 12. 21. 20. 20. 10.
      9. 6. 5. 5. 5. 4. 8. 11. 13. 16. 19. 13. 12. 14. 16. 14. 13. 10.
      8. 3. 2. 1. 1. 2. 4. 5. 4. 6. 3. 3. 3. 10. 12. 14. 16. 14. 11. 11.
      14. 13. 13. 9. 5. 3. 2. 1. 1. 2. 2. 1. 1. 1. 0. 18. 18. 18. 0. 0.
      0. 0. 0. 0. 1. 1. 1. 3. 6. 8. 9. 9. 7. 8. 7. 8. 11. 10. 11. 8. 3.
      0. 0. 0. 2. 6. 10. 10. 10. 9. 7. 8. 8. 10. 10. 11. 10. 7. 0. 0. 0.
      0. 18. 19. 19. 3. 3. 2. 2. 2. 2. 2. 4. 19. 19. 17. 0. 0. 10. 17.
      0.</_>
    <_>
      7. 29. 48. 55. 57. 51. 47. 40. 35. 33. 32. 33. 36. 40. 45. 44. 42.
      35. 36. 34. 34. 38. 40. 44. 45. 44. 46. 49. 50. 49. 48. 54. 53.
      51. 35. 10. 0. 0. 15. 2. 0. 0. 6. 11. 14. 15. 18. 22. 16. 10. 15.
      27. 26. 11. 8. 7. 0. 0. 0. 0. 1. 7. 13. 17. 19. 22. 19. 16. 17.
      24. 25. 22. 15. 8. 0. 0. 0. 0. 0. 1. 3. 4. 0. 0. 0. 0. 0. 3. 10.
      16. 19. 21. 18. 16. 15. 18. 19. 20. 18. 12. 5. 0. 0. 0. 0. 2. 24.
      28. 31. 10. 9. 9. 12. 14. 14. 14. 14. 34. 31. 24. 0. 0. 0. 0. 11.
      26. 29. 27. 10. 8. 8. 8. 8. 8. 8. 10. 29. 27. 22. 0. 0. 0. 0. 3.
      7. 9. 8. 9. 10. 13. 15. 18. 19. 20. 27. 22. 16. 0. 0. 0. 0. 0. 0.
      0. 0. 0. 0. 13. 33. 34. 18. 0.</_>
    <_>
      34. 22. 43. 17. 2. 3. 4. 4. 34. 50. 59. 46. 40. 33. 33. 39. 45.
      51. 48. 44. 44. 39. 41. 46. 43. 58. 51. 24. 3. 2. 1. 5. 101. 46.
      15. 0. 11. 4. 2. 1. 1. 2. 5. 29. 4. 5. 4. 9. 13. 15. 16. 17. 13.
      11. 19. 20. 16. 7. 7. 3. 2. 2. 2. 4. 9. 12. 16. 15. 12. 12. 17.
      19. 15. 12. 9. 2. 2. 4. 4. 5. 5. 5. 3. 3. 3. 3. 6. 7. 9. 8. 8. 18.
      18. 18. 8. 8. 7. 6. 3. 3. 1. 1. 6. 11. 15. 13. 11. 10. 10. 10. 10.
      11. 9. 7. 4. 1. 1. 1. 2. 9. 8. 8. 8. 10. 12. 13. 13. 14. 16. 12.
      6. 1. 1. 2. 4. 9. 10. 11. 12. 11. 12. 12. 12. 10. 12. 11. 6. 2. 2.
      1. 1. 21. 19. 19. 2. 3. 4. 4. 3. 4. 18. 20. 20. 6. 0. 3. 31. 27.
      1. 0. 0. 2.</_>
    <_>
      28. 6. 4. 12. 11. 7. 3. 2. 4. 54. 61. 47. 36. 30. 26. 28. 32. 41.
      44. 42. 36. 36. 32. 33. 33. 37. 41. 43. 39. 50. 39. 1. 0. 0. 0. 0.
      3. 2. 1. 1. 15. 2. 0. 0. 2. 7. 9. 11. 13. 12. 6. 7. 18. 18. 6. 6.
      2. 0. 0. 0. 0. 4. 9. 12. 15. 15. 11. 11. 15. 14. 13. 8. 4. 2. 3.
      2. 0. 1. 2. 2. 0. 0. 1. 0. 5. 7. 9. 11. 10. 11. 11. 9. 10. 10. 8.
      6. 0. 0. 0. 1. 0. 16. 17. 15. 8. 7. 6. 8. 8. 9. 15. 15. 10. 1. 1.
      0. 0. 5. 15. 19. 14. 10. 8. 6. 8. 10. 14. 20. 15. 6. 1. 0. 0. 2.
      4. 5. 5. 2. 2. 10. 14. 17. 11. 9. 8. 5. 2. 0. 0. 0. 2. 7. 11. 12.
      14. 11. 10. 11. 16. 13. 11. 6. 1. 1. 0. 1. 14. 1. 2. 3. 3. 12.</_>
    <_>
      12. 14. 8. 3. 3. 1. 15. 40. 50. 50. 43. 43. 37. 29. 30. 31. 37.
      39. 39. 41. 40. 32. 31. 32. 32. 33. 37. 44. 44. 44. 30. 13. 3. 0.
      0. 0. 2. 2. 2. 3. 3. 3. 3. 3. 2. 2. 0. 0. 0. 1. 1. 0. 2. 3. 13.
      12. 10. 10. 8. 8. 20. 19. 8. 7. 3. 0. 0. 0. 17. 24. 25. 12. 8. 8.
      9. 10. 12. 17. 21. 18. 9. 0. 0. 0. 0. 0. 0. 0. 0. 0. 0. 17. 20.
      22. 8. 5. 5. 6. 8. 8. 17. 22. 21. 12. 0. 0. 0. 3. 3. 3. 3. 3. 10.
      17. 20. 13. 10. 7. 5. 0. 0. 0. 0. 2. 7. 7. 9. 9. 11. 12. 15. 13.
      15. 15. 9. 3. 0. 0. 0. 2. 8. 8. 6. 6. 9. 12. 14. 12. 12. 16. 11.
      3. 0. 0. 0. 16. 21. 13. 7. 7. 5. 6. 5. 4. 6. 19. 15. 2. 0. 0. 0.
      0.</_>
    <_>
      22. 4. 3. 2. 2. 2. 2. 2. 11. 53. 65. 64. 41. 36. 36. 31. 26. 25.
      29. 42. 52. 49. 42. 30. 29. 27. 31. 32. 33. 32. 38. 37. 55. 53.
      33. 0. 17. 3. 1. 0. 0. 0. 0. 0. 0. 8. 8. 11. 14. 14. 7. 8. 18. 20.
      8. 6. 3. 0. 0. 0. 0. 25. 26. 15. 7. 7. 8. 10. 10. 10. 16. 23. 16.
      4. 1. 1. 1. 1. 3. 2. 1. 1. 1. 1. 4. 9. 9. 9. 9. 9. 11. 14. 14. 14.
      20. 14. 4. 0. 0. 0. 0. 6. 8. 6. 8. 10. 10. 11. 14. 15. 16. 16. 11.
      0. 0. 0. 0. 7. 12. 16. 12. 13. 10. 10. 10. 10. 11. 11. 9. 3. 0. 0.
      0. 2. 26. 27. 8. 5. 5. 5. 4. 4. 6. 8. 23. 20. 2. 0. 0. 0. 25. 26.
      19. 6. 6. 6. 8. 11. 14. 14. 16. 11. 5. 0. 0. 0. 0. 0. 0. 0. 2. 16.</_>
    <_>
      15. 13. 17. 12. 12. 12. 12. 12. 12. 12. 24. 57. 66. 56. 51. 42.
      41. 39. 39. 50. 60. 47. 36. 31. 28. 30. 33. 40. 39. 36. 39. 57.
      51. 16. 0. 0. 21. 21. 21. 21. 21. 21. 21. 21. 21. 22. 21. 1. 0. 0.
      0. 0. 0. 0. 0. 7. 10. 11. 10. 13. 8. 6. 19. 13. 5. 5. 1. 0. 0. 0.
      23. 23. 10. 8. 8. 9. 11. 11. 18. 17. 12. 1. 0. 0. 0. 0. 0. 0. 0.
      0. 0. 11. 16. 16. 9. 8. 8. 8. 9. 9. 14. 12. 7. 0. 0. 0. 2. 8. 12.
      14. 16. 12. 12. 14. 13. 12. 7. 2. 0. 0. 0. 16. 18. 20. 6. 5. 5. 4.
      6. 7. 20. 18. 16. 0. 0. 0. 4. 9. 10. 10. 8. 9. 10. 8. 10. 11. 9.
      6. 0. 0. 0. 4. 7. 8. 8. 9. 10. 11. 14. 11. 16. 13. 6. 0. 0. 8. 0.
      0. 0. 1. 2. 21.</_>
    <_>
      103. 91. 61. 35. 51. 65. 55. 54. 50. 5. 1. 55. 7. 6. 6. 2. 30. 60.
      52. 38. 32. 37. 52. 61. 52. 45. 46. 43. 47. 62. 54. 5. 1. 0. 53.
      0. 12. 9. 8. 8. 7. 9. 8. 23. 12. 7. 9. 11. 15. 14. 17. 20. 16. 13.
      14. 20. 20. 16. 12. 12. 8. 10. 10. 17. 25. 25. 25. 16. 15. 15. 15.
      14. 17. 21. 22. 17. 14. 8. 8. 7. 7. 10. 10. 9. 8. 8. 8. 10. 14.
      16. 15. 13. 13. 12. 12. 10. 12. 14. 11. 10. 7. 4. 4. 4. 6. 8. 10.
      9. 10. 11. 12. 13. 14. 14. 17. 15. 10. 4. 4. 4. 4. 4. 4. 4. 4. 3.
      17. 18. 18. 3. 3. 3. 3. 3. 3. 4. 4. 9. 16. 16. 15. 8. 7. 6. 8. 8.
      10. 16. 15. 12. 6. 3. 3. 2. 16. 17. 16. 6. 4. 3. 4. 7. 9. 11. 11.
      8. 2. 1. 0. 17. 0. 0.</_>
    <_>
      1. 9. 8. 5. 0. 0. 5. 1. 1. 1. 1. 6. 30. 47. 47. 40. 39. 34. 28.
      33. 40. 48. 44. 38. 31. 35. 37. 42. 41. 47. 53. 46. 24. 1. 1. 1.
      0. 0. 22. 0. 1. 0. 3. 6. 10. 12. 13. 9. 5. 8. 17. 13. 5. 3. 0. 0.
      0. 0. 20. 20. 20. 7. 6. 6. 6. 7. 10. 13. 17. 13. 5. 0. 0. 0. 0. 2.
      1. 0. 0. 0. 0. 7. 13. 18. 13. 9. 7. 7. 7. 10. 15. 18. 12. 4. 0. 0.
      0. 1. 7. 7. 8. 8. 10. 11. 13. 14. 12. 16. 13. 7. 0. 0. 0. 0. 1. 0.
      0. 0. 13. 21. 21. 15. 0. 0. 0. 0. 0. 0. 0. 0. 4. 6. 7. 7. 8. 8. 9.
      11. 13. 12. 15. 11. 5. 0. 0. 0. 0. 3. 4. 4. 2. 3. 2. 4. 4. 4. 20.
      20. 18. 0. 0. 0. 20. 3. 3. 4. 3. 3. 2. 2. 2. 1.</_>
    <_>
      0. 0. 30. 51. 60. 48. 40. 36. 29. 28. 33. 43. 54. 53. 47. 37. 35.
      37. 37. 40. 44. 49. 50. 56. 46. 15. 0. 0. 0. 0. 0. 1. 1. 1. 0. 0.
      0. 0. 0. 0. 0. 0. 0. 0. 6. 10. 12. 16. 16. 7. 7. 13. 19. 17. 6. 4.
      0. 0. 0. 0. 22. 24. 24. 11. 8. 8. 8. 9. 11. 14. 21. 20. 13. 0. 0.
      0. 0. 0. 1. 0. 0. 0. 0. 0. 5. 8. 10. 10. 9. 10. 9. 10. 12. 14. 15.
      11. 6. 0. 0. 0. 0. 9. 13. 16. 13. 11. 9. 9. 8. 9. 13. 10. 8. 3. 0.
      0. 0. 0. 5. 11. 15. 17. 15. 12. 12. 15. 13. 13. 10. 4. 0. 0. 0. 0.
      2. 7. 8. 8. 9. 11. 11. 13. 13. 14. 17. 14. 7. 0. 0. 0. 0. 6. 7. 8.
      8. 10. 11. 11. 14. 13. 15. 16. 11. 5. 0. 0. 0. 0. 3. 0. 0. 0.</_>
    <_>
      52. 36. 47. 39. 15. 3. 1. 2. 15. 49. 57. 50. 43. 40. 36. 31. 36.
      50. 61. 60. 42. 34. 36. 35. 39. 38. 40. 56. 53. 48. 21. 1. 1. 1.
      1. 48. 5. 0. 0. 0. 3. 22. 3. 2. 2. 6. 11. 15. 12. 16. 14. 8. 12.
      21. 19. 7. 6. 1. 1. 1. 1. 23. 23. 23. 10. 9. 8. 9. 11. 12. 18. 20.
      16. 8. 0. 0. 0. 2. 5. 4. 2. 3. 5. 5. 8. 14. 18. 20. 22. 17. 17.
      20. 19. 15. 12. 8. 4. 5. 5. 5. 17. 21. 21. 15. 13. 11. 10. 10. 12.
      16. 18. 13. 4. 3. 3. 3. 9. 18. 21. 15. 12. 11. 10. 9. 12. 19. 18.
      14. 3. 1. 1. 1. 5. 9. 11. 9. 9. 9. 9. 9. 12. 13. 14. 10. 3. 1. 1.
      1. 22. 23. 23. 4. 4. 4. 4. 4. 4. 4. 4. 4. 3. 1. 1. 6. 0. 0. 0. 0.
      0. 0. 0. 0.</_>
    <_>
      12. 22. 51. 68. 63. 54. 44. 42. 37. 30. 28. 26. 25. 27. 28. 33.
      38. 41. 40. 32. 30. 28. 31. 35. 35. 34. 30. 31. 31. 39. 53. 58.
      63. 41. 19. 7. 0. 0. 0. 0. 0. 2. 9. 14. 16. 21. 19. 11. 10. 24.
      27. 11. 7. 6. 0. 0. 0. 0. 31. 32. 34. 12. 11. 12. 12. 11. 13. 17.
      27. 26. 18. 0. 0. 0. 0. 0. 3. 3. 0. 0. 0. 0. 30. 33. 33. 8. 7. 7.
      8. 8. 6. 7. 10. 29. 26. 1. 0. 0. 0. 2. 4. 4. 3. 3. 3. 16. 21. 24.
      15. 13. 9. 6. 0. 0. 0. 0. 3. 10. 13. 15. 13. 12. 14. 14. 14. 15.
      15. 16. 12. 0. 0. 0. 0. 19. 26. 28. 10. 8. 7. 6. 6. 8. 8. 10. 28.
      25. 6. 0. 0. 0. 1. 9. 12. 14. 16. 15. 16. 16. 16. 15. 15. 13. 11.
      0. 0. 0. 0. 0. 0. 0. 0. 1.</_>
    <_>
      3. 5. 6. 0. 0. 0. 0. 29. 51. 61. 57. 44. 41. 35. 29. 24. 25. 28.
      41. 57. 59. 57. 36. 25. 29. 32. 34. 33. 31. 27. 27. 34. 50. 46.
      37. 13. 0. 0. 3. 3. 2. 0. 0. 0. 0. 0. 0. 2. 7. 14. 14. 18. 16. 7.
      9. 22. 21. 9. 6. 0. 0. 0. 0. 12. 28. 28. 17. 10. 10. 11. 11. 11.
      14. 24. 23. 16. 0. 0. 0. 0. 2. 3. 1. 0. 0. 0. 25. 28. 29. 16. 10.
      10. 10. 10. 10. 11. 11. 8. 5. 0. 0. 0. 7. 22. 24. 24. 8. 8. 8. 10.
      11. 12. 20. 20. 18. 6. 0. 0. 0. 7. 11. 14. 11. 13. 12. 12. 15. 16.
      18. 17. 13. 6. 0. 0. 0. 0. 3. 3. 4. 4. 2. 12. 20. 23. 15. 11. 8.
      5. 0. 0. 0. 0. 0. 0. 0. 0. 15. 28. 28. 5. 0. 0. 0. 0. 0. 0. 0. 0.
      0. 0. 0. 0.</_>
    <_>
      0. 3. 3. 0. 3. 2. 0. 2. 3. 1. 4. 11. 42. 67. 61. 42. 39. 33. 29.
      26. 32. 40. 55. 48. 42. 30. 28. 29. 30. 32. 34. 38. 41. 34. 24.
      11. 0. 7. 3. 0. 0. 1. 2. 5. 10. 12. 13. 9. 5. 13. 20. 11. 5. 5. 0.
      0. 0. 0. 12. 24. 23. 9. 8. 7. 7. 8. 8. 10. 14. 21. 16. 6. 0. 0. 0.
      0. 2. 2. 1. 0. 0. 0. 0. 21. 23. 22. 5. 4. 6. 5. 5. 5. 5. 4. 2. 2.
      0. 0. 0. 0. 2. 6. 7. 6. 8. 9. 11. 11. 12. 12. 13. 15. 8. 0. 0. 0.
      0. 2. 3. 3. 3. 2. 2. 9. 15. 17. 12. 10. 7. 4. 0. 0. 0. 0. 1. 17.
      19. 10. 6. 6. 5. 5. 6. 5. 6. 20. 18. 15. 0. 0. 0. 0. 22. 23. 19.
      5. 4. 5. 6. 10. 15. 15. 12. 7. 1. 0. 0. 0. 15. 2. 2. 0.</_>
    <_>
      1. 0. 0. 0. 8. 54. 68. 37. 30. 26. 23. 24. 26. 50. 53. 43. 25. 25.
      27. 25. 24. 31. 34. 36. 45. 55. 36. 0. 0. 0. 0. 0. 3. 1. 0. 0. 0.
      0. 0. 1. 0. 0. 0. 1. 0. 6. 12. 11. 12. 14. 11. 6. 12. 18. 10. 6.
      5. 1. 0. 0. 0. 21. 23. 23. 8. 8. 8. 8. 9. 8. 11. 19. 17. 11. 0. 0.
      0. 0. 0. 2. 2. 0. 0. 0. 0. 2. 4. 4. 2. 3. 2. 2. 2. 3. 3. 20. 20.
      17. 0. 0. 0. 1. 4. 7. 5. 7. 7. 8. 9. 11. 11. 14. 14. 9. 0. 0. 0.
      0. 2. 15. 16. 13. 8. 7. 6. 6. 8. 8. 14. 12. 7. 0. 0. 0. 0. 10. 15.
      15. 8. 8. 6. 6. 7. 8. 9. 13. 11. 2. 1. 1. 0. 0. 0. 3. 5. 6. 7. 17.
      16. 4. 6. 4. 3. 2. 0. 0. 0. 0. 0. 0. 0. 0.</_>
    <_>
      68. 64. 57. 73. 88. 90. 94. 98. 105. 106. 105. 103. 97. 86. 78.
      77. 72. 75. 80. 93. 96. 99. 95. 96. 96. 96. 96. 90. 89. 89. 87.
      83. 70. 51. 55. 59. 36. 24. 18. 11. 8. 7. 14. 21. 19. 7. 5. 13.
      23. 27. 36. 36. 36. 36. 24. 0. 0. 0. 21. 23. 25. 25. 25. 22. 18.
      6. 0. 6. 15. 36. 36. 36. 36. 34. 31. 32. 36. 36. 36. 36. 36. 30.
      28. 28. 30. 32. 33. 33. 33. 33. 31. 28. 0. 1. 4. 36. 36. 36. 36.
      16. 10. 8. 8. 21. 24. 26. 26. 24. 23. 17. 11. 13. 18. 32. 36. 36.
      36. 34. 12. 8. 8. 13. 22. 24. 25. 24. 23. 21. 11. 12. 15. 22. 36.
      36. 36. 36. 8. 3. 0. 12. 27. 28. 30. 30. 28. 27. 24. 0. 1. 5. 12.
      36. 36. 36. 32. 25. 22. 18. 17. 18. 20. 20. 19. 20. 19. 13. 16.
      20. 27. 36. 36. 36.</_>
    <_>
      90. 82. 78. 88. 93. 91. 92. 92. 94. 97. 103. 96. 95. 93. 87. 83.
      86. 88. 90. 94. 101. 101. 101. 95. 94. 90. 88. 70. 68. 66. 67. 87.
      96. 108. 118. 120. 36. 36. 34. 27. 22. 16. 15. 11. 18. 22. 27. 10.
      8. 13. 27. 29. 33. 36. 36. 36. 29. 3. 3. 3. 23. 26. 23. 23. 21.
      18. 16. 10. 6. 14. 22. 36. 36. 36. 36. 33. 33. 33. 36. 36. 36. 36.
      33. 31. 29. 30. 31. 32. 32. 32. 31. 32. 31. 5. 5. 6. 34. 36. 36.
      36. 32. 15. 11. 12. 21. 23. 23. 23. 24. 24. 21. 13. 16. 18. 32.
      36. 36. 36. 31. 14. 12. 12. 21. 24. 24. 25. 24. 23. 23. 15. 17.
      19. 31. 36. 36. 36. 16. 10. 8. 6. 27. 28. 29. 28. 28. 28. 27. 14.
      7. 9. 14. 36. 36. 36. 32. 26. 22. 20. 19. 20. 22. 22. 22. 22. 21.
      16. 18. 21. 25. 36. 36. 35.</_>
    <_>
      127. 113. 85. 74. 65. 84. 91. 92. 88. 92. 90. 87. 87. 79. 74. 69.
      71. 85. 91. 91. 87. 88. 87. 89. 83. 81. 74. 74. 79. 89. 108. 116.
      119. 118. 118. 115. 36. 29. 28. 33. 36. 36. 36. 36. 34. 21. 23.
      33. 25. 16. 13. 12. 14. 15. 16. 12. 15. 34. 36. 36. 15. 7. 7. 7.
      21. 22. 20. 17. 17. 13. 5. 3. 7. 22. 33. 36. 36. 33. 32. 32. 34.
      36. 36. 34. 8. 7. 8. 18. 29. 30. 29. 29. 27. 25. 9. 8. 9. 28. 36.
      36. 34. 20. 16. 14. 22. 25. 26. 26. 26. 25. 24. 16. 20. 27. 36.
      36. 36. 33. 32. 32. 33. 33. 32. 23. 16. 12. 17. 20. 25. 28. 33.
      36. 35. 33. 27. 18. 10. 8. 12. 14. 16. 21. 23. 23. 23. 25. 27. 32.
      36. 36. 36. 25. 15. 11. 17. 22. 24. 25. 24. 23. 14. 11. 17. 29.
      36. 36. 36. 36. 12. 9. 27. 36.</_>
    <_>
      38. 81. 8. 1. 1. 4. 7. 2. 2. 2. 3. 3. 14. 51. 63. 55. 41. 38. 32.
      31. 31. 35. 50. 55. 42. 29. 22. 27. 27. 27. 30. 31. 35. 52. 47.
      29. 18. 16. 10. 5. 2. 2. 2. 2. 2. 2. 2. 2. 4. 11. 13. 14. 14. 14.
      12. 10. 21. 22. 11. 11. 4. 3. 2. 2. 6. 25. 25. 14. 9. 10. 11. 11.
      14. 14. 18. 16. 11. 1. 1. 1. 1. 1. 1. 1. 1. 1. 1. 1. 19. 23. 23.
      7. 6. 7. 7. 7. 7. 7. 12. 10. 6. 1. 1. 1. 1. 24. 24. 23. 4. 4. 4.
      4. 4. 4. 4. 4. 4. 1. 0. 0. 0. 4. 7. 9. 9. 10. 9. 8. 8. 10. 11. 15.
      11. 6. 0. 0. 0. 0. 3. 7. 7. 7. 7. 10. 12. 13. 11. 13. 15. 11. 4.
      0. 0. 0. 0. 6. 8. 7. 9. 9. 12. 13. 13. 12. 16. 14. 9. 0. 0. 0. 0.
      0.</_>
    <_>
      18. 19. 3. 2. 12. 48. 61. 57. 42. 37. 30. 26. 29. 32. 41. 41. 34.
      32. 33. 35. 37. 36. 33. 45. 47. 25. 21. 12. 2. 0. 1. 0. 3. 18. 18.
      10. 5. 5. 5. 5. 4. 4. 4. 5. 4. 4. 26. 23. 3. 5. 7. 14. 18. 13. 15.
      14. 10. 10. 19. 18. 9. 7. 4. 2. 2. 1. 19. 22. 22. 11. 8. 8. 8. 8.
      11. 13. 18. 13. 5. 0. 0. 0. 0. 0. 0. 0. 0. 0. 0. 3. 3. 3. 3. 3.
      20. 21. 21. 3. 3. 3. 3. 1. 0. 0. 0. 11. 16. 18. 7. 6. 5. 5. 8. 7.
      8. 19. 18. 13. 0. 0. 0. 0. 7. 10. 11. 9. 8. 9. 9. 9. 9. 12. 9. 6.
      0. 0. 0. 0. 0. 0. 0. 0. 2. 21. 20. 9. 0. 0. 0. 0. 0. 0. 0. 0. 2.
      2. 3. 3. 3. 9. 14. 16. 12. 10. 7. 6. 1. 1. 0. 23. 4. 2.</_>
    <_>
      2. 1. 16. 6. 1. 1. 1. 22. 45. 51. 44. 32. 30. 31. 29. 40. 40. 40.
      32. 28. 31. 30. 27. 28. 27. 32. 47. 35. 0. 0. 0. 0. 0. 0. 2. 0. 0.
      0. 1. 1. 0. 17. 0. 0. 0. 7. 9. 11. 12. 14. 10. 6. 13. 18. 9. 6. 5.
      1. 1. 1. 1. 21. 21. 21. 8. 6. 6. 7. 8. 9. 11. 19. 14. 11. 2. 0. 0.
      0. 1. 2. 1. 0. 0. 0. 1. 1. 3. 5. 6. 5. 17. 15. 9. 5. 5. 4. 2. 0.
      0. 0. 0. 0. 0. 0. 0. 0. 20. 21. 21. 0. 0. 0. 0. 0. 0. 0. 0. 0. 5.
      7. 10. 8. 6. 7. 8. 8. 9. 10. 12. 9. 2. 0. 0. 0. 6. 16. 18. 5. 6.
      6. 5. 5. 5. 4. 9. 17. 15. 0. 0. 0. 0. 20. 21. 19. 2. 2. 2. 2. 2.
      2. 2. 2. 2. 1. 0. 0. 0. 0. 1. 2. 0. 0.</_>
    <_>
      45. 16. 58. 100. 78. 15. 15. 16. 33. 54. 66. 64. 55. 50. 46. 47.
      51. 59. 46. 42. 34. 39. 37. 37. 34. 34. 35. 38. 37. 26. 11. 2. 1.
      1. 28. 32. 18. 18. 18. 18. 18. 18. 18. 18. 19. 19. 19. 12. 2. 1.
      0. 0. 0. 1. 1. 1. 1. 1. 13. 27. 3. 4. 12. 16. 20. 21. 18. 15. 24.
      24. 13. 12. 6. 6. 6. 28. 29. 29. 16. 16. 16. 16. 18. 26. 21. 14.
      6. 5. 5. 6. 5. 3. 3. 3. 3. 7. 9. 9. 13. 18. 19. 10. 8. 6. 2. 2. 2.
      2. 5. 12. 16. 19. 13. 13. 17. 14. 12. 6. 2. 2. 2. 15. 19. 20. 7.
      7. 5. 6. 7. 20. 19. 16. 1. 1. 2. 16. 18. 7. 7. 7. 7. 7. 8. 21. 18.
      2. 2. 2. 5. 9. 12. 10. 10. 10. 12. 12. 14. 11. 5. 1. 7. 28. 0. 0.
      0. 0. 0. 0. 0. 0. 0. 0.</_>
    <_>
      27. 24. 23. 90. 104. 103. 104. 85. 74. 61. 57. 74. 80. 89. 93. 88.
      79. 72. 74. 74. 78. 81. 75. 73. 74. 69. 53. 55. 58. 72. 108. 106.
      106. 97. 14. 10. 36. 36. 36. 36. 36. 36. 36. 36. 36. 36. 35. 3. 1.
      1. 0. 0. 29. 22. 14. 12. 9. 12. 14. 14. 9. 10. 18. 21. 25. 30. 30.
      13. 10. 8. 17. 19. 18. 15. 14. 9. 7. 11. 16. 25. 27. 29. 28. 28.
      31. 31. 31. 25. 21. 16. 14. 14. 16. 15. 13. 12. 15. 19. 25. 31.
      31. 27. 22. 18. 16. 17. 18. 19. 17. 16. 16. 19. 23. 31. 31. 25.
      19. 16. 15. 15. 16. 17. 18. 18. 16. 21. 25. 31. 31. 12. 5. 3. 2.
      16. 17. 19. 19. 18. 9. 10. 13. 31. 31. 31. 13. 11. 9. 22. 22. 24.
      22. 21. 7. 7. 11. 25. 25. 13. 0. 1. 2. 3. 7. 11. 16. 19. 22. 24.
      33. 34. 34. 34.</_>
    <_>
      2. 5. 6. 6. 29. 0. 0. 3. 1. 3. 13. 58. 68. 39. 37. 25. 21. 28. 47.
      39. 33. 26. 30. 33. 43. 47. 51. 60. 41. 4. 0. 0. 0. 0. 0. 0. 0. 2.
      4. 4. 5. 6. 5. 1. 0. 0. 0. 0. 0. 0. 5. 0. 0. 0. 7. 7. 9. 13. 9. 6.
      12. 16. 12. 4. 4. 0. 0. 0. 8. 14. 16. 6. 5. 4. 5. 4. 5. 6. 10. 8.
      3. 0. 0. 0. 1. 2. 1. 0. 0. 0. 2. 5. 6. 6. 7. 7. 8. 10. 10. 15. 12.
      8. 1. 0. 0. 0. 4. 6. 6. 7. 7. 8. 9. 12. 12. 13. 11. 6. 0. 0. 0.
      12. 15. 16. 6. 6. 7. 7. 8. 8. 11. 14. 12. 8. 1. 1. 1. 6. 7. 7. 7.
      8. 10. 11. 14. 13. 14. 11. 7. 1. 1. 0. 3. 6. 7. 7. 8. 8. 9. 10.
      10. 13. 11. 8. 0. 0. 0. 21. 0. 0. 0. 0.</_>
    <_>
      100. 86. 78. 71. 69. 77. 85. 88. 92. 99. 104. 109. 109. 105. 102.
      99. 95. 83. 87. 88. 88. 86. 90. 91. 93. 91. 85. 81. 77. 73. 68.
      63. 56. 50. 47. 51. 0. 12. 27. 30. 30. 28. 21. 14. 10. 5. 6. 10.
      16. 9. 5. 7. 14. 17. 23. 29. 31. 33. 22. 6. 4. 2. 18. 24. 25. 26.
      25. 25. 25. 19. 18. 19. 27. 36. 36. 36. 36. 34. 33. 36. 36. 36.
      36. 26. 1. 0. 0. 17. 26. 26. 24. 18. 13. 10. 7. 12. 18. 28. 36.
      36. 36. 33. 26. 23. 19. 18. 19. 20. 20. 20. 20. 19. 16. 19. 22.
      30. 35. 36. 36. 24. 18. 13. 10. 13. 15. 19. 21. 19. 18. 13. 16.
      21. 25. 33. 36. 36. 36. 36. 36. 36. 36. 36. 1. 0. 0. 1. 34. 36.
      36. 36. 36. 36. 36. 36. 32. 25. 23. 23. 22. 20. 20. 19. 13. 13.
      12. 6. 9. 16. 27. 36. 36. 28.</_>
    <_>
      70. 68. 65. 75. 92. 95. 95. 96. 98. 99. 106. 106. 108. 108. 108.
      106. 103. 102. 101. 89. 84. 87. 88. 89. 92. 98. 99. 99. 100. 98.
      99. 98. 95. 91. 88. 87. 24. 8. 3. 1. 1. 28. 31. 32. 33. 31. 31.
      33. 33. 28. 20. 19. 19. 26. 36. 36. 36. 36. 36. 33. 31. 31. 34.
      36. 36. 36. 36. 27. 1. 0. 0. 13. 27. 29. 27. 23. 19. 16. 15. 16.
      17. 14. 15. 20. 26. 36. 36. 36. 36. 36. 32. 27. 24. 20. 20. 20.
      23. 24. 25. 22. 23. 22. 20. 16. 18. 22. 28. 36. 36. 36. 29. 23.
      19. 16. 14. 19. 18. 17. 19. 20. 20. 22. 22. 16. 17. 20. 24. 28.
      36. 36. 36. 36. 36. 36. 36. 36. 36. 36. 33. 16. 0. 0. 4. 18. 35.
      36. 36. 36. 36. 36. 36. 36. 36. 36. 34. 31. 29. 30. 32. 28. 26.
      25. 22. 20. 15. 13. 12. 6. 9. 13. 19. 32.</_>
    <_>
      11. 11. 15. 28. 35. 40. 44. 47. 45. 43. 41. 38. 36. 36. 35. 37.
      44. 51. 53. 56. 52. 47. 38. 35. 31. 30. 31. 36. 30. 25. 22. 29.
      25. 20. 9. 2. 0. 0. 0. 0. 5. 9. 9. 11. 17. 16. 10. 9. 19. 21. 11.
      8. 4. 0. 0. 0. 0. 11. 23. 26. 12. 7. 8. 7. 7. 6. 7. 10. 13. 11. 6.
      0. 0. 0. 0. 2. 2. 2. 0. 0. 0. 0. 0. 30. 30. 28. 11. 9. 13. 16. 17.
      17. 17. 22. 16. 8. 0. 0. 0. 15. 28. 25. 16. 6. 6. 6. 6. 7. 7. 7.
      12. 12. 8. 0. 0. 0. 3. 6. 9. 12. 13. 11. 11. 11. 11. 12. 13. 14.
      16. 12. 5. 0. 0. 0. 0. 7. 11. 16. 14. 14. 11. 11. 11. 13. 14. 16.
      15. 9. 0. 0. 0. 0. 3. 9. 14. 14. 13. 12. 10. 10. 11. 13. 14. 17.
      14. 6. 1. 1. 1. 9. 11. 0.</_>
    <_>
      111. 133. 134. 135. 133. 132. 130. 101. 88. 72. 81. 88. 92. 100.
      100. 99. 94. 87. 85. 88. 89. 92. 93. 89. 86. 88. 89. 83. 73. 77.
      91. 124. 129. 124. 123. 122. 24. 36. 36. 31. 24. 24. 21. 20. 20.
      22. 28. 24. 16. 18. 27. 29. 33. 36. 36. 36. 34. 19. 16. 15. 28.
      30. 30. 30. 29. 26. 26. 22. 22. 24. 29. 36. 36. 36. 36. 34. 33.
      34. 36. 36. 36. 36. 33. 29. 25. 22. 20. 19. 24. 24. 20. 19. 20.
      24. 29. 33. 36. 36. 36. 36. 28. 22. 20. 22. 23. 24. 25. 27. 24.
      26. 21. 23. 27. 31. 36. 36. 36. 34. 26. 19. 15. 17. 23. 25. 26.
      27. 26. 23. 14. 15. 20. 28. 35. 35. 33. 31. 28. 29. 31. 32. 27.
      11. 10. 12. 26. 36. 36. 36. 36. 35. 35. 35. 35. 32. 21. 17. 13.
      20. 23. 26. 27. 26. 24. 18. 13. 18. 21. 34. 36. 36. 34. 8.</_>
    <_>
      28. 36. 1. 1. 3. 10. 28. 47. 56. 50. 50. 48. 41. 44. 47. 49. 44.
      46. 41. 37. 39. 44. 41. 40. 42. 39. 32. 21. 10. 21. 29. 45. 36.
      26. 20. 3. 0. 0. 0. 0. 0. 0. 0. 16. 27. 9. 2. 3. 7. 12. 13. 16.
      13. 11. 8. 20. 20. 14. 8. 6. 4. 3. 1. 6. 21. 23. 23. 7. 8. 9. 8.
      7. 6. 13. 22. 22. 17. 2. 2. 2. 5. 5. 5. 4. 2. 3. 10. 18. 20. 21.
      9. 9. 10. 10. 10. 9. 18. 20. 19. 14. 4. 3. 4. 5. 5. 5. 4. 4. 3.
      13. 16. 19. 13. 9. 5. 3. 3. 2. 1. 3. 7. 9. 9. 10. 11. 11. 14. 12.
      12. 16. 14. 9. 3. 1. 1. 6. 20. 20. 15. 5. 5. 5. 7. 11. 13. 14. 11.
      5. 1. 0. 0. 2. 6. 9. 11. 8. 9. 9. 10. 10. 10. 12. 14. 12. 6. 2. 2.
      17. 13. 0. 0. 0.</_>
    <_>
      123. 6. 6. 10. 91. 7. 8. 8. 7. 57. 77. 88. 55. 45. 37. 32. 37. 46.
      48. 47. 41. 40. 43. 47. 48. 45. 44. 52. 68. 56. 26. 1. 1. 2. 10.
      120. 28. 28. 1. 1. 1. 25. 32. 4. 4. 5. 11. 14. 15. 18. 15. 11. 11.
      22. 20. 12. 9. 5. 3. 3. 3. 23. 25. 25. 23. 9. 8. 8. 8. 8. 8. 22.
      21. 19. 2. 3. 3. 3. 5. 5. 3. 3. 3. 3. 19. 21. 23. 9. 8. 8. 8. 7.
      9. 10. 21. 19. 17. 3. 3. 3. 6. 6. 6. 5. 5. 11. 17. 21. 18. 14. 11.
      8. 5. 3. 3. 3. 4. 18. 19. 17. 11. 10. 11. 11. 12. 14. 17. 16. 11.
      3. 3. 2. 15. 19. 21. 18. 8. 7. 8. 8. 9. 10. 14. 13. 10. 3. 3. 3.
      3. 8. 13. 15. 15. 13. 14. 13. 13. 12. 15. 14. 11. 3. 3. 5. 23. 0.
      0. 1. 4. 4. 29. 29.</_>
    <_>
      41. 55. 70. 49. 38. 36. 34. 35. 36. 33. 42. 42. 54. 56. 52. 41.
      41. 40. 38. 38. 52. 51. 49. 32. 42. 51. 43. 15. 0. 0. 14. 22. 28.
      24. 22. 3. 0. 1. 9. 12. 10. 14. 17. 13. 9. 7. 20. 21. 9. 6. 6. 3.
      4. 5. 5. 5. 32. 32. 32. 11. 9. 8. 5. 6. 6. 8. 11. 29. 27. 28. 10.
      3. 0. 0. 0. 3. 3. 3. 0. 0. 0. 4. 23. 27. 28. 10. 6. 7. 5. 5. 6. 8.
      10. 19. 23. 21. 17. 0. 0. 0. 0. 5. 10. 12. 12. 10. 10. 10. 9. 10.
      13. 14. 16. 19. 10. 0. 0. 0. 0. 8. 27. 28. 26. 10. 8. 9. 9. 10.
      10. 9. 9. 8. 6. 5. 0. 0. 0. 0. 2. 5. 7. 9. 9. 9. 9. 8. 8. 12. 27.
      29. 24. 3. 0. 0. 1. 2. 0. 4. 6. 8. 9. 9. 9. 9. 7. 9. 21. 26. 27.
      6. 2. 0.</_>
    <_>
      19. 18. 28. 36. 35. 37. 36. 39. 42. 42. 40. 42. 40. 42. 44. 43.
      45. 38. 40. 38. 37. 36. 33. 37. 40. 45. 56. 57. 58. 52. 41. 38.
      27. 23. 18. 15. 20. 0. 0. 0. 0. 0. 0. 0. 4. 13. 14. 15. 15. 17.
      10. 11. 16. 20. 12. 9. 5. 0. 0. 0. 7. 25. 30. 30. 18. 7. 7. 7. 8.
      9. 10. 12. 28. 25. 22. 5. 0. 0. 0. 0. 0. 0. 0. 0. 0. 0. 0. 6. 9.
      11. 14. 14. 14. 13. 14. 15. 30. 31. 21. 6. 3. 0. 0. 0. 5. 19. 22.
      22. 13. 11. 10. 10. 10. 10. 13. 16. 19. 12. 7. 0. 0. 0. 6. 11. 14.
      15. 14. 13. 12. 12. 13. 15. 17. 15. 11. 2. 0. 0. 0. 3. 8. 9. 9.
      11. 13. 14. 15. 19. 15. 16. 21. 15. 11. 0. 0. 0. 0. 9. 15. 19. 18.
      18. 13. 13. 12. 11. 12. 10. 12. 10. 5. 0.</_>
    <_>
      4. 40. 6. 4. 3. 4. 17. 50. 65. 50. 44. 37. 30. 36. 43. 45. 46. 46.
      37. 41. 43. 44. 39. 37. 36. 50. 51. 33. 3. 6. 6. 8. 96. 12. 0. 0.
      23. 2. 0. 0. 24. 30. 5. 3. 2. 10. 12. 15. 17. 16. 10. 7. 19. 19.
      17. 9. 6. 2. 2. 1. 1. 21. 21. 21. 6. 6. 6. 5. 5. 7. 8. 19. 18. 15.
      1. 2. 2. 4. 4. 4. 2. 2. 2. 1. 7. 10. 13. 13. 11. 10. 10. 11. 13.
      16. 14. 11. 8. 1. 1. 2. 2. 8. 12. 16. 15. 15. 10. 10. 15. 17. 14.
      10. 6. 2. 2. 1. 1. 3. 3. 4. 4. 5. 11. 16. 19. 15. 13. 9. 6. 4. 1.
      0. 0. 2. 8. 9. 11. 8. 7. 10. 11. 10. 12. 13. 10. 6. 0. 1. 1. 1. 1.
      1. 1. 1. 3. 21. 21. 19. 2. 3. 3. 3. 2. 2. 2. 18. 7. 0. 0. 0. 2.
      26.</_>
    <_>
      0. 5. 5. 2. 2. 2. 20. 55. 59. 44. 40. 36. 35. 31. 37. 47. 56. 51.
      43. 39. 38. 38. 38. 42. 39. 40. 44. 55. 52. 21. 2. 2. 1. 1. 2. 19.
      0. 1. 1. 0. 0. 0. 0. 0. 0. 0. 0. 0. 0. 0. 0. 0. 0. 0. 30. 26. 1.
      1. 5. 10. 13. 15. 15. 9. 7. 20. 20. 6. 7. 1. 1. 1. 1. 24. 24. 24.
      6. 5. 4. 4. 6. 6. 22. 20. 17. 0. 0. 0. 1. 3. 2. 0. 0. 0. 12. 23.
      23. 7. 5. 5. 7. 12. 16. 15. 10. 3. 0. 0. 0. 0. 6. 7. 7. 8. 8. 10.
      11. 12. 12. 14. 11. 3. 0. 0. 0. 12. 16. 17. 9. 7. 7. 8. 7. 10. 15.
      13. 6. 0. 0. 0. 16. 19. 21. 7. 6. 4. 5. 5. 6. 21. 19. 16. 0. 0. 0.
      20. 23. 23. 6. 5. 7. 8. 7. 11. 13. 16. 8. 0. 2. 14. 2. 0.</_>
    <_>
      97. 91. 84. 67. 48. 31. 19. 27. 33. 39. 37. 41. 45. 43. 42. 49.
      59. 62. 62. 56. 53. 55. 55. 51. 51. 52. 50. 48. 43. 36. 36. 28.
      44. 39. 10. 0. 34. 34. 24. 2. 2. 7. 9. 9. 8. 8. 7. 6. 15. 15. 14.
      24. 24. 25. 17. 14. 13. 17. 15. 12. 6. 6. 13. 28. 28. 27. 18. 7.
      6. 8. 8. 8. 18. 23. 26. 26. 13. 6. 4. 6. 5. 7. 6. 4. 4. 7. 12. 14.
      14. 16. 17. 17. 17. 17. 20. 22. 23. 19. 15. 5. 5. 5. 5. 4. 4. 4.
      4. 17. 27. 28. 28. 14. 4. 3. 3. 3. 3. 3. 3. 16. 22. 23. 23. 13.
      11. 9. 9. 10. 12. 21. 23. 20. 12. 1. 2. 2. 10. 12. 14. 9. 11. 14.
      13. 14. 16. 21. 19. 16. 12. 2. 2. 1. 1. 11. 17. 19. 21. 17. 18.
      14. 13. 12. 13. 12. 12. 9. 5. 3. 3. 0. 0. 0.</_>
    <_>
      5. 4. 1. 1. 4. 17. 26. 33. 42. 53. 60. 41. 27. 25. 29. 31. 32. 37.
      40. 43. 49. 43. 37. 30. 25. 24. 25. 27. 31. 34. 49. 52. 43. 37.
      25. 11. 0. 0. 5. 12. 0. 0. 5. 11. 11. 11. 17. 17. 13. 9. 16. 20.
      11. 9. 7. 2. 0. 0. 0. 10. 26. 27. 17. 7. 5. 8. 9. 9. 9. 9. 9. 8.
      2. 2. 0. 0. 0. 0. 3. 1. 0. 0. 0. 0. 10. 22. 23. 13. 6. 6. 6. 6. 6.
      6. 8. 21. 22. 14. 0. 0. 0. 0. 5. 18. 18. 16. 8. 7. 8. 7. 9. 10.
      17. 15. 11. 3. 1. 1. 0. 2. 11. 16. 16. 13. 8. 8. 8. 9. 11. 14. 17.
      14. 5. 0. 0. 0. 0. 5. 6. 7. 5. 8. 10. 11. 12. 12. 15. 21. 16. 12.
      0. 0. 0. 0. 2. 8. 19. 18. 11. 7. 6. 7. 8. 8. 10. 15. 13. 7. 2. 0.
      0. 0.</_>
    <_>
      19. 56. 136. 56. 15. 14. 12. 11. 11. 11. 11. 14. 31. 54. 48. 47.
      39. 31. 26. 27. 51. 63. 53. 40. 41. 41. 38. 37. 42. 49. 56. 39. 2.
      1. 1. 2. 5. 4. 3. 3. 3. 16. 2. 3. 3. 7. 10. 13. 13. 14. 8. 8. 17.
      18. 8. 7. 2. 2. 2. 2. 21. 21. 21. 7. 6. 7. 8. 8. 8. 9. 9. 5. 2. 2.
      2. 2. 2. 2. 1. 1. 1. 2. 2. 1. 1. 1. 21. 21. 20. 1. 1. 1. 1. 1. 1.
      1. 1. 16. 18. 16. 7. 6. 5. 5. 6. 7. 19. 18. 15. 1. 1. 1. 20. 21.
      21. 9. 7. 8. 9. 10. 9. 16. 17. 14. 7. 1. 1. 1. 11. 14. 16. 13. 11.
      12. 10. 10. 11. 12. 11. 8. 2. 2. 2. 8. 12. 15. 15. 14. 10. 11. 10.
      12. 12. 11. 10. 7. 4. 4. 26. 16. 6. 7. 14. 17. 18. 17. 17. 17. 16.
      16. 15. 16.</_>
    <_>
      2. 36. 89. 111. 96. 82. 16. 4. 9. 47. 68. 75. 62. 49. 41. 33. 45.
      50. 50. 50. 45. 45. 47. 52. 51. 60. 56. 50. 24. 3. 6. 17. 71. 68.
      3. 0. 2. 1. 0. 0. 0. 0. 1. 1. 1. 0. 0. 1. 2. 4. 25. 19. 6. 8. 15.
      19. 23. 20. 20. 23. 22. 22. 16. 10. 4. 4. 4. 23. 24. 24. 19. 13.
      13. 15. 15. 20. 21. 21. 16. 4. 6. 6. 9. 9. 7. 6. 6. 9. 9. 10. 10.
      26. 27. 27. 26. 11. 11. 10. 9. 7. 7. 21. 22. 24. 23. 14. 15. 14.
      15. 16. 25. 24. 22. 19. 7. 6. 6. 6. 6. 11. 25. 25. 25. 12. 5. 6.
      6. 6. 5. 4. 9. 10. 13. 15. 17. 20. 19. 21. 23. 21. 19. 14. 9. 8.
      21. 21. 24. 19. 13. 13. 10. 12. 14. 15. 15. 11. 11. 17. 15. 0. 0.
      0. 0. 0. 0. 0. 0. 0. 0. 0. 0. 0.</_>
    <_>
      101. 101. 100. 101. 100. 72. 59. 50. 56. 64. 69. 75. 83. 82. 80.
      71. 64. 64. 69. 79. 74. 75. 76. 74. 71. 73. 72. 67. 46. 47. 51.
      70. 103. 96. 94. 92. 2. 3. 4. 3. 3. 2. 2. 3. 3. 3. 1. 0. 0. 0. 0.
      24. 36. 36. 31. 21. 17. 15. 18. 25. 19. 13. 16. 26. 30. 36. 36.
      36. 9. 9. 9. 24. 25. 25. 20. 19. 16. 17. 20. 30. 35. 36. 35. 33.
      34. 36. 36. 36. 29. 24. 22. 22. 22. 23. 22. 23. 19. 22. 25. 36.
      36. 36. 32. 27. 20. 18. 21. 24. 24. 18. 20. 25. 30. 36. 36. 36.
      33. 26. 23. 23. 21. 24. 23. 21. 20. 20. 23. 29. 36. 36. 30. 21.
      18. 17. 16. 17. 21. 19. 20. 14. 20. 27. 36. 36. 36. 23. 14. 12.
      19. 25. 26. 24. 19. 12. 14. 24. 36. 36. 25. 0. 0. 0. 0. 0. 0. 0.
      0. 2. 2. 2. 3. 1.</_>
    <_>
      1. 10. 9. 8. 7. 5. 5. 4. 2. 2. 33. 57. 70. 53. 43. 37. 35. 39. 41.
      55. 61. 58. 44. 34. 33. 34. 32. 33. 34. 42. 47. 42. 15. 1. 1. 1.
      2. 0. 0. 0. 0. 0. 0. 0. 0. 4. 8. 12. 14. 14. 7. 8. 18. 17. 8. 5.
      1. 0. 0. 0. 22. 22. 22. 9. 9. 8. 8. 8. 9. 9. 8. 4. 0. 0. 0. 0. 2.
      2. 0. 0. 0. 0. 7. 8. 8. 8. 10. 11. 12. 15. 14. 16. 13. 6. 0. 0. 0.
      22. 23. 22. 7. 5. 7. 9. 12. 17. 17. 13. 7. 0. 0. 0. 14. 22. 23. 7.
      5. 5. 5. 5. 4. 6. 22. 23. 21. 0. 0. 0. 5. 8. 11. 11. 9. 9. 9. 10.
      12. 14. 12. 8. 0. 0. 0. 0. 7. 10. 11. 11. 9. 9. 9. 12. 13. 13. 10.
      0. 0. 0. 0. 0. 0. 0. 0. 1. 3. 4. 4. 6. 7. 7. 17. 36.</_>
    <_>
      1. 4. 4. 10. 23. 4. 0. 0. 1. 58. 66. 62. 32. 26. 17. 20. 38. 60.
      57. 31. 27. 28. 32. 32. 32. 53. 59. 46. 1. 1. 1. 0. 39. 7. 59. 0.
      0. 3. 3. 4. 2. 0. 0. 0. 1. 11. 1. 1. 1. 7. 8. 11. 14. 11. 8. 8.
      17. 16. 9. 6. 3. 1. 1. 1. 1. 19. 20. 19. 10. 7. 8. 8. 12. 11. 12.
      9. 4. 3. 1. 0. 0. 1. 3. 2. 1. 2. 1. 2. 15. 16. 15. 10. 10. 8. 7.
      8. 11. 13. 13. 10. 1. 1. 1. 1. 15. 16. 16. 12. 11. 10. 9. 10. 10.
      13. 14. 12. 5. 1. 1. 1. 1. 1. 1. 1. 1. 20. 20. 20. 1. 1. 1. 1. 1.
      1. 1. 1. 3. 11. 12. 11. 11. 11. 10. 11. 11. 12. 14. 15. 10. 2. 3.
      2. 1. 20. 21. 19. 7. 5. 5. 4. 5. 5. 5. 5. 2. 1. 0. 1. 3. 0. 0. 0.</_>
    <_>
      43. 55. 60. 60. 41. 35. 38. 38. 36. 35. 36. 38. 44. 51. 55. 55.
      46. 37. 35. 33. 32. 32. 35. 34. 36. 38. 59. 54. 46. 25. 0. 0. 0.
      0. 0. 0. 0. 0. 11. 15. 8. 1. 5. 21. 21. 15. 11. 9. 7. 12. 12. 10.
      0. 0. 0. 5. 29. 29. 29. 6. 3. 3. 3. 3. 3. 4. 4. 4. 4. 0. 0. 0. 0.
      0. 0. 2. 2. 0. 0. 0. 0. 2. 30. 30. 29. 11. 8. 6. 8. 9. 9. 8. 7. 7.
      4. 3. 1. 0. 0. 0. 19. 24. 26. 22. 8. 8. 8. 8. 8. 10. 9. 27. 26.
      24. 17. 0. 0. 0. 0. 15. 21. 26. 22. 17. 13. 11. 12. 14. 17. 27.
      26. 21. 10. 0. 0. 0. 0. 0. 0. 0. 0. 0. 11. 29. 30. 25. 0. 0. 0. 0.
      0. 0. 0. 0. 0. 2. 8. 12. 11. 12. 12. 13. 14. 17. 20. 19. 24. 21.
      17. 6. 0. 0.</_>
    <_>
      131. 44. 11. 8. 12. 59. 64. 8. 6. 2. 8. 31. 61. 58. 33. 27. 24.
      25. 33. 39. 55. 54. 41. 34. 31. 30. 26. 28. 28. 46. 55. 38. 0. 0.
      0. 3. 5. 4. 4. 6. 6. 6. 6. 6. 4. 2. 1. 1. 7. 2. 3. 1. 8. 10. 11.
      13. 14. 10. 8. 19. 19. 8. 7. 4. 2. 2. 2. 16. 24. 23. 11. 11. 10.
      10. 11. 13. 14. 13. 11. 7. 3. 2. 1. 2. 3. 3. 1. 1. 1. 5. 13. 17.
      16. 12. 9. 10. 12. 10. 14. 19. 15. 4. 2. 3. 3. 7. 15. 20. 17. 11.
      9. 10. 11. 11. 18. 19. 11. 3. 3. 2. 3. 21. 23. 11. 6. 7. 7. 7. 7.
      7. 8. 5. 4. 3. 2. 1. 5. 13. 20. 19. 13. 8. 8. 10. 12. 16. 18. 13.
      2. 2. 2. 3. 5. 8. 12. 10. 10. 10. 10. 9. 10. 11. 13. 9. 2. 2. 3.
      10. 1. 2. 3. 4.</_>
    <_>
      9. 6. 3. 108. 101. 5. 3. 48. 68. 81. 80. 65. 62. 58. 68. 77. 77.
      71. 53. 45. 47. 58. 61. 68. 59. 38. 1. 0. 0. 0. 0. 0. 3. 5. 13.
      10. 5. 5. 4. 3. 3. 2. 0. 0. 4. 3. 5. 5. 17. 19. 20. 21. 20. 20.
      19. 19. 20. 19. 18. 2. 2. 2. 13. 20. 21. 21. 21. 8. 7. 7. 5. 6.
      18. 16. 16. 16. 14. 1. 2. 2. 3. 4. 3. 2. 2. 7. 12. 14. 16. 16. 14.
      13. 13. 14. 17. 17. 15. 12. 7. 3. 2. 18. 21. 21. 21. 19. 9. 9. 10.
      15. 19. 20. 17. 12. 4. 3. 3. 9. 15. 17. 18. 18. 13. 13. 11. 11.
      14. 17. 17. 14. 10. 1. 0. 1. 6. 8. 10. 13. 11. 13. 13. 15. 15. 16.
      15. 12. 8. 2. 2. 2. 7. 10. 12. 14. 13. 13. 12. 15. 15. 16. 15. 12.
      8. 6. 5. 4. 0. 0. 2. 4. 4. 6.</_>
    <_>
      1. 4. 6. 7. 8. 33. 54. 61. 70. 51. 42. 40. 29. 25. 26. 26. 35. 46.
      53. 52. 41. 36. 32. 29. 30. 30. 31. 32. 33. 34. 39. 51. 47. 43.
      28. 8. 0. 3. 5. 6. 8. 9. 10. 8. 6. 4. 0. 0. 0. 0. 0. 0. 0. 0. 0.
      0. 0. 4. 11. 16. 17. 11. 11. 14. 22. 17. 9. 0. 0. 0. 0. 16. 29.
      30. 27. 9. 7. 7. 9. 8. 11. 26. 23. 21. 0. 0. 0. 0. 0. 0. 0. 0. 0.
      2. 9. 14. 17. 18. 17. 17. 18. 19. 16. 14. 9. 1. 0. 0. 7. 21. 25.
      27. 10. 8. 11. 13. 13. 14. 22. 20. 14. 0. 0. 0. 0. 0. 0. 0. 0. 28.
      28. 27. 0. 0. 0. 0. 0. 0. 0. 0. 15. 19. 20. 14. 13. 12. 12. 12.
      16. 20. 17. 8. 0. 0. 0. 6. 11. 13. 13. 14. 14. 14. 15. 15. 20. 16.
      11. 0. 0. 0. 0. 0.</_>
    <_>
      2. 4. 1. 1. 1. 13. 42. 54. 55. 42. 42. 42. 36. 33. 33. 40. 52. 52.
      49. 34. 34. 38. 38. 40. 36. 38. 43. 54. 47. 28. 2. 2. 1. 2. 1. 0.
      0. 0. 0. 0. 4. 3. 0. 0. 0. 0. 0. 0. 1. 0. 0. 0. 0. 0. 0. 0. 0. 0.
      0. 33. 0. 0. 0. 7. 11. 15. 18. 10. 5. 20. 19. 9. 7. 3. 0. 0. 0.
      24. 24. 24. 9. 9. 9. 9. 11. 10. 8. 5. 1. 0. 0. 0. 2. 2. 0. 0. 0.
      3. 9. 11. 11. 10. 10. 10. 11. 14. 16. 12. 5. 0. 0. 0. 18. 21. 22.
      6. 6. 5. 6. 7. 8. 21. 19. 3. 0. 0. 0. 10. 14. 16. 12. 11. 11. 11.
      11. 12. 10. 7. 0. 0. 2. 24. 25. 24. 6. 5. 5. 5. 5. 7. 24. 25. 18.
      0. 0. 0. 5. 9. 9. 11. 11. 14. 16. 14. 18. 16. 9. 0. 0. 6. 18. 0.</_>
    <_>
      61. 71. 75. 65. 56. 46. 40. 34. 28. 29. 29. 29. 33. 41. 52. 62.
      61. 61. 54. 38. 35. 32. 36. 34. 35. 32. 32. 30. 30. 34. 35. 55.
      56. 51. 43. 22. 5. 6. 6. 5. 5. 3. 1. 0. 0. 0. 0. 0. 2. 9. 14. 17.
      25. 17. 11. 13. 29. 28. 13. 10. 3. 0. 0. 0. 0. 35. 36. 36. 16. 12.
      12. 13. 14. 14. 13. 12. 10. 7. 0. 0. 0. 0. 2. 4. 2. 0. 0. 0. 0. 8.
      13. 17. 17. 16. 14. 14. 15. 17. 20. 24. 20. 14. 0. 0. 0. 0. 5. 12.
      17. 19. 17. 15. 14. 14. 16. 18. 22. 20. 14. 0. 0. 0. 0. 35. 36.
      35. 6. 4. 4. 4. 4. 4. 4. 34. 36. 35. 24. 0. 0. 0. 1. 3. 3. 0. 0.
      7. 20. 26. 28. 19. 15. 11. 7. 3. 0. 0. 0. 6. 23. 31. 32. 20. 15.
      12. 13. 15. 19. 33. 31. 22. 5. 0.</_>
    <_>
      3. 10. 20. 26. 34. 35. 44. 43. 40. 35. 35. 35. 37. 33. 37. 37. 45.
      43. 44. 39. 36. 29. 25. 26. 29. 28. 30. 30. 40. 40. 34. 24. 27.
      23. 15. 7. 2. 1. 6. 7. 1. 1. 0. 6. 12. 11. 11. 17. 19. 10. 8. 20.
      20. 12. 11. 7. 2. 0. 0. 0. 14. 28. 27. 18. 8. 9. 10. 10. 9. 9. 9.
      9. 6. 3. 1. 0. 0. 0. 2. 3. 1. 0. 0. 0. 0. 5. 11. 15. 13. 11. 11.
      10. 9. 11. 13. 13. 15. 10. 3. 0. 0. 0. 3. 7. 9. 8. 8. 10. 12. 13.
      16. 17. 21. 17. 11. 2. 0. 0. 0. 0. 2. 3. 4. 3. 9. 13. 17. 13. 11.
      10. 10. 8. 5. 2. 0. 0. 6. 21. 24. 14. 7. 7. 6. 9. 8. 10. 13. 20.
      18. 10. 1. 0. 0. 4. 17. 23. 16. 6. 7. 6. 7. 6. 6. 6. 19. 23. 18.
      6. 0. 0. 0. 0.</_>
    <_>
      30. 44. 53. 60. 49. 42. 34. 33. 28. 25. 20. 24. 30. 30. 39. 46.
      55. 62. 58. 52. 41. 34. 32. 31. 31. 30. 28. 30. 31. 32. 34. 37.
      58. 64. 59. 52. 0. 0. 9. 14. 21. 17. 8. 12. 30. 28. 10. 6. 0. 0.
      0. 0. 5. 36. 36. 21. 12. 11. 11. 11. 12. 12. 13. 10. 7. 0. 0. 0.
      0. 0. 3. 0. 0. 0. 0. 8. 36. 36. 20. 12. 11. 11. 13. 15. 20. 30.
      31. 22. 3. 0. 0. 0. 4. 11. 16. 18. 18. 15. 15. 15. 17. 18. 21. 17.
      12. 0. 0. 0. 0. 13. 19. 22. 19. 15. 13. 14. 14. 14. 16. 16. 11. 0.
      0. 0. 0. 7. 16. 22. 19. 18. 14. 13. 14. 15. 14. 16. 13. 8. 0. 0.
      0. 0. 27. 30. 26. 9. 8. 8. 7. 7. 9. 12. 17. 12. 3. 0. 0. 0. 0. 0.
      8. 10. 8. 3. 0. 2. 5. 11. 11. 7. 3. 0.</_>
    <_>
      0. 7. 14. 23. 30. 35. 42. 48. 52. 52. 48. 49. 49. 46. 41. 40. 37.
      36. 41. 49. 42. 41. 37. 37. 42. 42. 43. 41. 40. 36. 32. 32. 31.
      21. 14. 1. 0. 2. 7. 14. 15. 20. 18. 13. 7. 12. 24. 23. 10. 7. 3.
      0. 0. 0. 5. 27. 28. 28. 12. 10. 10. 9. 10. 10. 11. 10. 9. 4. 2. 0.
      0. 0. 0. 0. 0. 0. 0. 0. 0. 12. 28. 29. 23. 9. 8. 9. 10. 11. 11.
      15. 19. 24. 19. 9. 0. 0. 0. 18. 28. 28. 19. 6. 5. 7. 7. 8. 7. 8.
      19. 28. 28. 12. 0. 0. 0. 3. 7. 8. 9. 12. 13. 14. 15. 17. 15. 16.
      20. 16. 10. 4. 0. 0. 0. 0. 0. 0. 0. 0. 8. 28. 29. 17. 0. 0. 0. 0.
      0. 0. 0. 0. 0. 6. 18. 20. 20. 12. 10. 10. 10. 11. 12. 14. 19. 16.
      8. 0. 0. 0. 0. 0. 0. 0.</_>
    <_>
      0. 6. 18. 35. 50. 47. 45. 32. 33. 33. 26. 26. 24. 23. 27. 31. 38.
      52. 52. 45. 28. 25. 23. 24. 26. 28. 28. 26. 26. 24. 29. 34. 41.
      31. 21. 0. 0. 0. 0. 0. 0. 0. 0. 0. 0. 2. 0. 0. 0. 4. 10. 14. 14.
      18. 6. 7. 26. 23. 6. 5. 0. 0. 0. 0. 24. 31. 23. 9. 9. 9. 9. 9. 9.
      10. 6. 3. 0. 0. 0. 0. 0. 0. 0. 0. 0. 0. 31. 32. 17. 10. 10. 12.
      12. 11. 11. 12. 7. 2. 0. 0. 0. 5. 10. 14. 11. 11. 11. 11. 12. 15.
      16. 16. 11. 0. 0. 0. 0. 0. 0. 0. 0. 14. 32. 31. 0. 0. 0. 0. 0. 0.
      0. 0. 6. 21. 31. 18. 16. 18. 16. 8. 16. 32. 32. 15. 0. 0. 0. 0. 6.
      11. 10. 11. 12. 14. 15. 15. 17. 23. 15. 6. 0. 0. 0. 0. 0. 0. 0. 0.
      0. 0. 0. 0.</_>
    <_>
      2. 0. 0. 0. 0. 0. 19. 55. 63. 38. 34. 27. 22. 22. 25. 30. 49. 58.
      51. 34. 26. 27. 27. 25. 24. 25. 30. 33. 47. 42. 18. 3. 3. 3. 4. 4.
      6. 5. 0. 0. 0. 0. 0. 0. 2. 0. 1. 0. 5. 7. 8. 13. 16. 9. 5. 11. 17.
      8. 7. 5. 0. 0. 0. 0. 23. 25. 20. 9. 7. 7. 8. 7. 7. 9. 8. 3. 2. 0.
      0. 0. 0. 2. 2. 1. 0. 0. 0. 2. 4. 4. 3. 2. 2. 2. 2. 2. 3. 19. 22.
      17. 0. 0. 0. 1. 14. 17. 16. 9. 7. 8. 8. 7. 9. 15. 13. 9. 2. 0. 0.
      0. 4. 8. 13. 11. 9. 9. 9. 9. 11. 12. 14. 10. 5. 0. 0. 0. 11. 24.
      23. 11. 5. 4. 5. 8. 15. 17. 13. 6. 2. 0. 0. 0. 0. 4. 16. 16. 8. 6.
      6. 7. 6. 9. 10. 13. 8. 1. 0. 0. 0. 0. 2. 6.</_>
    <_>
      2. 5. 6. 5. 3. 7. 20. 24. 24. 27. 37. 39. 44. 46. 48. 39. 33. 33.
      34. 49. 47. 35. 38. 41. 42. 40. 31. 26. 27. 23. 22. 5. 0. 0. 0. 0.
      0. 1. 3. 3. 4. 4. 4. 4. 4. 6. 5. 3. 1. 1. 3. 8. 12. 10. 13. 11. 6.
      11. 16. 10. 4. 3. 0. 0. 0. 6. 19. 20. 15. 8. 7. 7. 8. 8. 8. 8. 6.
      3. 2. 0. 0. 0. 1. 2. 0. 0. 0. 0. 0. 2. 4. 4. 3. 2. 2. 2. 2. 9. 20.
      19. 11. 0. 0. 0. 4. 14. 18. 14. 10. 7. 8. 9. 11. 15. 17. 10. 3. 0.
      0. 2. 19. 21. 20. 9. 6. 6. 6. 5. 5. 14. 20. 20. 11. 0. 0. 0. 1. 6.
      6. 8. 8. 8. 9. 11. 10. 13. 14. 8. 4. 0. 0. 0. 8. 14. 18. 12. 8. 7.
      7. 8. 12. 15. 15. 8. 0. 0. 0. 2. 0. 0. 0. 0.</_>
    <_>
      19. 29. 37. 45. 41. 43. 50. 48. 49. 48. 44. 43. 43. 45. 49. 54.
      54. 59. 54. 53. 48. 42. 44. 40. 33. 34. 38. 43. 49. 51. 53. 43.
      39. 36. 26. 16. 8. 10. 14. 18. 17. 12. 11. 21. 23. 19. 11. 8. 2.
      0. 0. 0. 7. 22. 30. 31. 21. 11. 11. 10. 12. 11. 12. 12. 11. 8. 4.
      2. 0. 0. 0. 0. 3. 2. 0. 0. 0. 2. 18. 30. 30. 19. 10. 10. 8. 12.
      16. 20. 21. 23. 16. 11. 6. 0. 0. 0. 3. 18. 23. 21. 20. 13. 11. 11.
      12. 14. 15. 21. 18. 13. 3. 0. 0. 0. 15. 24. 27. 23. 9. 7. 8. 7. 8.
      9. 10. 24. 26. 24. 15. 0. 0. 0. 4. 20. 22. 21. 16. 11. 9. 9. 10.
      13. 19. 19. 17. 12. 3. 0. 0. 0. 13. 24. 27. 19. 8. 7. 7. 10. 10.
      11. 16. 23. 21. 17. 2. 0. 0. 0. 0. 0. 0. 24.</_>
    <_>
      8. 10. 13. 12. 12. 8. 5. 46. 68. 77. 69. 41. 30. 25. 23. 23. 27.
      38. 40. 51. 50. 44. 32. 32. 28. 27. 25. 25. 28. 29. 28. 45. 55.
      51. 23. 3. 0. 3. 3. 2. 0. 0. 0. 0. 0. 0. 0. 0. 0. 4. 10. 13. 15.
      18. 14. 10. 9. 22. 22. 12. 7. 3. 0. 0. 0. 5. 27. 27. 26. 9. 9. 9.
      9. 9. 9. 9. 12. 15. 12. 6. 3. 0. 0. 0. 0. 0. 0. 0. 0. 2. 4. 3. 3.
      4. 25. 27. 27. 15. 4. 4. 4. 4. 2. 0. 0. 0. 27. 28. 28. 4. 3. 2. 2.
      3. 4. 3. 4. 4. 3. 2. 0. 0. 0. 3. 4. 4. 4. 4. 5. 15. 20. 22. 16.
      13. 10. 7. 3. 3. 5. 6. 21. 26. 27. 23. 14. 10. 9. 10. 11. 13. 20.
      18. 15. 7. 0. 0. 0. 7. 11. 13. 13. 11. 12. 12. 12. 15. 15. 19. 17.
      12. 6. 0.</_>
    <_>
      10. 10. 1. 1. 1. 1. 2. 14. 31. 43. 36. 28. 24. 22. 21. 24. 28. 31.
      33. 39. 33. 29. 35. 41. 40. 28. 25. 27. 30. 39. 34. 14. 1. 1. 1.
      2. 2. 3. 3. 3. 2. 2. 2. 2. 2. 2. 2. 3. 2. 2. 0. 0. 0. 0. 0. 0. 0.
      0. 16. 10. 2. 2. 9. 11. 11. 18. 13. 9. 15. 20. 9. 5. 4. 0. 0. 2.
      22. 24. 14. 8. 9. 8. 8. 8. 8. 7. 3. 0. 1. 1. 2. 4. 1. 1. 1. 1. 0.
      8. 17. 19. 10. 8. 9. 10. 11. 9. 5. 0. 0. 0. 0. 0. 0. 0. 11. 24.
      23. 1. 0. 0. 0. 0. 0. 0. 0. 0. 0. 0. 5. 23. 23. 6. 0. 0. 0. 0. 0.
      0. 7. 23. 23. 6. 2. 2. 2. 2. 3. 14. 24. 13. 0. 0. 0. 16. 20. 8. 6.
      5. 6. 6. 5. 12. 20. 14. 0. 0. 0. 0. 0. 0. 0. 0.</_>
    <_>
      2. 1. 1. 1. 0. 0. 7. 4. 2. 2. 5. 55. 61. 41. 34. 28. 25. 28. 29.
      45. 49. 37. 30. 33. 33. 31. 31. 32. 34. 54. 45. 3. 2. 2. 0. 0. 1.
      0. 0. 0. 0. 0. 0. 19. 2. 0. 0. 2. 6. 9. 14. 14. 9. 6. 15. 16. 11.
      7. 4. 0. 0. 0. 1. 20. 20. 19. 8. 7. 6. 7. 6. 7. 7. 6. 4. 0. 0. 0.
      0. 2. 2. 0. 0. 0. 0. 5. 7. 9. 10. 9. 10. 10. 9. 11. 9. 7. 5. 0. 0.
      0. 0. 0. 0. 0. 0. 9. 20. 20. 16. 0. 0. 0. 0. 0. 0. 0. 0. 0. 1. 1.
      1. 12. 21. 21. 12. 0. 0. 0. 0. 0. 0. 0. 12. 20. 20. 13. 5. 4. 5.
      8. 11. 13. 15. 11. 6. 0. 0. 0. 1. 5. 6. 6. 7. 8. 9. 11. 12. 12.
      15. 11. 5. 0. 0. 22. 16. 0. 0. 0. 0. 0. 0. 6.</_>
    <_>
      18. 5. 2. 1. 12. 45. 56. 65. 49. 41. 33. 35. 37. 31. 31. 33. 36.
      39. 49. 44. 42. 33. 33. 32. 35. 39. 42. 39. 49. 57. 57. 51. 32.
      22. 11. 7. 4. 3. 2. 1. 1. 1. 1. 6. 12. 12. 17. 16. 7. 8. 22. 22.
      13. 4. 2. 0. 0. 0. 13. 26. 27. 17. 9. 9. 10. 10. 10. 11. 10. 7. 4.
      2. 0. 0. 0. 2. 3. 0. 0. 0. 2. 4. 9. 12. 15. 16. 16. 16. 15. 16.
      14. 11. 4. 4. 0. 0. 0. 12. 18. 20. 13. 11. 9. 10. 10. 10. 12. 18.
      16. 9. 0. 0. 0. 3. 16. 23. 23. 14. 10. 11. 11. 12. 19. 24. 19. 8.
      1. 0. 0. 9. 21. 24. 19. 9. 7. 9. 11. 13. 13. 25. 25. 21. 0. 0. 0.
      1. 7. 11. 13. 14. 15. 13. 12. 15. 16. 16. 12. 7. 0. 0. 1. 10. 1.
      2. 1. 5. 4. 4. 4. 4. 4. 5.</_>
    <_>
      9. 10. 7. 14. 26. 43. 52. 55. 56. 48. 42. 42. 41. 34. 33. 33. 32.
      36. 38. 49. 53. 45. 40. 32. 32. 36. 36. 39. 37. 35. 33. 25. 22.
      14. 11. 8. 0. 2. 3. 2. 0. 0. 0. 3. 6. 15. 16. 20. 18. 14. 10. 13.
      24. 24. 10. 8. 3. 0. 0. 0. 0. 19. 29. 30. 29. 9. 7. 7. 12. 14. 14.
      14. 10. 5. 3. 0. 0. 0. 0. 0. 2. 3. 2. 0. 0. 0. 0. 2. 6. 8. 11. 13.
      13. 13. 12. 14. 18. 29. 29. 28. 7. 3. 0. 0. 0. 3. 4. 4. 4. 4. 5.
      22. 29. 29. 24. 4. 3. 4. 4. 3. 0. 0. 0. 0. 7. 10. 13. 14. 13. 13.
      13. 12. 15. 16. 19. 20. 17. 13. 2. 0. 0. 0. 4. 7. 6. 3. 3. 3. 3.
      18. 22. 26. 21. 15. 10. 7. 3. 0. 0. 0. 0. 0. 0. 0. 0. 0. 12. 29.
      29. 28. 0. 0.</_>
    <_>
      2. 10. 26. 43. 50. 47. 46. 42. 40. 36. 33. 30. 28. 30. 31. 38. 41.
      49. 49. 38. 30. 27. 28. 31. 31. 31. 25. 26. 28. 27. 29. 40. 37.
      29. 18. 1. 0. 0. 5. 11. 15. 21. 15. 6. 6. 26. 26. 9. 6. 3. 0. 0.
      0. 0. 12. 32. 33. 22. 7. 7. 7. 7. 7. 7. 8. 7. 3. 1. 0. 0. 0. 0. 0.
      3. 3. 0. 0. 0. 0. 12. 32. 33. 26. 4. 4. 4. 4. 4. 4. 4. 4. 4. 4. 3.
      0. 0. 0. 0. 3. 6. 8. 8. 7. 19. 25. 26. 24. 11. 9. 6. 1. 0. 0. 0.
      0. 0. 17. 25. 29. 19. 13. 11. 9. 11. 15. 19. 29. 25. 15. 3. 0. 0.
      0. 0. 0. 0. 0. 0. 1. 32. 33. 31. 0. 0. 0. 0. 0. 0. 0. 0. 0. 5. 11.
      14. 13. 14. 13. 13. 13. 14. 18. 19. 21. 17. 11. 0. 0. 0. 0. 0. 0.
      0.</_>
    <_>
      136. 132. 133. 134. 134. 82. 27. 85. 105. 112. 95. 72. 61. 70. 75.
      85. 91. 89. 74. 69. 67. 78. 79. 78. 79. 76. 77. 78. 68. 67. 79.
      119. 124. 113. 34. 12. 14. 8. 7. 30. 32. 28. 21. 19. 20. 18. 17.
      17. 23. 18. 12. 12. 21. 25. 27. 31. 32. 32. 12. 11. 11. 12. 26.
      26. 25. 23. 21. 21. 22. 21. 23. 25. 26. 29. 29. 31. 31. 31. 32.
      32. 32. 32. 14. 11. 11. 12. 25. 26. 26. 25. 23. 21. 18. 15. 19.
      22. 28. 32. 32. 31. 25. 23. 22. 21. 21. 23. 22. 22. 21. 20. 18.
      21. 23. 25. 33. 32. 32. 29. 28. 26. 24. 23. 23. 24. 24. 23. 14.
      12. 13. 19. 31. 33. 31. 30. 15. 11. 9. 10. 21. 22. 22. 26. 27. 28.
      25. 14. 16. 18. 33. 33. 33. 30. 25. 21. 20. 22. 23. 25. 25. 26.
      24. 24. 23. 27. 29. 35. 35. 23. 8. 9. 11. 11.</_>
    <_>
      116. 89. 10. 1. 1. 0. 5. 118. 15. 3. 2. 2. 9. 47. 60. 41. 32. 28.
      29. 29. 35. 41. 42. 40. 29. 31. 28. 27. 24. 27. 31. 40. 28. 0. 0.
      0. 5. 0. 0. 0. 0. 17. 2. 1. 1. 3. 7. 9. 9. 13. 9. 8. 10. 18. 13.
      6. 7. 2. 2. 2. 2. 4. 22. 24. 12. 7. 7. 8. 8. 8. 8. 8. 8. 6. 6. 3.
      3. 3. 3. 5. 5. 3. 3. 3. 3. 3. 6. 11. 13. 15. 15. 11. 11. 14. 15.
      14. 12. 8. 4. 3. 3. 3. 7. 23. 23. 12. 7. 8. 7. 7. 8. 8. 11. 21.
      20. 16. 4. 4. 3. 3. 4. 4. 4. 3. 5. 23. 24. 15. 3. 3. 3. 3. 3. 3.
      4. 4. 3. 9. 16. 17. 14. 13. 10. 9. 10. 13. 14. 20. 15. 8. 3. 2. 2.
      2. 3. 2. 2. 2. 3. 22. 23. 18. 2. 2. 2. 2. 1. 1. 1. 1. 16. 0.</_>
    <_>
      2. 2. 11. 37. 50. 64. 66. 50. 45. 40. 35. 38. 38. 41. 46. 50. 60.
      63. 63. 63. 61. 60. 57. 50. 49. 49. 50. 53. 55. 58. 57. 62. 71.
      65. 51. 31. 0. 2. 10. 14. 15. 17. 18. 15. 11. 10. 19. 27. 26. 10.
      9. 4. 0. 0. 0. 0. 33. 33. 33. 6. 4. 4. 4. 4. 4. 4. 4. 29. 33. 31.
      28. 0. 0. 0. 0. 0. 0. 0. 0. 0. 0. 0. 3. 8. 14. 19. 21. 23. 18. 17.
      19. 24. 20. 18. 13. 8. 1. 0. 0. 0. 13. 33. 33. 33. 9. 8. 8. 8. 8.
      8. 10. 12. 30. 28. 25. 0. 0. 0. 0. 9. 16. 21. 23. 20. 17. 14. 15.
      15. 15. 14. 15. 14. 11. 6. 0. 0. 0. 0. 16. 26. 32. 21. 16. 14. 11.
      11. 14. 15. 20. 30. 27. 20. 1. 0. 0. 0. 13. 23. 29. 31. 19. 15.
      13. 12. 12. 15. 16. 28. 29. 22. 14. 0.</_>
    <_>
      2. 0. 0. 3. 1. 1. 1. 1. 1. 17. 31. 41. 36. 30. 27. 24. 24. 24. 26.
      28. 34. 42. 47. 50. 45. 44. 44. 46. 48. 40. 33. 41. 32. 4. 0. 0.
      0. 0. 2. 22. 1. 1. 0. 3. 6. 7. 10. 15. 11. 4. 7. 18. 16. 6. 6. 2.
      0. 0. 0. 0. 3. 4. 4. 2. 1. 1. 0. 1. 2. 3. 22. 22. 20. 0. 0. 0. 0.
      3. 3. 1. 0. 0. 0. 3. 4. 8. 9. 10. 10. 9. 9. 11. 21. 24. 24. 4. 2.
      0. 0. 0. 0. 8. 11. 13. 14. 11. 10. 11. 12. 12. 12. 10. 8. 3. 0. 1.
      3. 6. 10. 14. 17. 12. 12. 9. 10. 11. 11. 15. 10. 7. 3. 0. 0. 0. 6.
      10. 13. 15. 12. 9. 10. 10. 9. 10. 12. 10. 8. 4. 0. 0. 0. 0. 0. 0.
      0. 0. 4. 23. 24. 16. 0. 0. 0. 0. 0. 0. 0. 0. 0. 0. 0. 0.</_>
    <_>
      113. 83. 5. 7. 8. 6. 7. 30. 39. 51. 42. 33. 29. 24. 22. 25. 26.
      32. 35. 33. 31. 29. 31. 30. 30. 25. 29. 33. 35. 41. 55. 45. 10. 0.
      35. 75. 16. 5. 0. 0. 1. 4. 4. 6. 12. 12. 16. 20. 14. 11. 10. 22.
      22. 11. 8. 6. 3. 3. 3. 3. 6. 8. 6. 5. 4. 4. 4. 6. 6. 6. 27. 28.
      25. 2. 2. 2. 2. 4. 4. 3. 2. 2. 2. 3. 6. 6. 6. 5. 4. 5. 5. 5. 5. 5.
      26. 24. 18. 2. 2. 2. 10. 28. 27. 15. 8. 7. 7. 10. 16. 19. 18. 13.
      5. 2. 2. 2. 2. 2. 2. 2. 2. 2. 7. 27. 27. 11. 2. 2. 3. 3. 3. 2. 1.
      1. 15. 26. 27. 12. 9. 7. 7. 7. 7. 7. 11. 24. 22. 13. 3. 3. 3. 6.
      9. 13. 15. 12. 13. 12. 13. 13. 12. 13. 16. 12. 6. 3. 2. 3. 2. 0.
      1. 14.</_>
    <_>
      15. 31. 41. 53. 46. 44. 33. 32. 29. 26. 25. 28. 29. 32. 35. 38.
      49. 53. 56. 54. 45. 40. 40. 40. 38. 37. 38. 37. 39. 42. 43. 49.
      61. 56. 43. 29. 0. 2. 2. 0. 0. 0. 0. 0. 0. 5. 10. 12. 16. 20. 18.
      9. 11. 24. 28. 8. 9. 6. 0. 0. 0. 0. 0. 4. 6. 6. 4. 4. 4. 4. 4. 4.
      4. 32. 31. 29. 0. 0. 0. 0. 2. 3. 2. 0. 0. 0. 0. 36. 36. 35. 8. 7.
      8. 10. 14. 17. 20. 24. 21. 14. 0. 0. 0. 0. 2. 14. 20. 18. 18. 15.
      14. 14. 13. 14. 14. 17. 13. 7. 0. 0. 0. 0. 8. 21. 30. 25. 17. 13.
      11. 11. 14. 17. 28. 27. 19. 1. 0. 0. 0. 0. 12. 19. 21. 19. 15. 14.
      14. 14. 14. 15. 17. 13. 8. 0. 0. 0. 0. 23. 28. 31. 10. 8. 8. 8. 8.
      7. 8. 8. 31. 28. 17. 0.</_>
    <_>
      0. 6. 10. 23. 30. 37. 30. 29. 25. 21. 23. 25. 26. 29. 27. 25. 21.
      23. 25. 35. 42. 46. 39. 33. 32. 31. 30. 29. 34. 37. 45. 50. 50.
      38. 28. 18. 4. 9. 10. 13. 20. 15. 11. 9. 24. 24. 11. 8. 6. 0. 0.
      0. 0. 0. 31. 32. 32. 3. 3. 3. 3. 3. 3. 3. 3. 3. 3. 1. 0. 0. 0. 0.
      0. 2. 1. 0. 0. 0. 0. 9. 23. 27. 15. 8. 7. 6. 7. 6. 6. 7. 14. 27.
      24. 10. 0. 0. 0. 0. 0. 0. 0. 0. 0. 16. 32. 32. 8. 0. 0. 0. 0. 0.
      0. 0. 0. 0. 3. 5. 6. 5. 3. 4. 3. 3. 4. 3. 5. 25. 29. 26. 4. 0. 0.
      0. 5. 12. 17. 17. 16. 13. 12. 12. 12. 12. 12. 17. 12. 8. 0. 0. 0.
      0. 3. 12. 16. 17. 15. 14. 12. 9. 10. 11. 14. 16. 12. 9. 0. 0. 0.
      0. 0. 0.</_>
    <_>
      4. 12. 22. 2. 0. 0. 2. 0. 7. 1. 0. 0. 0. 38. 58. 58. 39. 30. 25.
      26. 39. 49. 43. 36. 35. 34. 32. 33. 34. 37. 71. 56. 0. 0. 0. 0. 0.
      1. 1. 1. 1. 5. 9. 8. 11. 12. 7. 5. 8. 16. 8. 4. 3. 0. 0. 0. 0. 6.
      19. 19. 5. 2. 2. 2. 2. 2. 2. 2. 2. 3. 0. 0. 0. 0. 0. 2. 2. 0. 0.
      0. 0. 2. 13. 14. 12. 8. 6. 7. 7. 7. 8. 13. 12. 9. 0. 0. 0. 0. 4.
      11. 15. 14. 8. 7. 7. 7. 7. 11. 17. 12. 7. 0. 0. 0. 0. 18. 19. 19.
      5. 4. 4. 4. 4. 5. 6. 17. 17. 14. 0. 0. 0. 0. 5. 12. 16. 12. 7. 6.
      6. 6. 9. 11. 17. 13. 5. 0. 1. 1. 1. 5. 8. 10. 11. 9. 8. 8. 8. 9.
      8. 13. 11. 6. 2. 2. 1. 6. 2. 4. 4. 4. 3. 0.</_>
    <_>
      0. 0. 0. 0. 0. 2. 31. 44. 54. 43. 37. 30. 26. 27. 29. 38. 49. 50.
      48. 39. 38. 37. 36. 32. 30. 32. 37. 54. 50. 33. 0. 0. 0. 9. 10. 3.
      0. 0. 0. 0. 0. 0. 0. 0. 0. 0. 0. 0. 0. 0. 0. 0. 0. 0. 0. 0. 6. 10.
      11. 16. 12. 8. 10. 20. 14. 8. 5. 0. 0. 0. 0. 24. 24. 24. 3. 3. 3.
      3. 5. 5. 5. 5. 5. 0. 0. 0. 0. 1. 0. 0. 0. 0. 2. 18. 21. 9. 8. 6.
      8. 8. 8. 12. 19. 17. 10. 0. 0. 0. 1. 8. 14. 16. 15. 10. 10. 13.
      13. 14. 9. 4. 0. 0. 0. 0. 7. 10. 13. 10. 11. 10. 10. 12. 13. 16.
      12. 6. 0. 0. 1. 7. 14. 17. 13. 16. 13. 11. 10. 10. 13. 10. 8. 0.
      0. 0. 0. 10. 17. 22. 15. 12. 10. 10. 11. 15. 22. 18. 10. 0. 0. 0.
      0. 0.</_>
    <_>
      4. 6. 7. 2. 0. 0. 0. 28. 45. 53. 54. 48. 39. 34. 27. 24. 29. 31.
      36. 45. 54. 51. 41. 24. 25. 25. 26. 27. 28. 30. 32. 33. 37. 58.
      52. 40. 0. 0. 4. 9. 10. 13. 15. 16. 10. 7. 15. 24. 14. 6. 6. 2. 0.
      0. 0. 0. 28. 29. 29. 3. 3. 3. 3. 3. 3. 3. 3. 5. 6. 6. 4. 2. 0. 0.
      0. 2. 3. 1. 0. 0. 0. 0. 2. 5. 5. 5. 4. 4. 3. 3. 3. 4. 4. 18. 26.
      25. 7. 0. 0. 0. 2. 6. 10. 12. 14. 11. 12. 11. 11. 12. 13. 14. 15.
      13. 8. 0. 0. 0. 0. 3. 9. 11. 13. 12. 13. 11. 11. 10. 15. 15. 17.
      16. 12. 2. 0. 0. 0. 0. 6. 11. 14. 12. 15. 11. 11. 10. 11. 14. 14.
      18. 14. 8. 0. 0. 0. 0. 2. 9. 11. 12. 14. 11. 10. 11. 11. 17. 21.
      23. 20. 12. 0. 0.</_>
    <_>
      1. 0. 0. 0. 0. 5. 19. 27. 32. 34. 35. 33. 25. 26. 23. 24. 25. 31.
      36. 30. 24. 20. 23. 25. 26. 24. 20. 21. 22. 22. 42. 38. 26. 1. 3.
      3. 0. 0. 3. 1. 0. 0. 3. 10. 9. 10. 16. 13. 7. 7. 20. 21. 8. 7. 3.
      0. 0. 0. 0. 25. 26. 26. 3. 3. 3. 3. 3. 3. 3. 4. 5. 4. 0. 0. 0. 0.
      0. 3. 3. 0. 0. 0. 0. 21. 27. 27. 3. 3. 3. 3. 3. 3. 3. 3. 3. 2. 0.
      0. 0. 0. 0. 0. 4. 6. 7. 7. 20. 19. 19. 6. 7. 6. 4. 2. 0. 0. 0. 0.
      5. 9. 11. 11. 11. 9. 10. 11. 12. 14. 15. 14. 10. 0. 0. 0. 0. 0. 0.
      2. 1. 0. 15. 26. 27. 2. 0. 0. 0. 0. 0. 0. 0. 0. 0. 0. 0. 0. 0. 0.
      26. 26. 11. 0. 0. 0. 0. 0. 0. 0. 0. 2. 0. 0.</_>
    <_>
      22. 36. 41. 46. 44. 42. 32. 31. 26. 22. 24. 23. 25. 26. 31. 34.
      33. 28. 26. 26. 25. 25. 27. 25. 26. 24. 28. 29. 24. 25. 25. 28.
      49. 51. 47. 41. 0. 7. 8. 15. 18. 20. 9. 7. 10. 25. 23. 9. 7. 5. 0.
      0. 0. 0. 0. 35. 35. 31. 4. 3. 4. 4. 4. 4. 3. 3. 4. 4. 4. 0. 0. 0.
      0. 0. 3. 4. 3. 0. 0. 0. 0. 0. 0. 5. 8. 10. 10. 29. 27. 26. 12. 8.
      9. 8. 6. 2. 0. 0. 0. 0. 0. 0. 0. 0. 0. 6. 34. 36. 35. 2. 0. 0. 0.
      0. 0. 0. 0. 0. 2. 5. 11. 14. 17. 14. 15. 15. 14. 15. 14. 15. 18.
      19. 15. 7. 0. 0. 0. 0. 0. 0. 0. 0. 0. 16. 35. 36. 26. 0. 0. 0. 0.
      0. 0. 0. 0. 0. 0. 5. 11. 11. 10. 12. 13. 14. 16. 17. 17. 20. 25.
      21. 14. 0.</_>
    <_>
      0. 2. 0. 0. 1. 1. 2. 0. 18. 49. 65. 57. 50. 46. 43. 40. 49. 63.
      57. 40. 36. 39. 39. 36. 38. 41. 47. 39. 8. 1. 2. 2. 2. 2. 3. 3. 0.
      1. 1. 2. 1. 1. 1. 0. 5. 10. 9. 11. 12. 5. 5. 15. 17. 7. 5. 3. 0.
      0. 0. 0. 19. 21. 19. 5. 4. 4. 5. 4. 5. 6. 19. 22. 21. 0. 0. 0. 0.
      1. 2. 1. 0. 0. 0. 0. 15. 17. 19. 6. 4. 5. 6. 4. 5. 6. 17. 16. 13.
      0. 0. 0. 11. 15. 17. 9. 6. 4. 6. 6. 4. 6. 8. 17. 15. 11. 0. 0. 0.
      19. 20. 20. 3. 3. 2. 2. 2. 2. 2. 11. 20. 20. 3. 0. 0. 0. 3. 6. 8.
      9. 7. 9. 9. 9. 10. 11. 13. 11. 6. 0. 0. 0. 0. 4. 7. 9. 9. 8. 9. 9.
      9. 11. 11. 13. 10. 6. 0. 0. 2. 26. 1. 0. 0. 0.</_>
    <_>
      68. 125. 117. 118. 122. 123. 83. 71. 61. 69. 76. 81. 84. 86. 85.
      86. 74. 66. 72. 76. 87. 87. 84. 83. 80. 81. 80. 70. 71. 77. 91.
      121. 130. 130. 130. 129. 0. 0. 2. 5. 35. 36. 34. 30. 23. 22. 18.
      18. 22. 26. 27. 13. 15. 24. 28. 29. 35. 35. 36. 35. 10. 9. 9. 27.
      29. 29. 28. 29. 29. 27. 8. 6. 6. 10. 32. 35. 36. 34. 33. 34. 36.
      36. 36. 36. 31. 29. 27. 28. 26. 24. 24. 23. 20. 21. 16. 17. 20.
      28. 35. 36. 36. 20. 17. 14. 12. 27. 28. 28. 29. 29. 27. 26. 12.
      14. 16. 36. 36. 36. 36. 26. 21. 19. 20. 20. 22. 23. 25. 24. 23.
      19. 24. 26. 33. 36. 36. 36. 31. 26. 23. 17. 18. 18. 19. 21. 23.
      21. 18. 19. 22. 26. 35. 35. 35. 35. 16. 14. 12. 25. 27. 28. 29.
      29. 28. 27. 12. 13. 15. 20. 35. 33. 0. 0.</_>
    <_>
      48. 89. 94. 41. 28. 56. 38. 5. 2. 11. 17. 46. 57. 37. 30. 29. 30.
      33. 42. 47. 41. 32. 26. 27. 24. 28. 35. 38. 46. 38. 21. 4. 2. 7.
      24. 33. 6. 3. 3. 2. 2. 2. 2. 2. 2. 3. 3. 3. 3. 19. 9. 5. 4. 8. 11.
      11. 14. 12. 9. 8. 17. 9. 7. 2. 2. 2. 2. 20. 23. 14. 8. 6. 7. 7. 7.
      8. 26. 26. 4. 4. 4. 4. 5. 5. 4. 3. 4. 7. 8. 9. 10. 10. 14. 15. 14.
      15. 18. 13. 6. 3. 3. 3. 14. 19. 19. 11. 11. 11. 11. 11. 13. 16.
      12. 3. 3. 3. 5. 8. 9. 9. 12. 13. 13. 13. 14. 17. 14. 8. 4. 4. 5.
      13. 17. 16. 13. 13. 11. 12. 10. 14. 11. 7. 3. 5. 5. 13. 18. 19.
      11. 10. 10. 10. 12. 12. 16. 12. 3. 3. 23. 23. 1. 2. 2. 2. 2. 2. 2.
      2. 3. 3. 4. 7.</_>
    <_>
      136. 136. 136. 123. 62. 45. 102. 113. 108. 100. 73. 59. 58. 75.
      77. 84. 86. 85. 85. 86. 82. 79. 81. 77. 77. 82. 78. 73. 65. 70.
      88. 117. 123. 126. 85. 50. 11. 11. 11. 11. 11. 11. 5. 27. 32. 32.
      24. 19. 16. 15. 16. 21. 23. 14. 14. 22. 26. 28. 33. 33. 33. 13.
      11. 11. 26. 27. 27. 27. 25. 25. 19. 7. 7. 8. 31. 32. 33. 31. 30.
      31. 32. 32. 32. 17. 15. 13. 24. 26. 28. 27. 28. 26. 25. 21. 22.
      27. 33. 33. 33. 18. 16. 14. 26. 27. 27. 28. 28. 26. 24. 21. 23.
      31. 34. 33. 33. 33. 34. 34. 33. 28. 12. 13. 13. 34. 35. 35. 35.
      35. 35. 33. 33. 28. 28. 28. 28. 27. 21. 18. 18. 23. 25. 28. 29.
      35. 35. 34. 29. 23. 21. 22. 22. 24. 24. 25. 25. 20. 23. 26. 30.
      34. 32. 5. 6. 8. 9. 9. 9. 10. 10. 11. 11. 11.</_>
    <_>
      34. 50. 3. 1. 1. 1. 8. 36. 47. 42. 31. 34. 31. 29. 28. 33. 33. 28.
      28. 28. 29. 31. 27. 26. 25. 28. 36. 41. 33. 2. 1. 4. 3. 4. 37. 0.
      0. 0. 0. 0. 0. 0. 0. 0. 0. 0. 0. 25. 11. 2. 1. 7. 10. 9. 13. 13.
      8. 8. 18. 13. 6. 6. 1. 1. 1. 8. 24. 24. 7. 6. 6. 6. 4. 5. 19. 25.
      24. 2. 1. 1. 3. 5. 1. 2. 2. 2. 21. 25. 20. 4. 5. 4. 5. 4. 4. 4. 3.
      1. 2. 2. 2. 1. 4. 7. 8. 15. 19. 19. 6. 7. 6. 4. 1. 2. 1. 4. 13.
      19. 16. 11. 9. 8. 10. 12. 21. 15. 4. 1. 0. 0. 0. 1. 0. 0. 7. 22.
      23. 2. 1. 1. 1. 1. 1. 1. 1. 3. 3. 3. 3. 7. 13. 16. 11. 10. 8. 5.
      1. 0. 3. 26. 0. 0. 0. 0. 0. 0. 0. 0. 0. 0. 0. 0.</_>
    <_>
      2. 4. 4. 1. 0. 22. 46. 9. 1. 1. 5. 45. 64. 59. 51. 51. 45. 42. 37.
      48. 56. 53. 37. 35. 36. 36. 39. 35. 47. 54. 50. 13. 0. 1. 1. 0. 0.
      1. 2. 2. 1. 0. 0. 1. 2. 2. 1. 4. 9. 9. 12. 14. 12. 7. 8. 17. 16.
      6. 6. 2. 0. 0. 0. 12. 20. 20. 17. 4. 4. 5. 6. 4. 6. 7. 20. 20. 12.
      0. 0. 0. 1. 4. 3. 1. 1. 1. 3. 21. 22. 19. 6. 4. 6. 6. 6. 6. 6. 21.
      22. 17. 1. 1. 1. 19. 21. 21. 10. 9. 9. 9. 9. 9. 9. 9. 7. 5. 2. 1.
      1. 1. 4. 3. 2. 2. 2. 6. 12. 15. 15. 11. 7. 5. 3. 0. 0. 0. 0. 11.
      17. 18. 12. 9. 8. 8. 9. 12. 17. 16. 12. 4. 1. 1. 1. 3. 8. 10. 11.
      11. 12. 11. 11. 11. 12. 14. 12. 9. 1. 1. 1. 28. 0. 0.</_>
    <_>
      0. 2. 11. 5. 4. 5. 3. 26. 55. 58. 47. 45. 42. 38. 41. 48. 51. 41.
      36. 34. 37. 37. 41. 42. 48. 58. 48. 13. 3. 13. 17. 16. 1. 2. 2. 0.
      0. 1. 2. 29. 29. 1. 1. 0. 6. 7. 12. 14. 12. 8. 7. 16. 16. 8. 5. 4.
      0. 0. 0. 0. 20. 20. 20. 5. 4. 4. 4. 7. 9. 9. 22. 23. 21. 0. 0. 0.
      0. 2. 2. 0. 0. 0. 0. 0. 2. 3. 5. 6. 9. 16. 16. 16. 6. 5. 3. 1. 0.
      0. 0. 0. 1. 4. 3. 3. 2. 2. 3. 2. 2. 3. 18. 19. 17. 0. 0. 0. 0. 12.
      15. 16. 9. 7. 7. 8. 7. 8. 13. 13. 11. 5. 0. 0. 0. 6. 16. 20. 19.
      13. 9. 8. 7. 8. 11. 17. 14. 9. 0. 0. 0. 0. 3. 7. 7. 7. 9. 9. 9.
      12. 12. 14. 14. 11. 6. 1. 1. 10. 30. 2. 1. 0. 0. 0.</_>
    <_>
      129. 31. 25. 31. 27. 29. 64. 84. 93. 58. 56. 49. 43. 44. 47. 61.
      64. 58. 45. 35. 39. 38. 39. 44. 45. 46. 50. 56. 48. 21. 2. 2. 2.
      1. 0. 43. 20. 19. 20. 19. 19. 33. 34. 2. 1. 1. 8. 11. 13. 17. 18.
      12. 9. 18. 22. 18. 7. 7. 2. 1. 1. 1. 23. 25. 25. 10. 9. 10. 9. 9.
      9. 12. 22. 26. 27. 7. 1. 2. 2. 4. 4. 4. 2. 2. 2. 15. 21. 22. 15.
      8. 7. 8. 8. 9. 8. 13. 13. 12. 6. 1. 1. 1. 5. 8. 9. 11. 11. 12. 13.
      15. 15. 17. 22. 18. 12. 2. 2. 2. 1. 15. 18. 20. 14. 12. 10. 9. 11.
      12. 14. 16. 15. 11. 2. 3. 4. 6. 6. 6. 6. 6. 5. 13. 18. 20. 15. 13.
      9. 9. 7. 3. 1. 4. 7. 11. 12. 13. 15. 16. 15. 17. 17. 17. 24. 22.
      18. 12. 11. 12. 13. 14. 10. 18.</_>
    <_>
      105. 85. 75. 70. 68. 77. 80. 85. 90. 96. 101. 98. 97. 95. 86. 74.
      62. 55. 58. 61. 63. 72. 74. 76. 80. 78. 79. 77. 79. 77. 77. 69.
      58. 64. 69. 78. 24. 20. 13. 10. 8. 10. 14. 16. 9. 7. 7. 19. 23.
      28. 35. 36. 36. 36. 15. 1. 0. 0. 17. 20. 22. 22. 22. 22. 20. 18.
      0. 0. 0. 14. 36. 36. 36. 36. 33. 32. 33. 36. 36. 36. 31. 9. 5. 2.
      6. 26. 27. 25. 23. 22. 22. 19. 8. 8. 11. 18. 36. 36. 36. 36. 23.
      16. 13. 12. 15. 16. 19. 20. 20. 19. 17. 14. 20. 24. 30. 36. 36.
      36. 36. 29. 25. 23. 23. 22. 20. 19. 18. 14. 12. 12. 6. 11. 15. 24.
      36. 36. 36. 32. 21. 15. 11. 9. 14. 14. 18. 18. 18. 19. 16. 13. 19.
      23. 29. 36. 36. 36. 36. 26. 22. 18. 14. 17. 18. 17. 16. 15. 14. 9.
      10. 14. 18. 24.</_>
    <_>
      5. 12. 15. 17. 17. 51. 103. 7. 2. 2. 16. 51. 68. 66. 56. 49. 39.
      36. 52. 64. 60. 53. 39. 44. 50. 55. 47. 43. 52. 48. 36. 5. 0. 0.
      0. 19. 0. 2. 4. 5. 6. 7. 8. 18. 25. 8. 7. 8. 11. 18. 18. 20. 19.
      11. 10. 17. 18. 14. 6. 4. 1. 1. 1. 5. 21. 22. 21. 9. 8. 8. 8. 7.
      8. 9. 21. 21. 19. 0. 0. 1. 1. 3. 2. 1. 1. 1. 1. 15. 18. 19. 8. 7.
      7. 9. 11. 10. 12. 20. 19. 14. 2. 2. 1. 13. 17. 19. 19. 7. 7. 6. 6.
      7. 7. 11. 11. 10. 2. 1. 2. 1. 7. 10. 13. 13. 13. 10. 10. 10. 13.
      14. 15. 12. 7. 1. 1. 1. 5. 14. 15. 17. 10. 10. 11. 11. 12. 14. 18.
      17. 12. 5. 2. 2. 3. 8. 10. 12. 12. 13. 10. 10. 11. 12. 13. 13. 10.
      6. 1. 1. 9. 15. 0. 0.</_>
    <_>
      8. 3. 109. 111. 115. 118. 118. 66. 49. 45. 77. 80. 81. 86. 86. 83.
      70. 64. 64. 73. 84. 86. 85. 87. 75. 70. 64. 53. 49. 60. 84. 118.
      115. 110. 109. 83. 0. 17. 33. 34. 30. 20. 11. 10. 9. 10. 10. 11.
      11. 10. 10. 13. 20. 31. 33. 33. 33. 16. 14. 12. 10. 26. 27. 25.
      23. 22. 21. 16. 13. 13. 15. 25. 25. 31. 33. 32. 33. 33. 35. 34.
      34. 10. 10. 9. 15. 24. 25. 25. 24. 23. 21. 12. 13. 18. 24. 34. 34.
      34. 31. 27. 26. 25. 23. 23. 23. 22. 18. 19. 16. 16. 19. 26. 34.
      34. 34. 31. 27. 26. 25. 23. 23. 22. 21. 18. 20. 17. 15. 19. 23.
      34. 34. 34. 23. 10. 8. 4. 14. 16. 18. 18. 17. 21. 24. 12. 13. 16.
      18. 34. 34. 34. 20. 16. 15. 15. 22. 25. 25. 25. 24. 22. 17. 18.
      20. 25. 34. 34. 7. 0. 0. 0. 0. 0.</_>
    <_>
      6. 5. 4. 4. 3. 4. 4. 3. 3. 2. 2. 29. 46. 44. 36. 36. 42. 42. 35.
      38. 46. 52. 54. 43. 45. 40. 38. 39. 44. 52. 52. 43. 20. 1. 1. 1.
      36. 9. 2. 0. 0. 0. 0. 0. 0. 0. 0. 12. 17. 17. 10. 6. 9. 13. 16.
      16. 14. 11. 4. 0. 0. 0. 0. 4. 9. 13. 16. 16. 12. 13. 17. 14. 15.
      9. 5. 0. 0. 0. 0. 2. 2. 1. 0. 0. 0. 0. 3. 3. 4. 3. 3. 3. 3. 3. 4.
      21. 21. 19. 0. 0. 0. 3. 17. 19. 20. 7. 6. 5. 5. 6. 5. 17. 19. 17.
      14. 0. 0. 0. 0. 0. 0. 0. 2. 22. 22. 21. 0. 0. 0. 0. 0. 0. 0. 0. 5.
      14. 19. 18. 10. 7. 7. 8. 9. 16. 19. 14. 6. 0. 0. 0. 2. 9. 13. 13.
      12. 10. 10. 9. 9. 10. 11. 8. 4. 0. 0. 0. 0. 0. 0. 1. 4. 25.</_>
    <_>
      70. 30. 2. 0. 14. 2. 0. 0. 0. 20. 53. 58. 39. 26. 24. 22. 24. 23.
      25. 43. 45. 41. 26. 25. 26. 26. 29. 31. 28. 28. 34. 25. 0. 0. 0.
      0. 3. 2. 1. 1. 1. 1. 1. 1. 1. 1. 1. 1. 1. 1. 1. 1. 7. 19. 17. 3.
      4. 6. 20. 21. 8. 6. 3. 1. 1. 1. 2. 10. 15. 18. 16. 13. 14. 17. 14.
      11. 6. 1. 2. 3. 2. 4. 4. 2. 2. 2. 24. 25. 25. 8. 7. 9. 8. 8. 8. 8.
      5. 5. 2. 2. 2. 6. 10. 12. 12. 10. 9. 10. 9. 10. 12. 7. 0. 0. 0. 6.
      22. 22. 6. 5. 5. 5. 5. 5. 6. 3. 2. 0. 0. 0. 3. 3. 3. 3. 3. 12. 16.
      17. 11. 8. 5. 0. 0. 0. 0. 9. 13. 13. 11. 11. 10. 9. 9. 10. 8. 4.
      0. 0. 5. 0. 0. 0. 0. 0. 0. 0. 0. 0. 0. 0. 1. 3.</_>
    <_>
      3. 7. 6. 0. 0. 0. 7. 39. 50. 52. 40. 40. 39. 40. 41. 41. 42. 41.
      40. 40. 33. 34. 32. 34. 36. 44. 46. 36. 44. 41. 12. 3. 0. 0. 0. 0.
      0. 2. 21. 20. 0. 0. 0. 18. 20. 2. 0. 0. 12. 23. 23. 0. 0. 0. 0.
      13. 23. 24. 7. 2. 2. 2. 2. 2. 2. 2. 4. 4. 3. 1. 0. 0. 0. 0. 0. 0.
      2. 1. 0. 0. 0. 0. 0. 0. 4. 13. 17. 20. 16. 13. 13. 15. 14. 13. 9.
      7. 4. 1. 1. 0. 0. 0. 0. 3. 8. 15. 18. 18. 14. 12. 14. 15. 16. 13.
      9. 6. 3. 0. 0. 0. 1. 11. 18. 20. 21. 8. 6. 5. 6. 6. 5. 7. 8. 18.
      21. 19. 16. 0. 0. 0. 0. 3. 3. 3. 3. 3. 2. 3. 13. 18. 20. 17. 13.
      10. 7. 5. 0. 0. 0. 0. 0. 0. 0. 0. 0. 0. 10. 24. 25. 24. 0. 0.</_>
